svm_type c_svc
kernel_type linear
nr_class 3
total_sv 53
rho 2.64212 10.8073 2.26658
label 3 1 2
probA -3.12498 -1.59234 -1.09036
probB 0.0764283 -0.408678 -0.329793
nr_sv 15 20 18
SV
1.120409977692159e-05 0 1:-55 2:-73 3:-73 5:-61 6:-65 7:-75 8:-68 9:-74 10:-53 11:-76 13:-68 14:-78 16:-74 
3.974257821334229e-06 0 1:-55 3:-72 4:-73 5:-61 6:-66 7:-78 8:-67 9:-74 10:-52 11:-72 13:-67 14:-71 16:-73 22:-68 31:-72 
0 2.457820890256265e-05 1:-51 2:-74 3:-72 4:-73 5:-63 6:-64 7:-78 8:-67 9:-74 10:-53 11:-77 13:-67 14:-77 15:-75 16:-73 22:-76 27:-80 28:-87 31:-78 32:-85 
0 0.03052939273118569 1:-43 2:-74 3:-72 4:-74 5:-62 6:-65 7:-52 8:-69 9:-73 10:-35 11:-71 12:-83 13:-69 14:-68 15:-72 16:-74 17:-77 18:-65 21:-80 22:-72 23:-81 27:-86 31:-72 33:-83 43:-83 
0.0001197039242188511 0.0001048265830076399 1:-55 2:-73 3:-73 4:-73 5:-61 6:-65 7:-78 8:-69 9:-74 11:-78 13:-68 14:-78 
3.511338733439755e-05 0 1:-54 2:-74 3:-73 5:-62 6:-65 7:-74 8:-67 9:-74 10:-52 13:-68 16:-74 
7.284681861048253e-05 0 1:-54 3:-73 4:-74 5:-62 6:-64 7:-77 8:-66 9:-75 10:-52 11:-78 13:-67 14:-78 16:-74 22:-79 
0.0003076655011774301 0.0004731709693981213 1:-56 2:-72 3:-74 4:-75 5:-62 6:-56 7:-76 8:-72 9:-75 10:-53 11:-62 12:-82 13:-71 14:-61 15:-73 17:-80 18:-75 22:-72 23:-91 27:-81 31:-69 
0 6.479144195347577e-05 1:-51 3:-73 4:-73 5:-61 6:-65 7:-77 8:-67 9:-74 10:-53 11:-78 13:-67 14:-75 15:-75 16:-73 22:-73 31:-73 
0 3.320499676383114e-05 1:-54 2:-74 3:-73 4:-74 5:-60 6:-65 7:-77 8:-67 9:-75 10:-53 11:-76 13:-67 14:-78 15:-78 16:-73 31:-77 
0.0002063027935354346 0 1:-57 2:-73 3:-73 4:-74 5:-59 6:-63 7:-72 8:-67 9:-74 10:-53 11:-75 12:-80 13:-68 14:-70 15:-62 16:-72 17:-77 18:-65 21:-78 22:-63 23:-81 27:-79 31:-72 
8.915097900979814e-05 0 1:-47 2:-74 3:-70 4:-74 5:-54 6:-53 7:-54 8:-65 9:-71 10:-55 11:-63 12:-80 13:-65 14:-64 15:-72 16:-72 17:-77 18:-65 21:-78 22:-72 23:-81 27:-79 31:-72 33:-83 43:-83 
9.250919906940742e-05 0 1:-55 3:-71 4:-73 5:-63 6:-64 7:-78 8:-67 9:-74 10:-50 11:-76 13:-67 14:-76 15:-77 16:-74 20:-85 31:-76 
0 0.0003915288909721847 1:-54 2:-73 3:-73 4:-73 5:-62 6:-64 7:-77 8:-67 9:-74 10:-53 11:-72 13:-67 14:-78 16:-73 22:-74 27:-81 31:-75 
6.559777309325908e-05 0 1:-56 3:-73 4:-73 5:-60 6:-64 7:-78 8:-72 9:-74 10:-52 11:-75 13:-71 16:-73 28:-87 
-9.08403139666905e-05 0 1:-45 3:-78 5:-55 6:-59 7:-57 8:-74 10:-40 11:-66 12:-73 13:-72 14:-66 16:-77 17:-77 20:-75 23:-77 31:-68 
-0 0.0001670821160098516 1:-43 3:-72 4:-72 5:-54 6:-55 7:-50 8:-69 9:-74 10:-41 11:-68 12:-73 13:-69 14:-68 15:-63 17:-72 18:-63 22:-65 23:-69 24:-87 25:-86 26:-88 
-3.600398350280661e-05 0 1:-45 3:-79 4:-79 5:-54 6:-61 7:-55 8:-74 9:-82 10:-41 11:-66 13:-74 14:-66 16:-79 17:-75 18:-73 22:-67 23:-76 31:-65 
-8.135190349606903e-05 0.0003146318874853259 1:-44 2:-73 3:-71 4:-73 5:-54 6:-51 7:-59 8:-72 9:-73 10:-39 11:-66 12:-69 13:-68 14:-69 17:-69 18:-66 19:-68 21:-70 22:-68 23:-76 27:-78 30:-74 31:-69 
-4.425601267247244e-05 1.00525716972246e-05 1:-45 3:-71 4:-72 5:-58 6:-52 7:-46 8:-69 9:-73 10:-41 11:-68 12:-73 13:-71 14:-68 16:-73 17:-72 18:-64 23:-73 24:-87 25:-86 26:-88 27:-79 
-0 0.04589901359009284 1:-45 2:-78 3:-77 4:-77 5:-55 6:-57 7:-59 8:-73 9:-80 10:-42 11:-66 12:-74 13:-75 14:-65 15:-68 16:-77 17:-76 18:-69 19:-78 22:-67 31:-66 
-8.601405943546193e-05 0 1:-45 2:-73 3:-71 4:-73 5:-56 6:-52 7:-53 8:-72 9:-73 10:-40 11:-66 12:-69 13:-70 14:-69 17:-69 18:-66 19:-68 20:-72 21:-71 22:-68 23:-76 27:-78 31:-69 
-0 0.0002226566933724045 1:-45 2:-77 3:-78 5:-55 6:-60 7:-58 8:-74 9:-81 10:-42 11:-66 13:-72 14:-66 15:-67 16:-78 17:-74 18:-71 22:-66 23:-76 30:-77 31:-66 
-0 9.25687072236435e-05 1:-46 4:-78 5:-55 6:-61 7:-60 9:-81 10:-42 11:-65 12:-75 13:-74 14:-64 15:-65 16:-77 18:-71 23:-75 31:-65 
-0.0001284179096449451 0 1:-49 3:-73 4:-75 5:-53 6:-59 7:-59 9:-74 10:-50 11:-62 12:-72 13:-75 14:-63 15:-64 17:-72 18:-71 23:-78 27:-77 28:-74 31:-62 32:-74 33:-75 
-0.0001587115036552834 0 1:-46 2:-77 3:-77 4:-78 5:-56 6:-61 7:-59 8:-74 9:-81 10:-42 11:-65 12:-73 13:-72 14:-66 15:-67 17:-74 18:-69 21:-72 22:-66 31:-66 
-0 0.0001404991288784503 1:-46 3:-73 4:-75 5:-51 6:-59 7:-59 9:-74 10:-50 11:-62 12:-72 13:-75 14:-64 15:-64 17:-72 18:-69 27:-77 28:-74 31:-63 32:-74 33:-75 
-0 0.001123606286796176 1:-45 2:-78 3:-78 4:-78 5:-55 6:-58 7:-60 9:-81 10:-43 11:-65 12:-75 14:-66 15:-67 16:-78 17:-73 18:-71 23:-76 26:-87 29:-87 31:-67 
-0.0001690788286541402 0.0002435879624931377 1:-44 2:-79 4:-78 5:-55 6:-61 7:-61 8:-75 9:-83 10:-42 11:-64 13:-74 14:-63 15:-64 16:-78 18:-69 22:-65 23:-73 31:-64 
-1.207225762395911e-05 0 1:-44 2:-78 3:-78 5:-55 6:-58 7:-57 8:-75 10:-42 11:-65 12:-75 13:-72 14:-66 15:-67 16:-77 17:-75 19:-73 23:-75 31:-68 
-0 0.0002585397513220453 1:-45 3:-77 4:-77 5:-52 6:-59 7:-59 8:-73 9:-80 10:-42 11:-66 12:-74 13:-75 14:-66 15:-68 16:-77 17:-76 18:-71 19:-78 22:-67 31:-67 
-3.595046996200099e-05 0 1:-46 2:-79 3:-79 4:-79 5:-57 6:-59 7:-59 8:-74 9:-82 10:-43 11:-66 12:-73 13:-73 14:-66 15:-67 16:-79 17:-74 18:-72 22:-67 23:-74 
-0 2.957104135183007e-05 1:-45 2:-77 3:-78 4:-77 5:-55 6:-62 7:-63 8:-75 9:-81 10:-43 11:-65 12:-76 13:-73 14:-64 15:-65 16:-78 17:-72 18:-70 22:-65 23:-76 30:-77 31:-66 
-0.0001613714910334869 0 1:-45 2:-77 3:-77 4:-78 5:-54 6:-60 7:-59 8:-73 9:-81 10:-39 11:-64 12:-76 13:-72 14:-64 15:-64 16:-77 18:-71 22:-64 
-0 0.0003581874475751655 1:-45 3:-78 4:-78 5:-50 6:-59 7:-59 8:-74 9:-81 10:-40 11:-65 12:-74 14:-66 16:-78 17:-74 18:-72 20:-74 23:-75 31:-66 
-0 -0.000187293441855089 1:-36 3:-72 4:-74 5:-64 6:-63 7:-51 8:-67 9:-77 10:-35 11:-71 12:-83 13:-67 14:-71 16:-74 17:-82 18:-63 22:-72 23:-79 24:-86 25:-86 26:-86 29:-84 31:-72 
-0 -0.0005581478515884712 1:-35 2:-74 3:-73 4:-74 5:-62 6:-64 7:-51 8:-69 9:-76 10:-35 11:-68 13:-70 14:-68 15:-68 16:-74 17:-81 18:-65 22:-69 23:-81 30:-82 31:-69 
-4.564494714784491e-05 -0 1:-37 2:-74 3:-73 4:-74 5:-60 6:-65 7:-51 8:-67 9:-74 10:-35 11:-68 13:-68 14:-68 15:-68 16:-74 18:-64 22:-68 23:-77 31:-71 35:-80 
-0 -0.0001689198729239997 1:-36 3:-73 4:-74 5:-61 6:-67 7:-51 8:-70 9:-74 10:-34 11:-70 13:-68 14:-71 16:-75 17:-82 18:-64 23:-81 31:-71 35:-80 41:-81 46:-85 
-0 -5.833598183558044e-05 1:-37 2:-74 3:-72 4:-75 5:-62 6:-64 7:-51 8:-68 9:-77 10:-33 11:-71 12:-83 13:-68 14:-72 15:-72 16:-74 18:-64 25:-86 26:-86 27:-83 29:-84 31:-72 41:-82 
-1.369625216315059e-05 -0 1:-37 2:-74 3:-73 5:-63 6:-64 7:-51 8:-68 9:-77 10:-35 11:-72 13:-68 14:-72 15:-73 16:-74 18:-64 21:-81 22:-73 23:-78 24:-87 25:-86 26:-87 27:-83 29:-86 31:-72 43:-79 
-0 -0.04653568869134885 1:-41 2:-77 3:-77 4:-77 5:-55 6:-57 7:-63 8:-70 9:-80 10:-42 11:-66 12:-74 13:-71 14:-65 15:-68 16:-77 17:-76 18:-69 19:-78 22:-67 31:-66 
-0.0008988304448503603 -0 1:-37 2:-74 3:-73 4:-74 5:-65 6:-64 7:-56 8:-67 9:-74 10:-34 11:-68 12:-81 13:-67 14:-69 15:-67 16:-75 18:-64 22:-68 23:-79 27:-84 31:-69 
-9.387460589448732e-05 -0 1:-37 2:-74 3:-73 4:-75 5:-63 6:-68 7:-50 8:-68 9:-74 10:-34 11:-68 13:-68 14:-68 15:-69 16:-74 22:-68 23:-80 24:-86 25:-86 26:-86 27:-81 29:-85 31:-69 33:-84 42:-77 44:-72 
-0.0001287631286859842 -0 1:-36 2:-74 3:-73 4:-74 5:-61 6:-65 7:-50 8:-69 9:-74 10:-35 11:-68 13:-70 14:-68 15:-68 18:-65 22:-69 23:-81 27:-84 31:-69 34:-82 
-2.206564859981309e-05 -0.0007402813270692292 1:-37 2:-74 3:-73 4:-74 5:-65 6:-68 7:-51 8:-67 9:-74 10:-34 11:-69 12:-80 13:-66 14:-69 15:-71 16:-74 18:-65 23:-80 27:-83 31:-71 
-0.03016815191164272 -0 1:-37 2:-74 3:-72 4:-74 5:-62 6:-65 7:-52 8:-67 9:-73 10:-35 11:-71 12:-83 13:-68 14:-71 15:-71 16:-73 17:-81 18:-65 21:-80 22:-72 23:-78 27:-86 31:-72 33:-83 43:-83 
-0 -0.0002709297863799165 1:-37 2:-74 3:-73 4:-74 5:-61 6:-64 7:-52 8:-69 9:-74 10:-36 11:-70 12:-82 13:-68 14:-70 16:-74 17:-82 18:-64 23:-81 24:-88 25:-87 26:-87 29:-85 31:-71 33:-82 39:-84 
-0 -8.949315097640085e-05 1:-36 2:-73 3:-73 5:-62 6:-68 7:-52 8:-69 9:-73 10:-35 11:-67 12:-82 13:-70 14:-67 15:-68 16:-74 17:-82 18:-65 22:-68 23:-80 24:-88 25:-86 26:-87 29:-84 31:-68 
-0 -0.0001783199969863218 1:-37 2:-74 3:-73 4:-74 5:-62 6:-63 7:-51 8:-68 9:-73 10:-34 11:-68 12:-80 13:-68 14:-68 15:-68 17:-83 18:-61 21:-81 22:-69 23:-78 24:-87 25:-86 26:-87 29:-85 31:-70 34:-80 42:-82 
-2.922414639370775e-05 -0 1:-37 2:-75 3:-73 4:-74 5:-60 6:-69 7:-51 8:-70 9:-74 10:-35 11:-71 12:-85 13:-70 14:-71 15:-71 16:-74 18:-64 21:-83 22:-72 23:-78 27:-85 31:-72 34:-81 40:-84 42:-80 
-0 -7.258708333423874e-05 1:-36 2:-74 3:-72 4:-73 5:-65 6:-64 7:-51 8:-69 9:-73 10:-35 11:-68 13:-70 14:-68 15:-67 16:-74 17:-81 22:-69 23:-78 30:-82 
-0.0002212427368054367 -0 1:-37 2:-75 3:-73 4:-74 5:-64 6:-64 7:-51 8:-69 9:-77 10:-35 11:-68 13:-70 14:-68 15:-67 16:-74 18:-63 22:-68 23:-80 31:-68 41:-83 43:-82 
