svm_type c_svc
kernel_type linear
nr_class 61
total_sv 2698
rho 0.0081736 0.0464787 0.597153 0.638157 0.0225473 0.474742 0.773627 0.091467 0.396512 0.642155 0.323771 0.0292087 -0.093215 0.643509 0.377813 0.0144249 0.824856 2.64647 0.830171 0.145885 0.297462 0.752304 0.468981 0.787853 0.39035 0.182903 0.0740091 -0.369131 -0.507076 0.518971 -0.00060163 0.389871 2.12816 0.334319 0.678314 1.31234 0.504247 0.504808 0.266089 0.425792 0.280274 -0.0782599 0.788923 0.151343 0.122873 0.659048 0.506695 0.699375 0.61193 0.49089 0.0769859 0.262978 -0.0801885 0.532195 0.342875 -0.785364 0.716708 0.220327 0.455069 -0.673929 0.00602372 0.575471 0.633248 -0.192373 0.468374 0.242024 0.122031 0.389823 0.733095 -0.127508 -5.76602 -0.259922 0.619569 0.370617 -0.229429 0.789013 0.282671 0.363061 0.13791 0.697743 0.748319 0.339437 0.407418 0.304596 0.174952 0.0659997 -0.376184 -0.142626 0.475193 -0.00975604 0.925639 0.167761 0.197184 0.671039 -0.0690836 0.498331 0.54963 0.0724922 0.48534 0.434022 -0.0838748 0.785786 0.191159 0.000194154 0.654066 0.529744 0.661534 0.606844 0.484819 0.0294682 0.0606256 -1.03283 0.530337 0.113568 -0.0790898 0.725943 0.212544 0.375067 0.110937 0.551766 0.609923 -0.236426 0.455222 0.197813 0.0837752 0.356725 0.71534 0.290283 -0.0470581 -0.289493 0.595257 0.337122 0.124513 0.784948 0.246973 0.329244 0.115874 0.317999 0.731166 0.780125 0.375063 0.269393 0.153404 0.0275921 -0.402933 -0.179269 0.484153 -0.156946 0.435088 0.112902 0.271663 0.652036 -0.107172 0.468791 0.469679 0.0341544 0.455263 0.402191 -0.400448 0.770411 0.15376 -4.43317 0.632257 0.501308 0.648421 0.592679 0.455035 0.140431 0.259541 -0.0930047 0.497633 0.332155 -0.117124 0.707105 0.175682 0.409619 0.0398282 0.586499 -0.582065 -0.183683 -0.410655 -0.506367 -0.26233 0.250371 -0.315305 -0.560027 -0.650092 0.0442116 -0.28296 -0.733726 0.449221 -0.370841 -0.290979 -0.493936 -0.428029 0.281468 -0.14732 -0.242594 -0.35005 -0.464783 -0.546882 -0.793672 -0.676682 3.9693 -0.588173 -0.399743 -0.483964 -0.327894 -0.947914 -0.624607 -23.2755 0.435064 -0.536486 -0.179825 -0.21196 -0.640748 0.363062 -0.451404 -0.493069 0.744774 -0.0900815 0.124623 0.0238213 -0.193281 -0.533943 -0.773268 -0.634845 -3.12369 -1.02745 -0.6405 1.33098 -0.414937 1.45619 -0.538298 -0.624453 10.0029 -0.456719 -0.561751 -0.319443 0.0995225 -0.396335 -0.620535 -0.690268 -0.0154197 -0.326275 -0.629622 -77.4846 -0.4271 -0.347795 -1.37669 -0.420754 0.219419 -0.238642 -0.299541 -0.410065 -1.08683 -0.598236 -1.05467 -0.711299 0.556427 -0.638542 -0.330521 -0.533588 -0.38608 0.671899 -0.672868 -0.267338 -8.16072 -0.587818 -0.16617 -0.257284 -0.682373 -0.179374 -1.0722 -0.559239 0.414891 -0.13824 0.0877802 10.0946 -0.158968 -0.590053 -0.468259 -0.683324 -0.214321 -0.415193 -0.678225 6.33661 -0.564329 -0.289013 -0.58414 0.457065 0.220676 0.107483 0.377589 0.726766 -9.09053 0.578894 -0.205291 0.610491 0.358015 0.00168449 0.815732 0.269184 0.350572 0.123751 0.349026 0.74226 0.401349 0.395334 0.291362 0.160861 0.0516325 -0.388503 -0.1561 0.502359 0.136074 0.317057 0.136584 -36.6411 0.665992 -0.0834608 0.48756 0.488033 0.0581063 0.474027 0.422107 -0.0702289 0.780107 0.177134 0.132397 0.645977 0.519304 0.68531 0.597441 0.473539 0.138103 0.253276 0.0226804 0.515394 0.243928 -0.0933353 0.71914 0.198679 0.440249 0.0635938 -0.262881 -0.367588 -0.0960712 -0.00787331 -0.17848 -0.451744 -0.543906 0.212961 -0.118162 -0.463572 -4.272 -0.21401 -0.126845 -2.09103 -0.206585 0.431099 -0.0808107 -0.075266 -0.190886 -1.68046 -0.415273 -1.40474 -0.572108 0.782059 -0.475131 -0.103897 -0.341872 -0.166752 0.977717 -0.520544 0.0364284 0.489423 -0.409737 0.0219402 -0.0431452 -0.53298 -3.33914 -0.946384 -0.37355 0.268485 0.0816462 0.202851 12.0913 0.0211081 -0.4128 -0.2416 -0.534534 0.0747512 -0.160364 -0.527671 0.92488 -0.262091 0.274015 -0.405201 -0.184124 0.417176 0.446067 0.0885371 -0.214454 -0.327829 0.701952 0.454458 -0.22862 0.728226 0.197406 0.460371 -0.099622 0.0594318 0.892691 0.254718 0.320673 0.0559386 -0.0620076 -0.23162 -0.561116 36.7533 0.305155 -0.243708 0.162366 -3.35252 0.100413 0.507063 -0.399041 0.298699 0.331338 -0.161209 3.75602 -0.779895 -0.325388 0.676016 -0.128626 -0.12276 0.328627 0.228809 0.551751 0.434102 0.787035 -0.168285 0.0222185 -0.31615 0.332499 0.109792 -0.450048 0.562265 -0.0228629 0.235415 -0.598201 0.304039 0.467982 0.202393 -0.100925 -0.22024 0.853103 1.06857 -0.1156 0.778406 0.169098 0.461475 -0.0491787 0.174376 0.954755 0.361608 0.707642 3.31574 0.0469654 -75.5517 -0.475912 -0.195437 0.417541 -0.13035 0.274814 0.179399 0.213985 0.598405 -0.142004 0.400975 0.457527 -0.0501848 0.949373 0.754336 -0.202269 0.857841 0.537899 -0.00693459 0.463886 0.89323 0.627858 0.523752 0.811523 -0.0533172 0.137952 -0.207655 0.432028 0.222907 -0.149682 0.64754 0.0933935 0.345019 0.051952 1.22223 -0.0837309 -0.371769 -0.47238 0.211832 -26.9468 -0.384485 0.636543 -0.120278 -0.0551044 -0.350566 -0.112652 -2.14383 0.0887552 0.0963823 -0.301796 -0.230459 -1.63729 -0.668293 -0.481345 0.154015 -0.397126 -0.00813922 -0.254084 -0.0718628 0.385145 -0.446794 0.134778 0.135465 -0.326572 -0.552445 -1.63559 -0.460477 0.911271 -0.119216 -0.287881 0.194974 0.305267 0.418515 0.284257 0.214921 -0.329729 -0.149163 -0.46209 0.171299 -0.0623073 -0.454618 0.467014 -0.193101 0.0712682 -0.321632 -0.54265 -0.723086 -0.776907 0.445419 -13.3905 -0.730053 0.369811 -0.533058 -0.20545 -0.882997 -0.562947 -0.983545 -0.405379 -12.0897 -10.2123 -0.3617 -1.09793 -0.832867 -0.722765 -0.353098 -0.737398 -0.486675 -0.454238 -0.534027 -0.117323 -0.667708 -0.370053 -0.292952 -0.694553 0.0710943 0.0673745 -0.769823 0.421087 -56.7896 -0.675108 -0.151689 0.720418 -0.0777896 0.202189 0.0538706 -0.699575 -0.587462 -0.771634 -0.337189 -0.527239 -0.687767 -0.0256276 -0.616504 -0.42387 -0.637713 -0.137947 -0.619029 0.377255 0.0615321 -0.101206 0.61756 -0.0368725 0.0529733 -0.186346 0.320954 0.566088 0.249153 0.104854 -0.012857 -0.14954 -0.255744 -0.618673 -0.438475 0.234803 -0.659751 0.00493449 -0.173822 -0.223721 0.454387 -0.377218 0.215996 0.216768 -0.249476 0.199676 0.13629 -0.707026 0.625121 -0.133044 30.765 0.426377 0.25632 0.392009 0.359504 0.199021 -0.283767 0.0163298 -0.648238 0.251483 -0.0187273 -0.385439 0.531478 -0.111066 0.145618 -0.244419 -0.264076 0.606472 0.352308 -0.474128 0.779584 0.263189 0.34463 0.117242 0.544132 0.739461 0.48734 0.38993 0.285454 0.154548 0.04515 -0.394255 -0.162237 0.471181 0.0231334 0.549306 0.130033 0.520368 0.662318 -0.0899308 0.482403 0.482801 0.0514992 0.468788 0.4168 -0.0851668 0.777443 0.170873 0.00323683 0.642321 0.514305 0.651815 0.593535 0.468417 -0.166438 0.180645 -0.256778 0.510587 -0.120206 -0.0997667 0.715758 0.192519 0.395931 0.0571525 0.678161 0.454719 0.320376 0.840918 0.373351 0.447967 0.235977 0.678096 0.789857 0.897871 0.488644 0.393569 0.271437 0.166071 -0.285792 -0.04115 0.58234 0.214364 0.739064 0.248071 0.540703 0.725629 0.0324861 0.570998 0.57127 0.172609 0.559018 0.512766 0.059558 0.821655 0.287004 0.460619 0.708825 0.598945 0.690401 0.666784 0.558596 -0.630097 0.442821 0.0779852 0.595277 0.445229 0.0224884 0.770508 0.307419 0.571754 0.177842 -0.490056 -0.615726 0.41338 -0.420158 -0.33087 -0.52664 -0.401782 1.00027 -0.220033 -0.283677 -0.846781 -0.498616 -1.00508 -0.807616 -0.710496 -0.156233 -0.624986 -0.310273 -0.554063 -0.366741 0.093192 -0.679775 -0.175384 -0.174694 -0.591063 1.56055 -0.208239 -0.670046 0.323995 -0.48599 -0.543309 -0.473341 98.3318 0.132531 -0.0204973 1.86404 -0.575179 -0.432715 -0.671162 -0.138779 -0.358459 -0.675191 0.186117 -0.468632 -0.23677 -0.570767 -0.364995 0.649568 -0.0982358 -0.0160197 -0.246163 -0.0905283 1.45044 0.110955 0.243116 -1.14667 -0.209278 -1.65977 -0.655695 -0.483005 0.175816 -0.378091 0.0143882 -0.23376 -0.0494565 0.404034 -0.428618 0.156529 0.157368 -0.306494 -12.5822 -42.5622 -0.442883 0.806651 0.0824266 -0.2672 0.0160064 0.638922 0.436931 0.304727 0.276779 -0.309584 -0.127235 -0.444367 0.192936 -0.0400754 -0.436925 0.486292 -0.171481 0.0934417 -0.301443 0.79217 0.276958 0.357746 0.131885 0.700887 0.745731 1.94361 0.402181 0.298909 0.168911 0.0598427 -0.381444 -0.14792 0.492106 0.0287108 0.51601 0.144462 0.262658 0.670623 -0.0751735 0.718415 0.494204 0.0663195 0.480597 0.428965 -0.0562457 0.783323 0.185174 -0.0133866 0.651257 0.525326 0.544612 0.60262 0.480003 -0.571226 0.326369 -6.58974 0.742815 0.635049 -0.0852275 0.723738 0.216119 0.492134 0.0718846 -0.703338 -0.654639 -0.996721 -0.640028 -0.192086 -1.06267 -0.62394 -0.690882 -1.42053 -0.799683 -0.998573 -0.863386 -0.641823 -0.805005 -0.641357 -0.766639 -0.677485 -0.364285 -0.843387 -0.549032 -0.740887 -0.79745 -0.560864 -0.603799 -0.835835 -48.2203 -0.993015 -0.742065 -0.363445 -0.518508 9.37268 8.74184 -0.561273 -0.773741 -0.650578 -0.825343 -0.522094 -0.609225 -0.846412 -0.239464 -0.763156 -0.779742 -0.795242 0.0607076 -0.150519 0.00794116 0.590956 0.206949 0.224931 0.0587399 -0.113243 -0.22081 -0.595529 -1.09727 0.269309 -0.290776 0.112499 -0.844541 0.0489627 0.483171 -0.396352 0.251047 0.251677 4.15881 0.191829 0.0117439 -0.360284 0.647052 -0.183206 -0.173213 0.456196 0.290405 0.51309 0.391434 0.23415 -0.218005 -0.0293978 -0.361801 0.28576 0.0582756 -0.974447 0.530517 -0.0744659 0.1901 -0.779741 -0.234575 -0.0818247 0.524651 0.119477 -8.25749 -0.337142 -0.201006 -0.2487 -0.650422 -1.04081 0.184355 -0.370651 0.0233062 -0.662911 -0.0408208 0.411502 -0.776481 0.165152 0.165769 -0.487619 0.150673 -0.0759281 -0.435706 0.627037 -0.486489 -0.259033 0.382219 0.0744887 0.443828 0.312422 0.147773 -0.301825 -0.118741 -0.437319 0.201474 -0.0313813 -0.714343 0.432774 -0.163053 0.102239 -1.58266 0.158251 0.675274 0.340357 0.400671 0.247793 -0.0821075 -0.0157862 -1.05753 -0.274359 0.184072 -0.146661 0.258821 0.0129261 0.198101 0.590837 -0.204906 0.387084 0.137246 -0.0660542 0.380984 0.292581 -0.221623 0.999474 -0.47879 -0.0233749 0.567694 0.42261 0.537695 2.68449 0.371538 -0.0697254 0.121669 -0.223485 0.418059 0.20704 -0.214668 0.654598 0.0769891 0.331109 -0.0605624 0.585559 14.8042 0.133436 0.016134 -0.12104 -0.228207 -0.600605 -0.414595 0.204785 -0.332526 -1.67079 -0.145601 -0.734157 0.477308 -0.351739 0.36548 0.244418 -0.221899 0.227389 0.164815 -0.398746 0.642386 -0.104512 -0.196124 0.449902 0.283475 0.374262 0.384585 0.226778 -0.317311 -4.19595 -0.865718 0.397178 -1.09808 -0.360677 0.552034 -0.0795 -0.101995 -0.216885 -0.437215 -0.35005 -0.723884 -0.659628 -1.01399 -0.877803 -0.80459 -0.382168 -0.752115 -0.512241 -0.673606 -0.557798 -0.150338 -0.777192 -0.398619 -0.398386 -0.714795 53.0224 -0.729107 -0.784007 0.520032 -0.47908 -0.69302 -0.884145 -0.776279 -0.111048 -0.259293 3.04067 -0.716431 -0.609512 -0.785128 -0.366512 -0.551359 -0.781247 -0.064767 -0.636781 -0.45123 -0.71151 -0.0678733 -0.183869 -0.275436 -0.408948 -0.749541 -0.567433 0.0542813 -0.539893 -8.41585 -0.333762 -0.789104 0.302185 -0.515088 0.04658 0.0808619 -0.403318 0.0294668 -0.0356968 -0.591988 0.534346 -0.31112 -0.46081 0.275071 0.0889997 -0.560515 0.324248 0.0285905 12.2898 -1.02657 -1.63398 0.0838091 -0.343281 -0.522501 0.396142 -0.254026 -0.0973311 -0.382414 -44.9715 -0.258743 -0.284251 -0.679526 -0.701535 0.133387 -0.414923 -0.0290038 -0.610404 -0.0927109 0.367169 -0.798629 0.114085 0.114667 -0.443314 0.0636712 -0.119771 -0.476919 0.849587 0.569005 -0.307011 0.33695 -0.141316 0.401217 0.264843 0.096244 -0.34839 -0.169815 -0.478448 0.15098 -0.0834374 -0.779427 0.441896 -0.213382 0.0503507 -0.701828 -0.196824 -37.6378 -0.610859 -0.430264 0.246966 -0.312551 0.0887319 -0.0748972 0.0250033 0.46476 -0.371371 0.228426 0.229197 -0.253731 0.695684 0.438503 -0.380768 0.82535 18.302 -0.196633 0.405296 0.684321 0.495365 0.370708 0.561027 -0.240841 -0.053392 -0.38256 0.263826 0.0344451 -0.39581 0.538563 -0.0983528 0.166837 -0.225367 -0.101007 -1.32166 -0.309097 0.205087 -0.183481 0.223079 -0.02496 0.161459 0.565735 -0.241216 0.354499 0.228229 -0.10376 0.338946 0.280403 -0.257337 0.89401 -0.457156 -0.061276 0.541837 0.390947 0.452647 10.8699 0.338573 -0.107398 0.0841955 -0.259197 0.386593 0.170626 -0.250563 0.63096 0.0392103 0.297011 -0.0982316 -0.431332 -0.20587 0.46272 -0.0746889 0.325197 0.0855508 0.266831 0.636296 -0.134474 0.447003 0.447535 0.00657702 1.15786 0.814728 -0.151319 0.890215 0.425381 0.0492566 0.431103 1.0536 0.659285 0.563526 0.966515 0.00289514 0.192704 -0.153436 0.476573 0.275786 -0.144252 0.680323 0.148687 0.394305 0.0121035 0.247531 0.715019 0.368663 0.663835 0.498364 0.62639 0.838964 0.315533 0.736467 0.894164 0.436866 0.72864 0.69647 0.299577 0.983058 0.486433 0.470807 0.826607 0.755104 0.829119 1.30141 0.728054 0.433825 0.576084 0.297896 0.753101 0.631965 0.306251 0.877197 0.550061 0.726037 0.441201 0.611203 0.133075 0.499111 0.592779 0.448135 0.742446 0.417019 0.597662 0.622756 0.444052 0.563711 0.595292 0.0588547 0.834749 0.220466 0.252565 0.728707 0.609971 0.763083 0.689232 0.58623 0.208627 0.383217 0.0542517 0.621442 0.455566 0.277303 0.80343 0.344127 0.554647 1.44987 -0.519501 -0.156098 -0.375494 -0.21999 62.8114 -0.562189 -3.00866 -1.99927 -0.457332 -0.0368191 -0.101555 -0.56916 0.476449 -0.34506 -0.422803 0.213067 0.0230527 0.368854 0.403709 -0.0374882 -0.430684 -0.359525 -0.558083 0.214934 -0.0472459 -0.568728 -7.50716 -0.410373 -0.542365 -0.438503 0.360143 0.16084 0.246458 0.678797 -0.0602564 0.504793 0.510052 0.0812067 0.492016 0.441034 -0.430215 0.789254 0.199666 0.257688 0.659462 0.535884 0.684172 0.612224 0.491367 0.105551 0.301155 -0.169965 0.532255 0.373349 -0.0702358 0.729946 0.221017 0.453676 0.0919413 -0.246553 -0.326334 0.391075 -0.440046 0.308768 0.158 -0.319346 0.125561 0.0611146 -0.446458 0.576352 -0.206874 -0.400665 0.362258 0.184144 0.170413 0.291691 0.124937 -0.00638544 -16.9065 -0.34787 0.351902 0.0898187 -0.448429 0.474685 -0.177575 -0.0704032 -0.313904 0.185722 0.559784 -0.801518 0.375882 0.424685 0.126368 0.367473 0.198825 -0.24591 0.720638 -0.145481 -0.0363968 0.558836 0.248136 0.609721 0.502067 0.362368 -0.0825373 0.108985 -0.235834 0.407616 0.194786 -0.155305 0.67092 0.0640078 0.313994 -0.35356 0.444731 -0.387257 0.204263 0.205187 -0.260832 0.188061 0.124471 -0.351077 0.617244 -0.144952 -0.242185 0.416591 0.245093 0.46552 0.348938 0.187274 -0.710976 -0.0202249 -0.575286 0.240094 -0.00433308 -0.395949 0.522791 -0.123028 0.172428 -0.255663 -0.709745 -6.02464 -28.1448 -0.631951 -0.279932 -0.338491 -0.70702 0.238128 -0.553876 -0.60558 0.394758 -0.22396 0.224946 -0.113336 -0.271895 -0.634116 -0.416685 -0.71912 1.03045 -0.00639119 -0.714362 -32.0843 -0.537287 -13.5923 -0.569382 0.548668 0.548919 0.155671 0.475574 0.385033 -0.0173841 0.810947 0.116457 0.182444 0.692304 0.522899 0.729072 0.648672 0.53611 0.137367 0.318809 -0.0193393 0.57429 0.395541 0.0183811 0.781455 0.277689 0.502291 -0.223143 0.561089 -0.442012 -0.016621 -0.0819462 -0.560583 0.472947 -0.339315 -0.406488 0.462422 0.0427759 0.170972 0.155789 -0.0106338 -0.444559 -0.752599 -0.561772 61.79 -0.999271 -0.555516 0.445716 -0.542656 -0.650526 -0.437144 -0.442314 -0.0209387 -0.0828102 -0.610734 0.601737 -0.462281 -0.407308 0.476549 0.0417124 0.251727 0.980932 -0.0168181 -0.44521 -0.384484 -0.562079 -0.304356 -0.346313 -0.556115 0.996146 -0.426695 -0.461877 -0.513189 0.2141 0.242953 -0.157753 0.756438 0.119899 0.0426887 0.610715 0.475471 0.655578 0.558985 0.427221 -0.00368521 0.186377 -0.159692 0.471454 0.269733 -0.272784 0.696853 0.142314 0.388835 -0.34042 -0.698319 -0.548469 0.555939 -0.2742 -0.392142 -0.886918 -0.843484 0.316303 0.17227 -93.7097 -0.430637 -0.262397 -0.550188 0.054833 -0.178716 -0.524751 0.461468 -0.303856 -0.0470235 -0.423167 -0.501477 0.53383 -0.233893 -0.335749 -0.216383 0.359009 0.373788 0.234499 0.308269 -0.376419 -0.200843 -0.502901 0.119093 -0.115139 -0.420291 0.430074 -0.243741 0.0181635 -0.320097 0.816766 0.272929 0.45136 0.701273 0.589246 0.731706 0.658668 0.548276 0.134393 0.369527 -0.0857674 0.585667 0.440272 0.0073339 0.76438 0.29362 0.515978 0.194774 -0.956401 -0.737633 -0.270592 -0.43886 -0.231689 6.69783 -0.48655 -0.758214 -0.663615 -0.817353 -0.442759 -0.61154 -0.814105 -0.161308 -0.688205 -0.521031 -0.754102 -0.0779265 0.529673 0.373822 0.575952 1.00609 0.323578 -0.123818 0.0676956 -0.274742 0.372221 0.154383 -0.164907 0.618627 0.0224611 0.281636 -0.0351603 0.583805 0.441698 0.582328 0.528953 0.391767 -0.0126191 0.150032 -0.216213 0.437466 0.231696 -0.192263 0.666319 0.100228 0.3429 -0.0370624 -0.177209 0.0743827 -0.0790472 -0.891549 -0.613229 -0.479283 -0.701981 -0.195753 -0.408495 -0.697736 -0.62367 -0.513342 -0.29114 -0.607488 0.261787 0.113834 0.888401 -0.478101 -0.317238 -0.590356 -0.00521387 -0.236105 -0.559278 0.318613 -0.357143 -0.106181 -0.441993 0.00954294 -0.317082 -0.516464 -0.575212 -0.61249 -0.103412 -0.481984 -0.733476 0.0630266 -1.01261 -0.722737 -0.650461 -0.172881 -0.561131 -0.415736 -0.659828 -0.118603 -0.340528 -0.654408 0.212639 -0.452545 -0.217281 -0.555235 -0.430222 -0.261708 -0.549289 0.0554208 -0.178043 -0.54288 0.509244 -0.303391 -0.0460909 -0.42256 -0.247622 -1.89015 0.474178 0.0534037 -0.146988 0.691389 0.145907 0.374598 0.0134062 0.0658772 0.863503 -10.6338 -0.327665 0.569733 -0.105292 13.2408 -0.180848 0.587055 0.280284 0.00929874 0.765108 0.295336 0.535266 0.165148 -1.02629 -0.580681 0.969793 -0.561188 -0.986033 -0.46692 -0.403809 0.374788 -0.277815 0.0392465 -0.261906 0.762062 0.286819 0.509543 -0.240813 -0.772961 -0.990876 -0.705513 1.38797 -0.136919 -0.368112
label 24 40 4 8 57 12 53 10 39 56 37 9 38 35 45 54 15 36 21 29 46 59 58 28 31 42 48 43 55 7 23 32 41 13 19 20 16 2 25 18 50 52 30 44 34 6 49 61 33 51 47 26 14 22 5 11 27 1 60 17 3
probA -4.4661 -4.44203 -4.43864 -4.4451 -4.30663 -4.18253 -3.42817 -4.29809 -4.58661 -4.49401 -4.11958 -4.40923 -4.4854 -4.46904 -4.48412 -4.53979 -4.38954 -2.01248 -4.29013 -4.26519 -4.28852 -4.12982 -4.5532 -4.50364 -4.22533 -4.30317 -4.46743 -4.47213 -3.61976 -4.37402 -4.25799 -4.28264 -1.19818 -4.30635 -4.33001 -3.3881 -4.2923 -4.37169 -3.05009 -4.29015 -4.485 -4.32368 -4.15596 -4.3039 -4.33158 -4.35026 -4.21403 -4.09158 -4.26348 -4.37815 -4.29325 -4.2228 -4.51601 -4.32773 -4.24694 -2.85504 -4.43712 -4.3558 -4.23821 -4.25386 -4.54836 -4.61747 -4.69354 -4.22129 -4.39819 -4.57902 -4.54352 -4.78724 -4.9017 -4.17458 -2.05915 -4.59628 -4.7173 -4.69272 -4.27262 -4.50048 -4.48814 -4.6562 -4.46417 -4.17168 -4.36623 -4.60602 -4.64947 -4.25061 -4.5123 -4.68213 -4.63203 -4.61488 -4.56153 -4.3974 -4.09537 -4.47198 -4.01709 -4.58879 -4.52491 -4.54782 -4.58425 -4.38617 -4.63757 -4.86417 -4.46794 -4.40705 -4.46975 -4.43109 -4.64274 -4.48033 -4.20348 -4.51714 -4.62258 -4.25441 -4.22571 -4.75099 -4.56766 -4.1709 -4.47598 -4.6161 -4.56486 -4.14451 -4.58404 -4.5927 -4.68119 -3.93739 -4.37696 -4.57861 -4.54262 -4.78106 -4.87961 -3.39325 -4.40156 -4.30605 -4.71437 -4.67516 -4.49333 -4.51008 -4.46931 -4.63956 -4.43501 -4.48882 -4.36422 -4.65135 -4.63516 -4.22569 -4.47209 -4.67678 -4.60217 -4.58916 -4.62108 -3.827 -4.34419 -4.48879 -4.28421 -4.58816 -4.52071 -4.52327 -4.59876 -4.37222 -4.62233 -4.83208 -3.97398 -4.40443 -4.46178 -1.61942 -4.62515 -4.47984 -4.23077 -4.49056 -4.60826 -4.33076 -4.35726 -4.47586 -4.56531 -4.47377 -4.45365 -4.59834 -4.56 -4.38977 -4.59018 -3.84681 -4.45927 -4.30537 -4.49119 -4.54445 -4.51574 -4.47664 -4.04106 -4.5459 -4.72574 -4.26009 -4.37455 -4.65965 -3.99443 -4.29722 -4.35563 -4.34708 -4.24864 -4.01434 -4.44847 -4.36874 -4.00405 -4.45671 -4.66791 -4.77953 -4.66882 -1.70015 -4.41431 -4.13115 -4.39957 -4.358 -0.955586 -4.54738 -1.11847 -4.2376 -4.28313 -4.33098 -4.58959 -4.49882 -3.883 -4.37134 -4.38191 -3.97126 -4.22376 -3.72194 -4.20762 -4.432 -4.41283 -3.48103 -4.72525 -0.732955 -3.0923 -4.49456 -1.07708 -3.7273 -1.9969 -4.52544 -4.47455 -1.29653 -4.39582 -4.40481 -4.33712 -3.22452 -4.0708 -4.63206 -4.78639 -4.22554 -4.21347 -4.77249 -0.269922 -4.3446 -4.3827 -2.19797 -4.37255 -3.86236 -4.54236 -4.20282 -3.95866 -3.40916 -4.42937 -3.94783 -4.69317 -3.64138 -4.45841 -4.27041 -4.41294 -4.3848 -3.99293 -4.60411 -4.49924 -0.889427 -4.34565 -4.2312 -4.52266 -4.50839 -0.701444 -4.22635 -4.4552 -4.05766 -4.14797 -3.7154 -1.85103 -4.29288 -4.39584 -4.21418 -4.78996 -4.2965 -4.26641 -4.51633 -1.66935 -4.4937 -3.6987 -4.52321 -4.24077 -4.4059 -4.37806 -4.62775 -4.6549 -0.218558 -3.59953 -4.412 -4.52888 -4.52934 -4.14012 -4.42166 -4.29031 -4.48037 -4.29612 -4.27598 -4.15122 -4.25511 -4.47542 -4.07755 -4.34309 -4.5141 -4.50433 -4.48666 -4.41903 -3.92798 -4.27066 -4.37422 -0.363244 -4.39424 -4.43328 -4.34048 -4.40926 -4.26103 -4.43226 -4.6739 -4.07624 -4.219 -4.29937 -3.79514 -4.42178 -4.2848 -4.0879 -4.30882 -4.41339 -3.98481 -4.25403 -4.24373 -4.3736 -4.29386 -4.33249 -4.38851 -4.40378 -4.19589 -4.42837 -4.29052 -4.29713 -4.40423 -3.83917 -3.92326 -4.36135 -4.4404 -4.25444 -4.28879 -4.5026 -2.50305 -4.13257 -4.22813 -3.08941 -4.17852 -4.01392 -4.36579 -4.23591 -3.89073 -3.53417 -4.4367 -4.0987 -4.35144 -3.58524 -4.15717 -4.1068 -4.18748 -4.22664 -4.34388 -4.27811 -4.48985 -3.67894 -4.084 -4.30265 -4.4725 -4.22456 -2.73027 -4.31301 -4.24225 -4.28737 -4.12359 -3.52917 -0.946164 -4.31002 -4.20769 -4.08523 -4.47792 -4.24227 -4.10013 -4.2365 -4.51237 -4.29348 -3.9776 -4.27058 -4.40639 -4.34654 -4.39227 -4.18452 -4.53999 -4.62521 -4.24765 -4.15876 -4.68585 -4.4336 -3.47292 -4.19905 -4.39474 -4.41982 -3.8264 -4.6069 -4.45954 -4.11048 -4.4421 -4.4137 -4.58601 -0.301583 -4.48149 -4.37532 -4.30758 -2.4492 -4.43584 -4.45379 -3.54959 -4.38866 -4.37501 -3.75542 -2.90807 -3.61638 -4.44651 -4.21533 -4.31036 -4.44034 -4.41106 -4.26266 -4.10984 -4.37485 -4.1787 -4.40893 -4.33772 -4.66083 -4.4822 -4.37432 -3.8369 -4.34316 -4.4876 -4.3245 -4.26625 -4.79593 -2.74667 -4.18544 -4.489 -4.55209 -4.52508 -4.21692 -4.64273 -4.51139 -4.35849 -4.12649 -4.37807 -4.40091 -4.43073 -4.67327 -4.66515 -0.683413 -4.40087 -0.891442 -4.49416 -4.41128 -4.51488 -4.33134 -4.35633 -4.264 -4.43902 -4.51126 -4.28085 -4.4237 -4.41653 -4.25837 -4.16618 -4.419 -4.37483 -4.27292 -4.1191 -4.42249 -4.5594 -3.98891 -4.16563 -4.42393 -4.48665 -4.34519 -4.33206 -4.59185 -4.49755 -4.36187 -4.2299 -4.4831 -4.45719 -4.34728 -4.4746 -4.47983 -4.25576 -4.76427 -4.8187 -4.23668 -0.834484 -4.88048 -4.47636 -4.49857 -4.63909 -4.69349 -4.5686 -3.03063 -4.75556 -5.23524 -4.44932 -4.5827 -4.08993 -4.81605 -4.73814 -4.67861 -4.54182 -4.47445 -4.63608 -4.59313 -4.58071 -4.66199 -4.48846 -4.57913 -4.43278 -3.24565 -2.96017 -4.61663 -4.35685 -4.59506 -4.59846 -4.58327 -4.06702 -4.12793 -4.49308 -4.30949 -4.55222 -4.45401 -4.87021 -4.60283 -4.48945 -4.59818 -4.39589 -4.67427 -4.36787 -4.6797 -4.28308 -4.80383 -4.89345 -4.48505 -1.24048 -4.96795 -4.15475 -4.27669 -3.89684 -3.77976 -4.58839 -2.18355 -4.73139 -0.756745 -1.3756 -4.15094 -3.91688 -4.6151 -4.62756 -4.79232 -4.61729 -4.49339 -4.49369 -4.64446 -4.73465 -4.4888 -4.51698 -4.3672 -4.37481 -3.16174 -4.29951 -4.63258 -2.98002 -0.690647 -4.63953 -4.84687 -4.1289 -4.10924 -4.05208 -3.98127 -4.65556 -4.52341 -4.94755 -4.74386 -4.49137 -4.45607 -4.18385 -4.74022 -4.36163 -4.53538 -2.87457 -4.37297 -4.24551 -4.3181 -4.09011 -3.83487 -4.11303 -4.28799 -4.04521 -4.02532 -3.83766 -4.18999 -4.13828 -3.86963 -4.12415 -4.34704 -4.43767 -4.35227 -4.25948 -3.56793 -4.17738 -4.12413 -3.85458 -4.01826 -4.22503 -3.99981 -4.17347 -4.01446 -4.17054 -4.33779 -3.7797 -3.87943 -4.09325 -0.620135 -4.07172 -4.04331 -3.51411 -3.98952 -4.25796 -3.70549 -4.13245 -4.10586 -4.06589 -4.08472 -4.18299 -4.00276 -4.18649 -3.95216 -4.27897 -4.4316 -4.66724 -4.65725 -3.5496 -4.47582 -4.41661 -4.56265 -4.42922 -3.89368 -4.33298 -4.13345 -4.58145 -4.18727 -4.50165 -4.61808 -4.57992 -4.55603 -4.41817 -4.29777 -3.8822 -4.43969 -3.51859 -4.50978 -4.50138 -4.46929 -4.52442 -4.33843 -4.58262 -4.7723 -4.40729 -4.33732 -4.41575 -4.21338 -4.54288 -4.41461 -4.13104 -4.45702 -4.56485 -3.80195 -4.13864 -3.57047 -4.50267 -4.41347 -4.40802 -4.52659 -4.51706 -4.02473 -4.51042 -4.77387 -4.73562 -4.1547 -4.66297 -4.51176 -4.69204 -4.48127 -4.37827 -4.40271 -4.60606 -4.69334 -4.30355 -4.54003 -4.69264 -4.62013 -4.6103 -4.63232 -3.84783 -4.45958 -4.57267 -4.32175 -4.61414 -4.54451 -4.5687 -4.68468 -4.43216 -4.66507 -4.88033 -3.59662 -4.46507 -4.49871 -4.37809 -4.64226 -4.50149 -4.28105 -4.54544 -4.64014 -2.97377 -4.2358 -4.42643 -4.59998 -4.56697 -4.47972 -4.67886 -4.59183 -4.5411 -4.62741 -3.74103 -4.83447 -4.0555 -4.40395 -4.44125 -4.43237 -4.42985 -3.84944 -4.57666 -4.45418 -3.86474 -4.48652 -4.65836 -4.77388 -4.68824 -4.50185 -4.46084 -4.32757 -4.46948 -4.48144 -4.39558 -4.6122 -4.31983 -4.42446 -4.31671 -2.89298 -4.39745 -4.53399 -3.98682 -4.43159 -4.51204 -4.63656 -0.173255 -3.83698 -4.30688 -2.23161 -4.47653 -4.36449 -4.82213 -4.45376 -4.35289 -4.51711 -4.07997 -4.5429 -4.1945 -4.58978 -4.8256 -4.26127 -4.37907 -4.58206 -4.61317 -4.43331 -2.71506 -4.6155 -4.92608 -3.79408 -4.48261 -4.38518 -4.78453 -4.66401 -4.55505 -4.49264 -4.39905 -4.47991 -4.4517 -4.40711 -4.57942 -4.3965 -4.49489 -4.36461 -2.29821 -1.26022 -4.53201 -4.42737 -4.48483 -4.50437 -4.26992 -3.26922 -3.98118 -4.33096 -3.73986 -4.46822 -4.35278 -4.79333 -4.45229 -4.38022 -4.51842 -4.25775 -4.53379 -4.25829 -4.61181 -4.61984 -4.55514 -4.7342 -4.56602 -4.63954 -4.47501 -3.8869 -4.74678 -4.33415 -4.60867 -4.77428 -4.71507 -4.69308 -4.62454 -4.4245 -4.25091 -4.5842 -2.75503 -4.66712 -4.62153 -4.45734 -4.72384 -4.46387 -4.73222 -4.9353 -4.45403 -4.5151 -4.56573 -4.48533 -4.72189 -4.5807 -4.1934 -4.61317 -4.71699 -2.99554 -3.96792 -2.12172 -4.55821 -4.27061 -4.54806 -4.69323 -4.63065 -4.35238 -4.67821 -4.2539 -4.24724 -3.52503 -4.15644 -3.84058 -3.10561 -4.23986 -3.93798 -3.60621 -4.62895 -4.70264 -4.59226 -4.41102 -4.27062 -4.14597 -4.45679 -4.31996 -4.19257 -4.48351 -4.08945 -4.57683 -4.26801 -4.38301 -4.51777 -4.42569 -1.19086 -4.7398 -4.25497 -4.30176 -4.14305 -0.687993 -1.95386 -4.40753 -4.28217 -3.98601 -4.62559 -4.25639 -4.0693 -4.46553 -3.63706 -3.64596 -4.0064 -4.45157 -4.05121 -4.24591 -4.26535 -4.08195 -4.49267 -4.14145 -3.99718 -4.33167 -4.49561 -4.49494 -3.66333 -4.36432 -4.24965 -4.20579 -3.01956 -4.29638 -4.31539 -3.31982 -4.23131 -4.30943 -1.42286 -4.40186 -4.58636 -4.32344 -4.04896 -4.18777 -4.30226 -4.35583 -4.19044 -3.91657 -4.22888 -4.37817 -4.24692 -4.19615 -4.53412 -4.2936 -4.21255 -3.58058 -4.20693 -4.33366 -4.12714 -4.21417 -4.37079 -4.38848 -4.15194 -4.57063 -2.13275 -3.81347 -4.46977 -4.54889 -4.71818 -4.1833 -4.44446 -4.41834 -4.33863 -4.09745 -4.42857 -4.40605 -4.36504 -4.33834 -4.46916 -4.29929 -4.43636 -4.39043 -4.49746 -4.00287 -3.87673 -4.45778 -4.4275 -4.16316 -3.96348 -4.30438 -4.48762 -4.39385 -4.33026 -4.71397 -4.43348 -4.33918 -4.33231 -4.07283 -4.49654 -4.23098 -3.8184 -4.26193 -4.12916 -4.46109 -4.66643 -4.17608 -2.11972 -4.52615 -4.0681 -4.43259 -4.05942 -4.25055 -4.24762 -4.28331 -4.29508 -4.30687 -4.34017 -4.23193 -3.99068 -4.15283 -4.28983 -4.55334 -4.31072 -2.82037 -3.86923 -4.32035 -4.34543 -4.20805 -3.6384 -2.74463 -4.35986 -4.27371 -4.21507 -4.51384 -4.31774 -4.20947 -4.28282 -4.27094 -4.34817 -4.18879 -4.37653 -4.13157 -1.31945 -4.41929 -4.0281 -4.33376 -4.53724 -4.53269 -4.4755 -4.23547 -4.25044 -1.99912 -4.36462 -3.79231 -4.36323 -4.40916 -4.22145 -4.36482 -4.18562 -4.4326 -4.61504 -4.31796 -4.08755 -4.29858 -4.42806 -4.43345 -4.26591 -4.01201 -4.28437 -4.42081 -3.29908 -2.53625 -4.24371 -4.21802 -3.96479 -4.34582 -4.23846 -4.39006 -3.40761 -4.43314 -4.34026 -4.39502 -3.94284 -4.15536 -4.00956 -4.34609 -4.28762 -4.29293 -4.12185 -4.02487 -4.12975 -4.19022 -4.29205 -4.19586 -4.07109 -4.21398 -3.97762 -0.593367 -3.4559 -4.15634 -3.51804 -4.02788 -4.18045 -4.51319 -4.02917 -3.73826 -4.1373 -0.694553 -4.11278 -4.03025 -4.43326 -4.26169 -4.07751 -4.15134 -3.77028 -4.23701 -3.88121 -4.16887 -4.5889 -4.19451 -4.59639 -4.80484 -4.84754 -4.74358 -4.61181 -4.44956 -0.722085 -4.57324 -3.77304 -4.59405 -4.67689 -4.49157 -4.6307 -4.43718 -4.67499 -4.83131 -4.39216 -4.24273 -4.56039 -4.45537 -4.65164 -4.48916 -3.01438 -4.45221 -4.67909 -0.943381 -4.30974 -3.87352 -4.57772 -4.77128 -4.61952 -4.36015 -4.61771 -4.24234 -4.5851 -0.794044 -4.43479 -4.64799 -4.7074 -4.63643 -4.49697 -4.42165 -4.34018 -4.29076 -4.43669 -4.40801 -4.46435 -4.33269 -4.4805 -4.38455 -4.35813 -4.53496 -4.51059 -4.13692 -0.348091 -4.46801 -4.4716 -4.06566 -3.95528 -4.35577 -4.51183 -4.42561 -4.35792 -4.73313 -4.43009 -4.32281 -4.45469 -4.29572 -4.50359 -4.23592 -4.48839 -3.98633 -0.716607 -4.32576 -4.29188 -4.05781 -4.03532 -3.95556 -4.08941 -4.01459 -3.99399 -4.1283 -3.98721 -4.04095 -3.95562 -3.80285 -3.82681 -4.10747 -3.65281 -0.694913 -4.07174 -4.06916 -3.35118 -3.62936 -3.94058 -3.97038 -4.01115 -3.9252 -4.31403 -4.00354 -3.92772 -4.15608 -3.90099 -4.09834 -3.87674 -4.24893 -4.52562 -3.18949 -4.48759 -4.23924 -4.327 -4.28677 -4.37671 -4.37017 -4.43132 -4.41122 -4.35682 -4.31398 -4.21984 -4.45822 -4.63933 -4.36856 -3.72344 -4.16575 -4.37156 -4.45727 -4.29589 -3.87299 -2.95423 -4.4452 -4.30224 -4.2902 -4.56986 -4.40256 -4.29154 -4.34567 -4.33817 -4.40612 -4.25061 -4.4324 -4.65818 -4.62678 -4.65118 -4.47399 -4.52336 -4.53741 -4.57974 -4.63865 -4.56721 -4.55308 -4.63643 -4.38296 -4.0327 -4.61988 -4.50982 -4.31986 -4.43909 -4.55208 -4.50811 -4.05145 -4.30868 -4.5403 -4.3952 -4.50147 -4.4568 -4.72175 -4.60968 -4.46911 -4.47743 -4.58836 -4.59675 -4.46316 -4.59526 -4.58745 -4.49828 -4.47087 -4.525 -4.49619 -4.535 -4.55716 -4.518 -4.55327 -4.55162 -4.42583 -4.60489 -4.84798 -4.50173 -4.48641 -4.45256 -4.55604 -4.56741 -4.47398 -4.31716 -4.16511 -4.57199 -4.49636 -4.51392 -4.64308 -4.5409 -4.50457 -4.46324 -4.75345 -4.56191 -4.52151 -4.61089 -4.57925 -4.42679 -4.43969 -3.94108 -4.48511 -4.50619 -3.74034 -4.49471 -4.55626 -3.82112 -4.52651 -4.52362 -4.49165 -4.37504 -4.38083 -4.48926 -4.53333 -4.36912 -4.31224 -4.44713 -4.52805 -4.45401 -4.4259 -4.64953 -4.49488 -4.41401 -4.07254 -4.71689 -4.51223 -4.46351 -3.07283 -4.34819 -4.32706 -4.3456 -4.43411 -0.513057 -4.4473 -1.54217 -1.22114 -4.28488 -4.59361 -4.72899 -4.4468 -4.16504 -4.36082 -4.43266 -4.60399 -4.38365 -4.00887 -4.27403 -4.59264 -4.31458 -3.61779 -4.58586 -2.63394 -3.68175 -4.38107 -0.149716 -3.99948 -3.66354 -4.51561 -4.25735 -4.31789 -4.18543 -4.29225 -4.35625 -4.27775 -4.36941 -4.20785 -4.36532 -4.58238 -2.94699 -4.14088 -4.25074 -3.96267 -4.32848 -4.20233 -4.01143 -4.24496 -4.337 -4.21897 -4.18765 -4.45624 -4.3282 -4.24928 -4.29543 -4.34388 -4.35239 -4.20385 -4.39232 -4.27187 -3.93745 -4.28091 -4.36988 -3.92643 -4.15188 -4.17906 -4.36422 -4.5344 -4.26452 -3.98137 -4.26062 -4.14012 -4.32201 -4.18055 -3.59217 -4.19988 -4.38447 -3.49194 -0.486085 -3.97705 -3.98203 -3.49649 -4.33579 -4.12617 -4.40229 -3.64477 -4.27662 -4.35231 -4.302 -3.21331 -4.38556 -4.2597 -3.52788 -4.49465 -4.47466 -4.35573 -4.13419 -4.25799 -4.34888 -4.39041 -4.04753 -3.99224 -4.28562 -4.40827 -4.32173 -4.26066 -4.58603 -4.44482 -4.33697 -3.88316 -4.3634 -4.39563 -4.22391 -4.26867 -4.43013 -4.43317 -4.34049 -4.39348 -4.21846 -4.47176 -4.63296 -4.3145 -4.11245 -4.31966 -4.10849 -4.45041 -4.29558 -3.98636 -4.33577 -4.48095 -3.43316 -4.10114 -3.09837 -4.41201 -4.46611 -4.3289 -4.25546 -4.41855 -4.14456 -4.41304 -4.39 -0.948877 -0.809657 -4.21405 -4.58194 -4.68325 -4.41235 -4.11999 -4.35236 -4.42841 -4.38333 -4.389 -3.92168 -4.39029 -4.55386 -4.34657 -3.76151 -4.66458 -3.20102 -3.52122 -4.37421 -0.263055 -4.07177 -1.27558 -4.48746 -4.36509 -4.49275 -3.53135 -4.41281 -4.55627 -4.39722 -4.28419 -4.32084 -4.44185 -4.45329 -4.15434 -4.19767 -4.36668 -4.4673 -4.36337 -4.32832 -4.58132 -4.43024 -4.37729 -3.97011 -4.58083 -4.43234 -4.36298 -4.24224 -4.71379 -4.19178 -4.40576 -4.55911 -4.34525 -3.95421 -4.28982 -4.35603 -4.05469 -4.21897 -3.87326 -4.22444 -4.38575 -4.29457 -3.69144 -4.59988 -0.344115 -3.56982 -4.36193 -0.562135 -4.35437 -4.02051 -4.39022 -4.24664 -4.42628 -4.72795 -4.45104 -4.20624 -4.53071 -4.47303 -4.18052 -4.28157 -3.91684 -4.40592 -4.48218 -4.35564 -4.13518 -4.67126 -4.38212 -4.30032 -4.43265 -4.50909 -4.39085 -4.02289 -4.39244 -4.0585 -4.50312 -4.24924 -4.03803 -4.18758 -4.24633 -4.23315 -4.14273 -3.95009 -4.16815 -4.26896 -4.18791 -4.11419 -4.43924 -4.22558 -4.17355 -3.74281 -4.23156 -4.26368 -4.12381 -4.04283 -4.41133 -4.44317 -4.02566 -4.12064 -4.46189 -3.1932 -4.14146 -4.04154 -4.44785 -0.791159 -4.40483 -4.33257 -4.69415 -4.55049 -4.36132 -4.41156 -4.2442 -4.50792 -4.25385 -4.52675 -4.64831 -4.35935 -4.56905 -4.64859 -4.73818 -3.6704 -4.19602 -4.58858 -4.2519 -4.61378 -4.50406 -4.91058 -4.70416 -4.50374 -4.42518 -4.44556 -4.69476 -4.42919 -4.70237 -4.21611 -4.34953 -4.1653 -4.41042 -4.28285 -4.11511 -4.32106 -4.42053 -4.34404 -4.25694 -4.48289 -4.37861 -4.313 -4.32983 -4.44228 -4.41336 -4.32486 -4.52307 -4.47253 -4.16893 -4.21443 -4.00324 -3.40399 -2.74904 -4.26154 -4.15516 -4.00408 -4.4956 -4.16333 -3.98048 -4.21943 -3.4966 -4.21052 -3.84282 -4.21475 -4.32893 -4.39227 -4.27132 -3.98244 -4.46868 -4.4006 -4.28127 -4.20922 -4.52591 -4.34823 -4.25341 -4.22895 -4.31409 -4.36443 -4.18728 -4.37814 -4.46208 -4.28318 -3.96149 -4.31784 -4.44388 -4.22189 -4.3346 -4.3877 -4.41609 -4.34564 -4.37882 -4.36364 -4.4268 -4.22202 -4.45746 -4.42635 -3.94744 -4.47565 -2.62633 -4.35558 -4.29702 -4.68468 -4.56471 -4.33252 -4.37362 -4.09413 -4.502 -4.19686 -4.47131 -3.82152 -4.23387 -4.52155 -4.22126 -4.14069 -4.55314 -4.34669 -4.1818 -4.19788 -4.07809 -4.35061 -4.05572 -4.29752 -3.58761 -4.05067 -3.88384 -3.57264 -4.28246 -3.87839 -3.77577 -4.14265 -3.53725 -3.56638 -3.85925 -4.12475 -4.47454 -4.25773 -4.23716 -4.58526 -4.39269 -4.19245 -4.30604 -4.04199 -4.3705 -4.05721 -4.35023 -4.35043 -4.33424 -4.67756 -4.57149 -4.3522 -4.39956 -4.57483 -4.50993 -4.24388 -4.49245 -3.71176 -2.26443 -4.34904 -4.14996 -4.31839 -4.32732 -4.35126 -3.87663 -4.42322 -4.17096 -3.5939 -2.39237 -4.31384 -3.60137 -4.04819 -1.38348 -4.34648 -4.64885 -4.56225 -4.51894 -4.71028 -4.6207 -4.27912 -4.64859 -3.4364 -4.34754 -2.53766 -4.12949 -3.24403 -4.42855 -4.31157 -3.47302 -4.01226 -3.84783 -4.35662 -4.46806 -4.38097 -4.32853 -4.09861 -4.19763 -3.67061 -4.55916 -3.71499 -4.48168 -4.36477
probB 0.190293 0.203763 0.487814 0.523208 0.0369686 0.118966 -0.275558 -0.0740546 0.479681 0.274974 -2.33451e-05 0.117186 0.139805 0.540805 0.394314 0.286602 0.480176 0.0513312 0.064263 0.0572292 0.179802 0.144054 0.545386 0.421537 0.0132236 0.105475 0.237784 -0.0447602 0.0856924 0.349801 -0.00922204 0.170209 -0.362511 0.192229 0.376321 0.0368087 0.255468 0.382991 -0.126471 0.260826 0.29803 -0.0157041 0.233277 -0.0933028 0.107505 0.411457 0.131722 0.0911261 0.273013 0.316385 0.0437773 0.079083 0.185659 0.317156 0.113378 0.250096 0.540832 0.18357 0.192687 -0.173398 -0.082222 0.240577 0.31868 -0.17036 -0.070878 0.0548512 -0.0590753 0.323012 0.435122 -0.239991 0.546939 -0.131774 0.35093 0.208134 0.186876 0.198805 -0.0744336 0.178332 -0.130391 0.256728 -0.0123268 0.456009 0.198373 -0.331565 -0.0648187 0.047192 -0.199418 -0.0917752 0.091706 -0.209328 0.150469 -0.131954 0.0068991 0.212214 -0.121706 0.0260631 0.171012 -0.216496 0.156355 0.340419 -0.207351 0.0618156 -0.106526 -0.12218 0.176024 0.0265557 -0.129025 0.100395 0.172906 0.122097 0.219058 -0.00395213 0.142593 0.00996647 -0.196341 0.237899 -0.00592942 0.317677 0.0710314 0.231528 0.279846 -0.175261 -0.0648797 0.0427366 -0.0895034 0.295702 0.522522 0.0667885 -0.0577069 -0.0387745 0.331824 0.19113 0.275466 0.242509 -0.0762341 0.162859 -0.1418 0.0411826 -0.0504319 0.496026 0.176825 -0.327946 -0.0613469 0.0507623 -0.189999 -0.119586 0.163284 -0.224404 0.130889 -0.117697 0.072627 0.194983 -0.128603 0.0401224 0.161333 -0.245246 0.173591 0.365686 -0.159378 0.0315029 -0.129113 0.0110306 0.217841 0.0151128 -0.13299 0.102457 0.149749 -0.0365862 -0.124272 0.253411 0.127992 0.0296164 -0.186793 0.236381 -0.00726913 -0.0698864 0.00727753 0.17387 -0.479429 -0.291837 -0.127904 -0.30669 0.0252876 0.485741 -0.464259 -0.294641 -0.315071 0.10721 -0.161128 -0.372841 0.140325 -0.354401 -0.109116 -0.465652 -0.333663 -0.0465642 0.168485 -0.0439076 -0.628988 -0.294938 -0.219 -0.548324 -0.412498 -0.649643 -0.485042 -0.510757 -0.433336 -0.228819 0.113085 -0.353876 0.198871 0.374444 -0.58155 -0.0891282 0.165704 -0.519334 -0.0291832 -0.39146 -0.364259 0.541812 -0.123535 -0.229036 -0.0309733 0.127231 -0.393386 -0.727083 -0.237204 0.0576161 -0.258506 -0.400552 -0.261833 -0.0312223 -0.192326 -0.227618 -0.498753 -0.886784 -0.0827109 -0.14597 0.192245 0.613575 -0.647747 -0.357648 -0.36912 -0.0686599 0.00604685 -0.198978 -0.391175 -0.44322 -0.198067 -0.96284 -0.393317 -0.246151 0.0484615 0.0311773 -0.528025 -0.674086 0.0232272 -0.40669 -0.47889 -0.341159 -0.561561 -0.473082 -0.476138 -0.270783 -0.0695382 -0.359505 -0.175204 -0.502256 -0.56129 -0.0412168 0.115703 -0.543903 -0.248194 -0.164364 -0.449272 0.134878 -0.136607 -0.745182 -0.412008 -0.000679058 -0.515985 -0.552525 -0.303596 -0.248074 -0.477063 -0.385607 0.455012 -0.237143 -0.665314 -0.285606 0.104363 0.203385 0.0741209 0.45128 0.715526 0.0456495 -0.133505 -0.00634932 0.495873 0.352741 0.465774 0.498403 0.0953377 0.324922 0.0187857 0.429619 0.144779 0.281918 0.361067 -0.139112 0.094714 0.216139 -0.0871842 0.00931004 0.339388 -0.0399909 0.148423 0.105378 0.146927 0.351434 0.0728516 0.229251 0.319131 -0.11159 0.35685 0.524553 0.0746948 0.194886 0.0447347 0.170999 0.378927 0.210656 0.061964 0.262802 0.327213 -0.109485 0.28461 -0.00339323 0.297198 0.225742 -0.0576812 0.439634 0.147723 0.0744856 0.157161 0.294428 0.0251904 0.335432 0.100385 -0.191453 0.00564466 0.0455989 0.408497 0.195982 0.188572 0.305509 -0.0149901 0.224392 -0.51013 0.0157497 0.15619 0.612604 0.221828 -0.235659 -0.16583 0.116961 -0.180254 -0.0483042 1.01259 -0.179704 0.00382033 -0.0628803 0.112659 0.436667 -0.0172881 0.294046 0.630509 -0.168591 0.318848 0.439126 -0.15599 0.012429 -0.176334 -0.00483731 0.446797 0.135093 -0.277839 0.65433 0.324678 -0.12946 -0.120198 0.0928851 0.249551 -0.0899278 -0.0500863 0.817913 0.186291 0.0793543 0.0756425 -0.197428 -0.0109344 0.18431 -0.311595 -0.110443 -0.0699538 -0.0698228 -0.0803225 0.048421 0.0992316 -0.102512 0.274389 -0.219614 -0.111024 -0.273111 0.179253 0.436184 -0.237532 -0.216238 -0.145008 -0.22619 0.210772 0.0749618 -0.267703 -0.201286 0.0882703 -0.0604461 0.102389 0.00433494 -0.06109 -0.0325909 0.194879 0.306233 0.217923 -0.222468 -0.0970348 -0.187131 -0.147098 0.0229912 -0.169453 -0.234448 -0.169883 0.0468918 -0.188002 -0.211018 -0.0711158 0.021848 -0.140363 0.0477878 0.314324 -0.142981 -0.11835 -0.200212 0.271881 0.464123 -0.180827 0.01253 0.0591242 0.581148 -0.0338392 0.175008 0.355113 0.00947362 0.212566 -0.0436335 0.0431369 0.0761182 0.371501 -0.0583625 -0.627317 -0.0398448 0.0985516 -0.111208 0.0657026 0.250446 -0.146407 -0.0067517 0.127378 0.0770594 0.283513 0.0391819 0.100645 0.25604 -0.164981 0.185106 0.353128 -0.0833717 0.151676 0.339973 -0.0389425 0.309631 -0.0598121 -0.0424129 0.150278 0.415972 -0.104172 -0.0717845 0.0847206 0.182144 -0.00948928 0.0107306 0.232725 0.0654989 0.0114778 0.112699 -0.0853601 -0.609497 -0.332036 -0.361356 0.0277725 0.131899 -0.211469 0.0203013 -0.394491 -0.20455 -0.653878 -0.313039 -0.0770816 0.0837754 0.0625781 -0.624648 -0.405093 -0.619133 -0.558714 -0.423699 -0.0629565 -0.565122 -0.36216 -0.354247 -0.244881 0.0799321 -0.391825 -0.23095 -0.0797187 -0.602834 -0.0921924 0.992402 -0.553627 -0.149831 -0.676464 -0.432748 0.218567 0.051806 -0.367352 -0.0974685 0.329617 -0.488957 -0.471601 -0.3014 -0.060449 -0.363148 -0.465206 -0.0258991 -0.166346 -0.357634 -0.270159 -0.833623 -0.62539 -0.549842 0.0490776 -0.447712 -0.430145 0.287741 -0.367973 -0.242144 -0.831392 -0.658793 -0.0731122 -0.136671 0.555356 -0.03068 -0.493017 -0.288384 -0.454447 -0.566408 -0.383907 -0.741031 -0.724981 -0.236893 -0.561902 -0.264883 -0.348398 -0.656764 -0.00536065 -0.716356 0.137732 0.0861856 -0.664783 -0.411672 -0.0139886 -0.720637 -0.190662 -0.175235 -0.748008 0.240004 0.505503 -0.600178 -0.762875 -0.506788 -0.421916 -0.748768 -0.349772 -0.269749 -0.322345 -0.656414 -0.205127 -0.428201 -0.141848 0.343271 0.203898 0.563975 0.442611 0.0271273 0.158985 0.0506612 0.393913 0.301754 0.378696 0.465709 -0.230391 0.143498 0.264266 -0.113555 0.086852 0.191555 -0.165449 0.215414 0.0955194 0.160456 0.585144 0.0665273 0.333493 0.221579 -0.0608793 0.466979 0.663564 -0.0652626 0.0884752 0.111488 0.147734 0.607855 0.255058 0.101589 0.406237 0.201434 -0.146816 0.277353 0.137978 0.472609 0.262888 0.0111634 0.367383 0.215875 0.0689954 0.102741 0.0843015 0.415455 0.238176 0.70449 0.192571 -0.00682372 0.240023 -0.117127 0.182695 0.0127501 0.740145 0.252656 -0.253903 -0.0137804 0.11563 -0.165528 -0.0694267 0.126376 -0.119079 0.576383 -0.0339917 0.541571 0.273818 -0.0815671 0.1147 0.225891 -0.211973 0.229421 0.457254 -0.0991704 0.113996 -0.0515057 -0.041247 0.305814 0.102073 -0.0336007 0.146215 0.228522 0.353314 0.309459 0.494163 0.188464 0.137729 -0.142873 0.31972 0.0464471 0.031546 0.0211324 0.35783 0.258339 -0.0221183 0.272674 -0.0229685 0.218012 -0.095405 0.24966 -0.0236401 0.726707 0.244858 -0.247363 -0.0520551 0.079128 -0.172056 -0.0767365 0.158855 0.0892589 0.205265 -0.0352189 0.0713624 0.203225 -0.0966992 0.087871 0.210422 -0.199667 0.177732 0.406245 0.125795 0.0688191 -0.0793809 0.036167 0.222963 0.0565769 -0.0627889 0.0999676 0.157348 0.0663828 -0.130786 0.145002 0.134458 0.0440579 -0.132201 0.286397 0.0278523 -0.017913 0.034368 -0.31262 -0.203648 -0.0306488 -0.393201 -0.154048 -0.48063 -0.377829 -0.15994 0.066367 -0.161835 -0.939661 -0.414046 -0.446318 -0.560629 -0.471749 -0.0471438 -0.58053 -0.399705 -0.511517 -0.249615 0.0476428 -0.344157 -0.313562 -0.0438888 -0.58177 -0.186671 0.367393 -0.580112 -0.206426 -0.456626 -0.435724 0.023062 -0.597032 -0.464427 -0.150586 0.055555 -0.447334 -0.438508 -0.306512 -0.106562 -0.37133 -0.429642 -0.205031 -0.256516 -0.390971 -0.223006 -0.113228 0.307588 -0.236089 -0.0996019 -0.444196 -0.192154 -0.830216 0.249807 0.0768584 -0.387429 -0.264042 -0.488462 -0.483731 -0.407539 0.0514085 -0.484713 -0.116247 -0.384258 -0.102384 0.262621 -0.306465 -0.119897 0.153561 -0.462731 0.0460471 0.490389 -0.453862 -0.0321944 -0.472136 -0.290395 0.546856 -0.00508625 -0.194539 0.0783074 0.435805 -0.36765 -0.322745 -0.227348 0.0907564 -0.208264 -0.368868 0.156001 -0.13426 -0.197229 -0.208176 0.0917618 -0.186629 0.0454263 -0.243641 0.339995 -0.134524 0.399759 0.0822702 -0.422251 -0.184075 -0.0403509 -0.29893 -0.212376 -0.0197724 -0.34607 -0.0287147 -0.206114 0.041222 0.115355 -0.208473 0.131266 0.074953 -0.337175 0.0607034 0.291864 -0.251225 -0.0872056 -0.224503 -0.571192 0.109862 -0.102993 -0.202667 -0.0251785 0.0404341 -0.404118 0.324335 -0.318788 0.211371 0.198908 -0.270992 0.154366 -0.104538 -0.116042 -0.0957697 -0.402009 -0.140798 -0.908308 -0.151685 -0.166823 0.276673 -0.174722 -0.646448 -0.402202 -0.26504 -0.704145 -0.418933 -0.169448 -0.515635 -0.392903 -0.27158 -0.287981 -0.00207628 -0.337421 -0.322335 -0.315909 -0.529949 0.0308246 0.0622667 -0.478457 -0.245115 -0.600481 -0.337491 0.166837 -0.218745 -0.287455 -0.541901 0.0256907 -0.355495 -0.322619 -0.189373 -0.0628194 -0.178873 -0.287369 -0.0540464 0.0368275 -0.579488 -0.225054 0.420056 -0.115364 0.043793 0.15645 0.43818 0.575093 -0.0736303 0.0280009 0.129321 -0.161035 0.121093 0.303856 -0.168951 0.0560052 -0.176963 0.0869857 0.363678 0.0639382 0.152718 0.27596 -0.0114769 0.177952 0.300942 -0.132296 0.183077 -0.122142 -0.0408557 0.408061 0.148935 -0.0150105 0.209898 0.296691 -0.117415 -0.0674996 0.0748957 0.281456 0.0145221 0.16478 0.480602 0.0969999 0.0397213 -0.316232 -0.333133 -0.176321 -0.0536697 0.203632 -0.16584 0.000511556 -0.213273 0.00184398 -0.451139 -0.0622828 0.0808579 -0.438942 -0.224487 -0.316513 -0.152108 0.114025 -0.256468 -0.126909 0.130806 -0.605903 0.0472127 0.036212 -0.380748 0.00458247 -0.0488081 -0.259216 0.207434 -0.145167 -0.263522 0.003263 0.0616179 -0.35386 -0.327929 -0.164468 0.0114956 -0.237651 0.0551736 0.268167 -0.153095 -0.228597 -0.0820604 0.140528 0.135897 0.706123 0.629733 -0.0632846 0.823878 0.15975 -0.334472 -0.0135256 0.194243 -0.083972 0.138248 0.0460063 0.190764 0.416221 -0.000894638 0.252558 0.761346 -0.123015 0.230809 0.520057 -0.069005 1.12731 0.104423 0.0357342 0.441433 0.229159 -0.143209 0.836668 0.345434 -0.0155836 0.0388881 0.143887 0.316298 0.107038 -0.0545738 0.434145 0.23058 0.109182 0.117704 0.0983723 0.132046 0.225073 -0.261611 -0.0524544 0.0810711 -0.199506 -0.110119 0.120875 -0.229818 0.0659226 -0.0306814 -0.304549 0.310738 -0.0558906 0.175543 0.227164 -0.259856 0.269913 0.421928 -0.241731 0.154009 -0.0961518 -0.173154 0.328961 0.0992295 -0.11177 0.169421 0.258549 -0.532349 0.0805023 -0.665276 0.259346 -0.199332 -0.0843904 0.271543 0.0514215 -0.0473084 0.0398115 0.247789 0.302212 -0.180226 -0.106119 -0.479119 -0.0874588 -0.0392214 0.157919 -0.188258 -0.157478 -0.165385 -0.0063783 0.162076 -0.00254505 -0.112174 0.301729 -0.244522 0.733128 0.920128 -0.159395 0.0637989 -0.0936428 -0.141779 0.188701 -0.27475 -0.0966653 0.00952443 0.194292 -0.14191 -0.227541 0.0838151 0.09397 -0.149845 0.0200011 0.177698 0.0218019 -0.164841 0.0465501 -0.199655 -0.724989 -0.611906 -0.291343 -0.597319 -0.440238 -0.136035 -0.586718 -0.755481 -0.339566 -0.162859 -0.0542015 -0.376026 -0.291243 -0.0226423 -0.618627 -0.100774 0.0357374 -0.31243 -0.337802 -0.474932 -0.471362 -0.0121566 -0.274824 -0.0199413 -0.428015 -0.0940865 -0.679964 -0.681711 -0.886176 -0.175829 -0.248296 -0.429332 -0.136145 -0.41752 -0.670075 -0.1934 0.0255026 -0.264268 -0.0950963 -0.452638 -0.369509 0.0463532 -0.437524 -0.207008 -0.540207 -0.136661 0.180631 -0.364651 -0.0874483 0.119627 -0.549201 -0.122995 -0.117305 -0.40598 -0.0932749 -1.03768 -0.311488 0.215094 -0.13899 -0.274851 -0.0352301 0.0957754 -0.36409 -0.283545 -0.185615 0.0615601 -0.245674 -0.223699 0.137406 -0.134237 -0.254346 -0.590035 0.211691 0.998976 0.0555887 -0.0224184 0.587751 0.0613959 0.32774 0.167429 0.381303 0.627603 0.0827963 0.366843 0.540934 -0.0247707 0.468304 0.859029 0.0780782 0.115319 -0.237341 0.230439 0.628051 0.468953 0.246408 0.460796 0.587721 0.14165 0.187846 0.304481 0.547132 0.233887 -0.0399252 0.596861 0.394725 0.323982 0.173966 0.165847 -0.341781 -0.0630033 0.0728037 -0.146797 0.0469556 -0.000481887 0.107834 0.271822 -0.0754074 0.0917015 0.45332 -0.173871 0.292153 0.480562 -0.118718 0.493403 -0.0518086 -0.0098183 0.323813 0.133039 -0.211093 -0.659059 0.274848 -0.0886064 -0.085884 0.0928686 0.23809 0.0334749 -0.0745365 0.335038 0.091783 0.00318064 0.0346191 -0.238054 -0.162177 0.132394 -0.259896 -0.0957994 -0.14246 -0.0409956 0.152384 -0.161439 -0.00765589 0.113568 -0.331019 0.282383 0.3651 -0.260315 -0.0601291 0.0684567 -0.144032 0.370593 -0.21597 -0.160915 0.0457246 0.522985 -0.205418 -0.178458 -0.0403515 0.0879432 -0.117432 -0.231874 0.177924 -0.0521128 -0.0874608 -0.0679676 0.102229 0.243791 0.0455654 0.209821 0.138833 0.222894 0.311051 0.0830383 0.270577 0.6485 0.0280564 0.324351 0.585502 0.0510795 0.378832 0.159725 0.147136 0.324877 0.194105 0.0638845 0.151699 0.277875 0.0902702 0.138627 0.208774 0.272279 0.184176 0.0286743 0.528046 0.198194 0.251208 0.219718 0.255133 -0.0727001 0.0708269 0.17863 0.136384 0.301289 -0.211468 0.187545 0.229957 -0.0236219 0.28808 0.331679 -0.0697974 0.148877 -0.0169719 0.056138 0.29915 0.129112 0.0333005 0.191132 0.25505 -0.0271844 0.0337755 0.111639 0.236753 0.091481 0.334833 0.474991 0.114893 0.155534 0.338809 -0.429295 -0.311782 -0.390792 -0.182882 -0.158119 -0.232773 1.14129 0.222842 -0.413824 0.0019408 0.141136 -0.359052 -0.090806 -0.296957 -0.308778 0.146436 -0.197064 -0.294477 0.221694 0.0207322 -0.265922 -0.409649 -0.0595194 0.0926164 0.266322 -0.284661 -0.218763 -0.0200479 0.238873 -0.0659473 0.261848 0.169401 0.239745 0.467817 0.0914274 0.309596 0.416842 -0.0176374 0.422195 0.626022 -0.0402212 0.298487 0.110131 0.423478 0.48162 0.293539 0.139388 0.328086 0.415207 0.0137827 0.136185 0.192657 0.349779 0.27393 0.031748 0.528469 0.204371 0.1937 0.237555 0.0413666 -0.11979 0.421035 -0.0891758 0.488951 0.368436 -0.250019 0.282433 0.465245 -0.153377 0.205119 -0.070373 -0.258407 0.448219 0.153006 -0.124935 0.226635 0.275233 -0.249592 -0.136355 -0.0840588 0.584283 0.35276 -0.13786 0.28182 -0.0214427 -0.0966366 0.183154 0.145649 0.466546 -0.366228 0.0902674 0.341863 0.338056 0.213213 0.352672 1.03046e-05 0.238886 -0.0397763 0.0222533 0.435291 0.122734 0.0804389 0.26228 0.334346 -0.0326277 -0.00396017 0.0779098 0.167168 -0.00529561 0.0791558 0.440688 0.124258 0.141329 -0.218106 0.203106 -0.0938395 -0.000993438 0.159798 -0.290862 0.197474 0.369087 -0.116432 0.0599086 -0.143498 -0.271425 0.26948 0.0334308 -0.145202 0.066687 0.181878 -0.0359477 -0.0165278 -0.351727 0.127079 -0.000658369 -0.167607 0.150105 -0.0198573 -0.224916 -0.0100306 -0.241851 0.41134 0.0187814 -0.469399 -0.0594333 0.0458258 -0.380901 -0.219412 -0.383476 -0.30809 0.330198 -0.221285 -0.369878 -0.195325 0.032519 -0.341235 -0.711312 -0.157166 -0.163664 -0.341454 -0.217102 -0.0891713 0.063997 0.244992 -0.0344302 0.160137 0.232971 -0.453369 0.166499 0.237104 -0.0559229 0.0534957 -0.0368761 0.0495556 0.223382 0.0434008 -0.00337176 0.119788 0.169471 -0.0542083 0.000335767 0.116813 0.159736 0.0157391 0.341314 0.428076 0.110995 0.0655451 -0.105403 0.316328 -0.321903 0.213522 0.339945 -0.294863 0.141945 -0.178712 -0.179558 0.386722 0.0438012 -0.177571 0.12817 0.259598 -0.220846 -0.832781 -0.0433319 -0.410291 -0.4571 -0.0864602 -0.867548 -0.385409 -0.421441 -0.0342711 -0.437803 -0.00150904 0.0654362 -0.338659 -0.151959 -0.240196 -0.373665 -0.0666186 -0.123905 -0.577689 -0.200132 0.082007 -0.304222 -0.605559 -0.137782 -0.481196 -0.418944 -0.232663 0.197975 -0.295324 -0.570356 -0.0120441 0.325788 0.593524 0.0196057 0.293042 0.128034 0.168823 0.512929 0.273737 0.1787 0.32946 0.420137 0.107054 0.142111 0.23727 0.402031 0.187697 0.329469 0.725735 0.244646 0.221923 -0.29923 0.291843 -0.382871 -0.115842 -0.17189 -0.302539 0.422844 -0.0184245 -0.419453 -0.111318 -0.0231979 -0.331249 -0.381663 -0.151435 -0.0541861 -0.317207 -0.242328 0.245468 -0.173622 -0.326553 -0.165184 -0.617132 -0.261651 -0.439782 -0.518714 0.113488 -0.849693 -0.513738 -0.240092 -0.0200859 -0.505464 -0.553829 -0.369644 -0.200515 -0.503925 -0.356859 -0.0244413 -0.34236 -0.464287 -0.295858 0.286117 0.0619016 0.415992 0.416794 0.251245 0.142392 0.301096 0.348609 -0.154106 0.0892768 0.113632 0.338938 0.268232 -0.0155643 0.516539 0.221817 0.214357 0.167091 -0.218748 -0.212601 0.306384 -0.0292827 -0.336806 -0.0621674 0.182599 -0.194643 -0.263166 -0.0289858 0.104557 -0.228864 -0.0761643 0.155526 -0.00704691 -0.123635 -0.0112859 0.0148394 0.417303 0.191144 -0.00867973 0.36546 0.318284 -0.029413 -0.00987876 0.125333 0.279708 0.0570524 -0.0421589 0.359699 0.135991 0.070737 0.137425 0.337366 0.169821 0.0138924 0.235534 0.293258 0.00532267 0.0632975 0.204675 0.235491 0.237067 -0.0368121 0.366721 0.137848 -0.0101457 0.0820048 -0.312421 -0.595028 -0.24539 0.0226227 -0.393225 -0.475904 -0.185995 -0.187702 -0.432479 -0.274214 0.0895778 -0.219734 -0.428773 -0.141349 -0.227936 0.0944263 0.411035 -0.226991 -0.223621 0.0145446 0.119081 -0.143598 -0.147029 0.124577 0.000102672 -0.14139 0.0310987 0.563946 0.427233 -5.0607e-05 -0.155646 0.168932 0.246445 0.151074 -0.00339117 0.344681 -0.0088168 -0.211405 0.143819 0.122663 -0.271466 -0.219778 -0.0604801 0.0481384 -0.245625 -0.154336 0.0580826 -0.0774827 -0.247815 -0.0416435 -0.35355 -0.379717 -0.120582 -0.060314 -0.321467 -0.23711 0.209436 -0.153962 -0.334804 -0.114671 -0.0998506 -0.0564665 0.284495 0.2034 -0.0327214 0.441249 0.16304 -0.00922192 0.159928 0.0658083 0.511996 -0.0225573 0.00841864 0.519491 0.154039 -0.15585 0.102291 0.0942505 0.0843879 -0.178908 0.247213 -0.0198428 -0.0952804 -0.00366825 -0.613801 -0.224392 0.0700118 -0.193726 0.0339836 -0.081586 -0.0565078 -0.0412436 0.0873932 0.199345 0.092363 0.368707 0.102336 0.0662942 -0.0181052 -0.32744 -0.387582 -0.347745 0.0818547 0.0168416 -0.0033388
nr_sv 83 28 33 91 99 44 39 47 47 36 100 49 22 39 35 44 50 64 48 70 19 66 27 94 83 32 25 46 18 32 30 20 44 48 40 59 43 50 29 24 36 63 25 54 38 37 6 25 39 27 48 38 53 47 35 41 32 61 18 35 43
SV
0 0 0 0 0 0 0 0 0 0 0 0 0 0 0 0 0 0 0 0 0 0 0 0 0 0 0 0 0 0 0 0 0 0 0 0 0 0 0 0 0 0 0 0 0 0 0 0 0 0 0 0 0 0 0 2.244294302090456e-06 0 0 0 0 2:-87 8:-87 9:-88 16:-82 19:-86 23:-84 24:-85 26:-85 27:-85 59:-90 63:-90 65:-89 67:-86 68:-86 69:-86 72:-89 75:-88 76:-89 93:-89 118:-88 119:-88 121:-87 167:-86 203:-93 206:-93 
0 0 0 0 0 0 0 0 0 0 0 0 0 0 0 0 0 0 0 0 0 0 0 0 0 0 0 0 0 0 0 0 0 0 0 0 0 0 0 0 0 0 0 0 0 0 0 0 0 0 0 0 0 0 0 3.455562653561756e-05 0 0 0 9.37176850239655e-06 2:-88 4:-86 7:-84 8:-90 9:-91 10:-86 15:-81 16:-85 19:-86 23:-84 24:-85 26:-85 27:-86 28:-84 59:-88 60:-93 63:-90 65:-87 67:-86 68:-86 69:-86 72:-89 75:-88 76:-70 93:-89 118:-86 119:-84 121:-89 167:-91 203:-93 211:-91 226:-91 
0 0 0 0 0 0 0 0 0 0 0 0 0 0 0 0 0 0 0 0 0 0 0 0 0 0 0 0 1.100311022494568e-06 0 0 0 0 0 0 0 0 0 1.352038821103919e-05 0 0 0 0 0 0 0 0 0 0 0 0 0 0 0 0 3.700224846175252e-05 0 0 0 0 2:-87 8:-83 9:-87 15:-80 19:-80 23:-85 24:-80 26:-87 63:-93 76:-91 118:-87 119:-86 121:-91 167:-88 187:-92 201:-93 
0 0 0 0 0 0 0 0 0 0 0 0 0 0 0 0 0 0 0 0 0 0 0 0 0 0 0 0 0 0 0 0 0 0 0 0 0 0 0 0 0 0 0 0 0 0 0 0 0 0 0 0 0 0 0 0.0001226338300012907 0 0 0 0 2:-92 9:-91 16:-86 19:-85 23:-89 24:-85 26:-85 27:-84 28:-84 29:-83 59:-89 63:-92 65:-88 68:-89 118:-88 119:-86 121:-87 167:-88 
0 0 0 0 0 0 0 0 0 0 0 0 0 0 0 0 0 0 0 0 0 0 0 0 9.099025477601955e-08 0 0 0 0 0 0 0 0 0 0 0 0 0 0 0 0 0 0 0 0 0 0 0 0 0 0 0 0 0 0 0 0 0 0 0 2:-88 9:-90 15:-83 19:-83 24:-83 28:-87 29:-88 59:-89 65:-89 75:-90 118:-88 119:-89 121:-87 167:-88 204:-87 211:-91 221:-92 
0 0 0 0 0 0 0 0 0 0 0 0 0 0 0 0 0 0 0 0 0 0 0 0 0 0 0 0 2.871337527507087e-06 0 0 0 0 0 0 0 0 0 0 0 0 0 0 0 0 0 0 0 0 0 0 0 0 0 0 0 0 0 0 0 2:-87 9:-88 15:-81 16:-81 19:-82 23:-80 24:-82 26:-83 27:-82 29:-81 59:-86 62:-92 65:-85 74:-91 75:-85 76:-87 118:-86 119:-86 167:-87 211:-93 
0 0 0 0 0 0 0 0 0 0 0 0 0 0 0 0 0 0 0 0 0 0 0 0 0 0 0 0 1.22440230855501e-06 0 0 0 0 0 0 0 0 0 0 0 0 0 0 0 0 0 0 0 0 0 0 0 0 0 0 0 0 0 0 0 2:-88 19:-78 24:-79 59:-90 63:-93 65:-91 75:-91 76:-88 118:-89 119:-88 186:-95 211:-91 
0 0 0 0 0 0 0 0 0 0 0 0 0 0 0 0 0 2.181449320800033e-05 0 0 0 0 0 0 0 0 0 0 0 0 0 0 0 0 0 0 0 0 8.421066077598565e-06 0 0 0 0 0 0 0 0 0 0 0 0 0 0 0 0 0 0 0 0 0 2:-87 8:-90 15:-80 19:-80 23:-84 24:-79 27:-86 29:-85 67:-86 69:-86 118:-86 119:-86 167:-91 187:-93 192:-92 201:-93 203:-91 218:-88 
0 0 0 0 0 0 0 0 0 0 0 0 0 0 0 0 0 0 0 0 0 0 0 0 0 0 0 0 7.742790876999746e-06 0 0 0 0 0 0 0 0 0 0 0 1.40374815847784e-06 0 0 0 0 0 0 0 0 0 0 0 0 0 0 1.666320665745838e-05 0 0 0 0 2:-87 16:-82 19:-86 23:-82 24:-86 26:-81 27:-81 28:-81 59:-90 63:-92 75:-93 93:-91 118:-86 119:-86 168:-93 
3.799461053533551e-06 3.941917030225908e-06 6.02808357950102e-06 6.169129233729209e-06 3.863610230051308e-06 5.569425667347381e-06 0 3.19721225776992e-06 5.275661104823543e-06 4.681066624691218e-06 4.987250569056991e-06 3.874451173440117e-06 3.429136204033786e-06 4.898373819089522e-06 5.201123153690604e-06 3.828767861743921e-06 6.877757716446157e-06 0 0 4.319748206051199e-06 4.889976560776126e-06 6.614536516966639e-06 5.547931001564038e-06 0 8.843374551604046e-07 4.465026984510354e-06 4.045848896073169e-06 2.372411809192308e-06 0 5.740037940713353e-06 3.761940466856859e-06 5.238068288410555e-06 0 5.037128308476206e-06 6.331016050277819e-06 0 5.674022075286045e-06 5.66948910401709e-06 0 0 1.516067283642755e-06 3.469843035954581e-06 6.755858025658742e-06 1.074138865964291e-06 4.233713929754739e-06 6.272598093223295e-06 7.320014805831056e-06 6.406651979936832e-06 6.082304801467874e-06 5.623565323498256e-06 4.061635435244677e-06 4.766290286859499e-06 3.479503697321653e-06 5.760558686904652e-06 5.060707007068114e-06 0 7.601915576406802e-06 4.592275972814473e-06 5.49197622816249e-06 0 2:-89 8:-90 9:-90 19:-79 24:-79 29:-88 59:-90 63:-93 65:-89 118:-85 119:-86 
0 0 0 0 0 0 0 0 0 0 0 0 0 0 0 0 0 0 5.034646851878821e-06 0 0 0 0 0 0 0 0 0 0 0 0 0 0 0 0 0 0 0 0 0 0 0 0 0 0 0 0 0 0 0 0 0 0 0 0 0 0 0 0 0 2:-86 4:-88 16:-82 19:-77 23:-81 24:-78 26:-84 27:-83 28:-85 29:-82 59:-89 62:-93 65:-89 75:-90 76:-81 118:-80 119:-79 
1.354977803764307e-07 1.436512076617137e-07 2.238392291809381e-07 2.382723285958222e-07 1.390648802163754e-07 1.922728014129022e-07 0 0 2.101241835570234e-07 0 1.848975522366251e-07 1.438871955961136e-07 1.156861067985603e-07 0 1.935261167252297e-07 1.38239983830696e-07 2.454037068077884e-07 0 0 1.552706399262096e-07 1.702112104676423e-07 2.411784249922501e-07 1.999447553728642e-07 0 0 1.607110896968835e-07 1.273579329149546e-07 9.614192379019354e-08 0 2.118206688649193e-07 1.379477721526589e-07 1.864751859553135e-07 0 1.818374220876651e-07 2.180143032438958e-07 0 2.062630477241475e-07 2.066976078287217e-07 0 0 0 1.123259117245075e-07 2.447815768181016e-07 0 1.514164916694274e-07 2.242581534643787e-07 0 2.283564395191394e-07 2.223028151452162e-07 2.332359544342953e-07 1.381211574033824e-07 1.688222116153706e-07 1.083116946506189e-07 1.968125542055294e-07 1.849996933506655e-07 0 0 1.714864200928073e-07 1.851944568238871e-07 0 2:-86 9:-90 16:-85 19:-81 24:-82 26:-88 68:-88 76:-87 118:-84 119:-84 121:-91 167:-91 216:-93 
0 0 0 0 0 0 0 0 0 0 0 0 0 0 0 0 0 0 0 0 0 0 0 0 0 0 0 0 0 0 0 0 0 0 0 0 0 0 0 0 0 0 0 0 0 0 0 0 0 0 0 0 0 0 0 4.452107266066027e-05 0 0 0 0 2:-88 9:-90 16:-84 19:-81 23:-84 24:-82 26:-88 63:-92 118:-88 119:-88 121:-91 167:-91 186:-93 
1.292738431178194e-06 1.33782537643835e-06 2.048827971675507e-06 2.101185656422805e-06 1.317623534794086e-06 1.894777440841135e-06 0 0 1.790809252036537e-06 0 1.702356395131073e-06 1.316366157358414e-06 1.16457634478132e-06 2.917608728302769e-07 1.770261018017474e-06 1.304472654841274e-06 2.340220635435198e-06 0 0 1.466140881065814e-06 1.667874558354966e-06 2.247276885706627e-06 1.892223447319006e-06 0 0 1.521114401930477e-06 1.374661715058499e-06 8.101575207039957e-07 0 1.951783832455019e-06 1.282927592611073e-06 1.785762624358442e-06 0 1.716714010598982e-06 2.165639901274561e-06 0 1.934918101669158e-06 1.934987542298716e-06 1.087974783643115e-05 0 2.17444452514441e-08 1.174419045019866e-06 2.300182209993082e-06 0 1.431449548542038e-06 2.144201048936048e-06 0 2.18295930011352e-06 2.06802825006969e-06 1.920317010652412e-06 1.383886649034002e-06 1.623451578567844e-06 1.193153738385554e-06 1.957507510419248e-06 1.715144942215325e-06 0 1.080812241481902e-06 1.565304859908968e-06 1.867832226498806e-06 0 2:-88 16:-86 19:-82 23:-84 24:-81 27:-87 28:-88 76:-89 118:-86 119:-86 167:-90 204:-90 
0 0 0 0 0 0 0 0 0 0 0 0 0 0 0 0 0 6.168072094873752e-05 0 0 0 0 0 0 0 0 0 0 0 0 0 0 0 0 0 0 0 0 0 0 0 0 0 0 0 0 0 0 0 0 0 0 0 0 0 0 0 0 0 0 2:-89 15:-80 16:-88 19:-80 24:-80 27:-84 59:-89 65:-88 75:-88 76:-86 118:-87 119:-87 187:-93 211:-93 
0 0 0 0 0 0 0 0 0 0 0 0 0 0 0 0 0 0 0 0 0 0 0 0 0 0 0 0 0 0 0 0 0 0 0 1.233388339705811e-05 0 0 0 0 0 0 0 0 0 0 0 0 0 0 0 0 0 0 0 0 0 0 0 0 2:-87 10:-86 15:-81 19:-81 23:-81 24:-81 26:-83 27:-82 29:-84 59:-89 65:-89 74:-91 75:-91 76:-87 118:-86 119:-86 121:-91 167:-92 
0 0 0 0 0 0 0 0 0 0 0 0 0 0 0 0 0 0 0 0 0 0 0 0 0 0 0 0 0 0 0 0 0 0 0 0 0 0 0 0 0 0 0 0 0 0 0 0 0 0 0 0 0 0 0 1.980956410170567e-05 0 0 0 0 2:-88 8:-83 9:-87 15:-79 16:-85 19:-79 23:-86 24:-79 26:-87 27:-88 63:-93 68:-88 76:-91 118:-86 119:-87 121:-91 167:-88 186:-92 187:-92 201:-93 203:-93 204:-89 219:-94 
0 0 0 0 0 0 0 0 0 0 0 0 0 0 0 0 0 0 0 0 0 0 0 0 0 0 0 0 0 0 0 0 0 0 0 0 0 0 0 0 0 0 0 0 0 0 0 0 0 0 0 0 0 0 0 0 0 0 0 1.48584968451437e-06 2:-86 15:-88 16:-85 23:-80 24:-88 26:-82 27:-81 28:-81 29:-82 63:-90 67:-85 69:-85 76:-88 118:-90 119:-89 187:-92 192:-93 201:-92 
0 0 0 0 0 0 2.020806877071641e-05 0 0 0 0 0 0 0 0 0 0 0 0 0 0 0 0 0 0 0 0 0 3.843324361923463e-05 0 0 0 0 0 0 0 0 0 0 0 0 0 0 0 0 0 0 0 0 0 0 0 0 0 0 0 0 0 0 0 2:-89 8:-86 15:-80 16:-85 19:-80 24:-80 26:-84 27:-85 63:-93 75:-94 76:-86 118:-86 119:-86 192:-92 
0 0 0 0 0 0 0 0 0 0 0 0 0 0 0 0 0 3.578665016103942e-05 0 0 0 0 0 0 0 0 0 0 0 0 0 0 0 0 0 0 0 0 0 0 0 0 0 0 0 0 0 0 0 0 0 0 0 0 0 0 0 0 0 0 2:-88 8:-84 9:-89 15:-79 16:-85 19:-79 23:-86 24:-80 26:-87 27:-88 29:-81 59:-90 68:-88 75:-90 118:-86 119:-87 121:-87 167:-91 186:-92 187:-92 201:-92 203:-93 204:-89 219:-94 
0 0 0 0 0 0 0 0 0 0 0 0 0 0 0 0 0 0 0 0 0 0 0 0 0 0 0 0 0 0 0 0 0 0 0 0 0 0 0 0 0 0 0 0 0 0 0 0 0 0 0 0 0 0 0 2.299515371270696e-05 0 0 0 0 2:-88 15:-80 16:-85 19:-80 24:-80 26:-84 27:-85 29:-86 63:-93 67:-83 68:-83 69:-82 118:-87 119:-86 121:-92 221:-92 
0 0 0 0 0 0 1.622599096092722e-05 0 0 0 0 0 0 0 0 0 0 0 0 0 0 0 0 0 0 0 0 0 0 0 0 0 0 0 0 0 0 0 0 0 0 0 0 0 0 0 0 0 0 0 0 0 0 0 0 0 0 0 0 0 2:-89 8:-90 9:-90 15:-79 16:-88 19:-79 24:-79 26:-85 27:-83 28:-84 29:-88 59:-90 65:-89 118:-84 119:-84 167:-89 186:-92 
0 0 0 0 0 0 0 0 0 0 0 0 0 0 0 0 0 0 0 0 0 0 0 0 0 0 0 0 1.011341472670512e-06 0 0 0 7.179229933928881e-05 0 0 2.380758429740466e-05 0 0 0 0 0 0 0 0 0 0 0 0 0 0 0 0 0 0 0 0 0 0 0 1.888526839870784e-06 2:-86 4:-88 15:-80 19:-79 23:-80 24:-78 26:-80 27:-81 28:-83 29:-81 59:-86 62:-93 65:-86 73:-91 74:-91 76:-84 118:-90 119:-89 
0 0 0 0 0 0 7.167381118696061e-06 0 0 0 0 0 0 0 0 0 0 0 0 0 0 0 0 0 0 0 0 0 0 0 0 0 0.0004636826165550517 0 0 0 0 0 0 0 0 0 0 0 0 0 0 0 0 0 0 0 0 0 0 0 0 0 0 0 2:-89 15:-80 16:-88 19:-80 24:-80 27:-84 59:-89 65:-88 75:-88 76:-86 118:-87 119:-87 211:-93 
0 0 0 0 0 0 1.806438897414784e-05 0 0 0 0 0 0 0 0 0 0 0 0 0 0 0 0 0 0 0 0 0 0 0 0 0 0.0005780019201369681 0 0 0 0 0 0 0 1.201629699667855e-06 0 0 0 0 0 0 0 0 0 0 0 0 0 0 0 0 0 0 0 2:-89 15:-82 16:-82 19:-82 23:-84 24:-83 26:-85 27:-86 28:-85 29:-84 59:-88 65:-87 75:-90 118:-87 119:-86 
0 0 0 0 0 0 0 0 0 0 0 0 0 0 0 0 0 0 0 0 0 0 0 0 0 0 0 0 0 0 0 0 3.746030238982458e-06 0 0 0 0 0 0 0 0 0 0 0 0 0 0 0 0 0 0 0 0 0 0 0 0 0 0 0 2:-89 19:-78 23:-83 24:-79 26:-84 27:-85 59:-90 63:-93 65:-91 76:-88 118:-86 119:-87 186:-95 211:-91 
0 0 0 0 0 0 1.246925891343989e-07 0 0 0 0 0 0 0 0 0 0 6.271771506388093e-05 0 0 0 0 0 0 0 0 0 0 0 0 0 0 0 0 0 0 0 0 0 0 0 0 0 0 0 0 0 0 0 0 0 0 0 0 0 0 0 0 0 0 2:-89 8:-88 15:-82 16:-86 19:-81 23:-87 24:-82 29:-86 59:-90 65:-89 76:-87 118:-87 119:-88 167:-88 221:-92 
0 0 0 0 0 0 0 0 0 0 0 0 0 0 0 0 0 0 0 0 0 0 0 0 0 0 0 0 0 0 0 0 0 0 0 8.467499048234487e-05 0 0 0 3.609500886092526e-06 0 0 0 0 0 0 0 0 0 0 0 0 0 0 0 0 0 0 0 2.442233783925448e-06 2:-89 8:-90 9:-90 15:-79 19:-79 24:-79 29:-88 59:-90 63:-94 65:-89 118:-85 119:-85 
2.301009557416652e-06 2.395672318015507e-06 3.643429414140709e-06 3.736665838185756e-06 2.336454984385301e-06 3.380064126969971e-06 0 0 3.155868015499787e-06 0 3.023974005167298e-06 2.338424543518983e-06 2.088544131568933e-06 4.613941706410346e-06 3.140193771416152e-06 2.322071346301384e-06 4.174135841125346e-06 0.0005271852657336764 0 2.626785899240372e-06 2.969232178591846e-06 4.002998756588971e-06 3.35525640154527e-06 0 0 2.709899821629593e-06 2.477795532356831e-06 1.43166011157082e-06 0 3.464494029667524e-06 2.289392898457144e-06 3.173279807583236e-06 0 3.044867996316289e-06 3.831830776697385e-06 0 3.431831236186567e-06 3.438370725467367e-06 1.431005946551936e-05 7.443129683464989e-06 2.344964676436873e-06 2.122207463164752e-06 4.075164608482587e-06 0 2.575411229792049e-06 3.787280491841103e-06 0 3.885250997643925e-06 3.680278013502564e-06 3.364877066562727e-06 2.464694913256219e-06 2.885777398888662e-06 2.115650337211516e-06 3.511088866637553e-06 3.074739788824481e-06 3.771494232946501e-06 5.56703496790552e-06 2.782135734993892e-06 3.333750162810871e-06 0 2:-88 9:-88 15:-82 16:-86 19:-81 23:-85 24:-81 118:-86 119:-86 121:-91 167:-91 211:-91 
0 0 0 0 0 0 4.125405992086813e-06 7.963522200708858e-07 0 0 0 0 0 0 0 0 0 0.000229102058006173 0 0 0 0 0 0 3.788021915771616e-07 0 0 0 0 0 0 0 0.0001163192918953987 0 0 1.026046536355599e-06 0 0 0 1.9063960941223e-06 0 0 0 0 0 0 0 0 0 0 0 0 0 0 0 2.959277822592961e-06 0 0 0 0 2:-88 15:-84 19:-83 23:-86 24:-83 26:-83 27:-83 28:-83 68:-88 75:-90 76:-85 118:-86 119:-85 204:-88 
0 0 0 0 0 0 0 0 0 0 0 0 0 0 0 0 0 0 0 0 0 0 0 0 0 0 0 0 4.607941746238232e-06 0 0 0 0 0 0 0 0 0 0 0 0 0 0 0 0 0 0 0 0 0 0 0 0 0 0 0 0 0 0 0 2:-88 8:-92 9:-92 11:-87 15:-83 19:-83 24:-83 29:-88 59:-89 63:-94 65:-89 75:-89 76:-89 118:-87 119:-89 167:-86 216:-93 
0 0 0 0 0 0 0 0 0 0 0 0 0 0 0 0 0 0 0 0 0 0 0 0 0 0 0 0 4.070741084146893e-05 0 0 0 0 0 0 0 0 0 0 0 0 0 0 0 0 0 0 0 0 0 0 0 0 0 0 0 0 0 0 1.949856873569637e-06 2:-87 4:-88 15:-80 16:-82 19:-79 23:-80 24:-78 26:-80 27:-81 28:-83 29:-81 59:-86 62:-93 65:-86 73:-91 74:-91 75:-90 76:-84 118:-84 119:-83 
0 0 0 0 0 0 1.544195492936552e-06 0 0 0 0 0 0 0 0 0 0 0 1.044302804959953e-06 0 0 0 0 1.472898349162723e-06 0 0 0 0 0 0 0 0 0 0 0 0 0 0 0 0 9.719657632916211e-07 0 0 0 0 0 0 0 0 0 0 0 0 0 0 0 0 0 0 0 2:-88 15:-81 16:-87 19:-81 24:-81 26:-85 27:-85 29:-86 67:-83 68:-83 69:-82 118:-88 119:-87 121:-92 185:-91 221:-92 
0 0 0 0 0 0 5.902208949207868e-06 0 0 1.125698269339009e-06 0 0 0 0 0 0 0 0 0 0 0 0 0 2.590417059513674e-06 4.983870891878719e-07 0 0 0 0 0 0 0 0 0 0 0 0 0 0 0 2.366281114536519e-06 0 0 0 0 0 0 0 0 0 0 0 0 0 0 0 0 0 0 0 2:-86 4:-88 15:-76 16:-82 19:-76 23:-81 24:-76 26:-84 27:-83 28:-83 29:-81 59:-89 62:-93 65:-90 75:-90 118:-81 119:-81 
0 0 0 0 0 0 0 0 0 0 0 0 0 0 0 0 0 0 0 0 0 0 0 0 0 0 0 0 0 0 0 0 8.736326138139932e-05 0 0 0 0 0 0 0 0 0 0 0 0 0 0 0 0 0 0 0 0 0 0 0 0 0 0 0 2:-87 9:-90 15:-83 16:-89 19:-84 23:-85 24:-82 26:-88 29:-81 59:-90 65:-91 76:-82 118:-84 119:-84 192:-92 
0 0 0 0 0 0 0 0 0 0 0 0 0 0 0 0 0 0 0 0 0 0 0 1.745724285054051e-06 0 0 0 0 0 0 0 0 0 0 0 0 0 0 0 0 0 0 0 0 0 0 0 0 0 0 0 0 0 0 0 0 0 0 0 0 2:-85 15:-80 16:-87 19:-85 24:-85 26:-84 27:-85 29:-86 67:-83 68:-83 69:-82 118:-87 119:-87 121:-92 221:-92 
0 0 0 0 0 0 0 0 0 0 0 0 0 0 0 0 0 0.0008251966838975404 0 0 0 0 0 0 0 0 0 0 0 0 0 0 7.368414888960344e-05 0 0 1.161989412087221e-05 0 0 4.396454761675389e-05 0 0 0 0 0 0 0 0 0 0 0 0 0 0 0 0 0 0 0 0 0 2:-87 8:-86 15:-82 16:-87 19:-81 23:-87 24:-82 29:-86 59:-90 65:-89 118:-84 119:-84 192:-92 
0 0 0 0 0 0 0 0 0 0 0 0 0 0 0 0 0 3.092905399339226e-05 1.640958490908865e-06 0 0 0 0 0 0 0 0 0 0 0 0 0 0 0 0 0 0 0 0 0 2.521685542596436e-06 0 0 0 0 0 0 0 0 0 0 0 0 0 0 0 3.482821541793135e-06 0 0 0 2:-86 9:-93 16:-88 19:-79 24:-79 26:-85 27:-83 28:-84 29:-87 76:-82 118:-81 119:-80 167:-89 186:-92 187:-93 216:-89 
0 0 0 0 0 0 0 0 0 0 0 0 0 0 0 0 0 0 0 0 0 0 0 0 0 0 0 0 0 0 0 0 0 0 0 0 0 0 0 0 0 0 0 0 0 0 0 0 0 0 0 0 0 0 0 5.43151800794957e-06 0 0 0 0 2:-87 15:-88 16:-85 23:-80 24:-88 26:-82 27:-81 28:-81 29:-82 59:-90 63:-90 67:-85 69:-85 118:-87 119:-87 187:-92 192:-93 201:-92 
0 0 0 0 0 0 0 0 0 0 0 0 0 0 0 0 0 0 0 0 0 0 0 0 0 0 0 0 0 0 0 0 0.0001219597498167412 0 0 0 0 0 0 0 0 0 0 0 0 0 0 0 0 0 0 0 0 0 0 0 0 0 0 0 2:-83 15:-83 16:-87 19:-78 23:-87 24:-82 26:-87 27:-85 29:-81 59:-89 65:-90 68:-87 76:-82 118:-82 119:-82 
0 0 0 0 0 0 0 0 0 0 0 0 0 0 0 0 0 0 0 0 0 0 0 0 0 0 0 0 3.100340097229387e-06 0 0 0 0 0 0 0 0 0 0 0 0 0 0 0 0 0 0 0 0 0 0 0 0 0 0 0 0 0 0 0 2:-91 8:-87 9:-88 19:-86 23:-84 24:-85 26:-85 27:-86 59:-87 63:-90 65:-87 67:-86 68:-86 69:-86 72:-89 75:-88 76:-86 93:-89 118:-86 119:-85 121:-87 167:-86 203:-93 206:-93 
0 0 0 0 0 0 0 0 0 1.197672473869752e-06 0 0 0 0 0 0 0 0 2.651644360482345e-06 0 0 0 0 1.660371898558471e-06 0 0 0 0 0 0 0 0 0 0 0 0 0 0 0 0 2.122164388946559e-06 0 0 3.429930492910128e-06 0 0 0 0 0 0 0 0 0 0 0 0 6.508379691434639e-07 0 0 0 2:-84 9:-88 15:-86 16:-80 19:-86 23:-81 29:-81 59:-85 62:-92 65:-85 75:-85 118:-87 119:-86 167:-87 211:-93 
0 0 0 0 0 0 0 0 0 0 0 0 0 0 0 0 0 0 0 0 0 0 0 0 0 0 0 0 1.404639416332676e-06 0 0 0 0 0 0 0 0 0 0 0 0 0 0 0 0 0 0 0 0 0 0 0 0 0 0 0 0 0 0 0 2:-89 8:-91 16:-87 19:-79 24:-79 26:-85 27:-86 59:-90 63:-93 65:-89 67:-86 68:-85 69:-86 76:-87 118:-85 119:-84 203:-92 217:-90 
0 0 0 0 0 0 0 2.059934623452531e-06 0 4.84416590880023e-06 0 0 0 0 0 0 0 0 0 0 0 0 0 6.007453482985342e-06 5.119345265452903e-06 0 0 0 0 0 0 0 0 0 0 0 0 0 0 0 0 0 0 3.528830810204757e-06 0 0 0 0 0 0 0 0 0 0 0 0 0 0 0 0 2:-89 16:-82 19:-82 23:-84 24:-83 26:-86 27:-86 28:-85 59:-88 65:-87 75:-90 118:-86 119:-86 216:-92 228:-92 
0 0 0 0 0 0 2.413271885283041e-06 6.039691792924945e-07 0 0 0 0 0 0 0 0 0 0 0 0 0 0 0 0 0 0 0 0 0 0 0 0 0 0 0 0 0 0 0 0 0 0 0 0 0 0 0 0 0 0 0 0 0 0 0 8.055194078239747e-05 0 0 0 0 2:-91 9:-88 15:-83 16:-85 19:-80 24:-80 27:-88 28:-88 68:-88 118:-83 119:-84 167:-92 211:-91 
0 0 0 0 0 0 0 0 0 0 0 0 0 0 0 0 0 0 0 0 0 0 0 0 0 0 0 0 0 0 0 0 0 0 0 0 0 0 0 0 0 0 0 0 0 0 0 0 0 0 0 0 0 0 0 0 0 0 0 2.163676761842519e-06 2:-88 4:-86 7:-84 8:-91 9:-91 10:-86 15:-81 16:-85 19:-83 23:-81 24:-83 26:-84 27:-84 28:-84 59:-89 60:-93 65:-89 75:-90 76:-83 118:-82 119:-82 121:-89 167:-91 211:-91 226:-91 
0 0 0 0 0 0 0 0 0 0 0 0 0 0 0 0 0 0 4.002584069229655e-06 0 0 0 0 2.855148459089193e-06 0 0 0 0 0 0 0 0 0 0 0 0 0 0 0 0 0 0 0 0 0 0 0 0 0 0 0 0 0 0 0 0 0 0 0 0 2:-85 8:-87 9:-88 16:-82 23:-86 24:-85 26:-82 27:-82 59:-87 65:-87 67:-85 68:-85 69:-85 76:-87 118:-87 119:-87 121:-87 167:-86 187:-93 206:-93 
0 0 0 0 0 0 0 0 0 0 0 0 0 0 0 0 0 0 0 0 0 0 0 0 0 0 0 0 0 0 0 0 0 0 0 2.040107447208589e-05 0 0 0 0 0 0 0 0 0 0 0 0 0 0 0 0 0 0 0 0 0 0 0 0 2:-88 15:-81 19:-81 23:-86 24:-80 29:-85 59:-91 63:-91 65:-90 75:-90 76:-90 118:-90 119:-88 167:-91 
0 0 0 0 0 0 0 0 0 0 0 0 0 0 0 0 0 0 0 0 0 0 0 0 0 0 0 0 0 0 0 0 0 0 0 0 0 0 1.025675282191885e-05 0 0 0 0 0 0 0 0 0 0 0 0 0 0 0 0 0 0 0 0 0 2:-88 9:-88 15:-80 16:-86 19:-80 23:-85 24:-80 63:-93 76:-91 118:-90 119:-86 121:-91 167:-88 187:-92 201:-93 211:-91 
0 0 0 0 0 0 0 0 0 0 0 0 0 0 0 0 0 0 0 0 0 0 0 0 0 0 0 0 0 0 0 0 0 0 0 0 0 0 0 0 0 0 0 0 0 0 0 0 0 0 0 0 0 0 0 0 0 0 0 3.088414389800001e-06 2:-88 8:-91 11:-88 15:-82 16:-84 19:-82 24:-82 26:-84 27:-86 28:-85 29:-84 59:-91 63:-92 65:-91 68:-89 118:-89 119:-89 
0 0 0 0 0 0 2.733951621002876e-06 0 0 0 0 0 0 0 0 0 0 0 2.488899198475581e-06 0 0 0 0 2.05999219260756e-06 0 0 0 0 7.254065156249433e-07 0 0 0 0 0 0 0 0 0 0 0 2.786470336906183e-07 0 0 0 0 0 0 0 0 0 0 0 0 0 0 0 1.400643932100455e-06 0 0 0 2:-87 8:-90 16:-87 19:-80 23:-85 24:-80 26:-85 27:-86 67:-86 68:-85 69:-86 118:-86 119:-87 187:-93 203:-91 217:-90 218:-88 
0 0 0 0 0 0 1.864854657725268e-06 0 0 0 0 0 0 0 0 0 0 0 0 0 0 0 0 0 0 0 0 0 0 0 0 0 0 0 0 0 0 0 0 0 0 0 0 0 0 0 0 0 0 0 0 0 0 0 0 0 0 0 0 1.647238571212639e-06 2:-87 9:-93 15:-79 16:-88 19:-79 24:-79 26:-85 27:-83 28:-84 29:-87 76:-82 118:-81 119:-80 167:-89 186:-92 216:-89 
0 0 0 0 0 0 0 0 0 0 0 0 0 0 0 0 0 0 0 0 0 0 0 0 0 0 0 0 0 0 0 0 0 0 0 0 0 0 1.15804856655859e-05 0 0 0 0 0 0 0 0 0 0 0 0 0 0 0 0 0 0 0 0 0 2:-87 9:-91 15:-84 19:-84 23:-85 24:-84 29:-87 63:-93 76:-89 118:-87 119:-87 121:-87 167:-86 186:-94 221:-92 
0 0 0 0 0 0 0.000127590290046319 2.358790784233318e-06 0 8.020331123785503e-06 0 0 0 0 0 0 0 0 1.28811846066718e-05 0 0 0 0 1.48400702316698e-05 1.072236929503501e-05 0 0 0 0 0 0 0 0.003927356421909989 0 0 7.321234730999369e-05 0 0 0 0 6.007735416148888e-06 0 0 5.314462104968919e-06 0 0 0 0 0 0 0 0 0 0 0 0 0 0 0 4.923836456440796e-07 2:-86 16:-82 19:-77 24:-78 26:-85 27:-85 28:-85 29:-82 59:-89 65:-89 75:-90 76:-81 118:-80 119:-80 
0 0 0 0 0 0 0 0 0 0 0 0 0 0 0 0 0 0 0 0 0 0 0 0 0 0 0 0 1.778714137547837e-06 0 0 0 0 0 0 0 0 0 0 0 0 0 0 0 0 0 0 0 0 0 0 0 0 0 0 0 0 0 0 0 2:-86 8:-94 9:-92 11:-87 15:-83 19:-82 23:-86 24:-83 26:-87 27:-87 28:-87 59:-89 63:-94 65:-89 75:-89 76:-89 118:-88 119:-89 121:-85 167:-85 216:-93 
0 0 0 0 0 0 0 0 0 0 0 0 0 0 0 0 0 0 0 0 0 0 0 0 0 0 0 0 0 0 0 0 0 0 0 0 0 0 0 0 0 0 0 0 0 0 0 0 0 0 0 0 0 0 0 2.950190540043829e-06 0 0 0 0 2:-89 15:-88 23:-80 24:-88 26:-83 27:-82 29:-82 63:-90 67:-85 68:-85 69:-85 76:-88 118:-90 119:-89 187:-92 192:-93 201:-92 206:-93 
0 0 0 0 0 0 2.657265701291335e-06 0 0 0 0 0 0 0 0 0 0 0 0 0 0 0 0 0 0 0 0 0 1.149126737862351e-06 0 0 0 0 0 0 0 0 0 0 0 0 0 0 0 0 0 0 0 0 0 0 0 0 0 0 0 0 0 0 0 2:-88 8:-89 16:-85 19:-80 24:-80 26:-85 27:-84 28:-86 59:-89 65:-90 76:-83 118:-84 119:-84 121:-91 211:-91 216:-94 
5.598729819113351e-07 5.71700002838153e-07 8.844247480503094e-07 9.079040310844556e-07 5.603690268139559e-07 7.977923089354789e-07 0 1.297749132911366e-06 7.999698105463489e-07 1.412236784078725e-06 7.29535607148258e-07 5.756778048812581e-07 4.787691608272345e-07 2.644755584262843e-06 7.624543760110088e-07 5.571822760800154e-07 1.00163987067931e-06 0 0 6.162986683500303e-07 7.019390030302738e-07 9.614061014943903e-07 7.912640898612551e-07 0 0 6.505356136549832e-07 5.694057230286199e-07 3.57379429281229e-07 0 8.240098817857939e-07 5.465824909659792e-07 7.631834272068511e-07 0 7.36168250267445e-07 9.153989958387014e-07 1.70494097090661e-05 8.201706293088729e-07 8.214069300266856e-07 1.901564597685802e-07 5.463228016040655e-06 0 4.886365620413225e-07 9.801466822650009e-07 0 6.077173975809501e-07 8.964209508038602e-07 6.335417102601994e-06 9.395026296093558e-07 8.880567451527938e-07 8.472997564145157e-07 5.887866851210009e-07 6.881595231663772e-07 4.91234123496414e-07 8.481121328533471e-07 7.362493887642143e-07 0 0 6.768278882589216e-07 7.942428569341035e-07 0 2:-88 15:-79 19:-79 24:-79 59:-90 65:-91 76:-85 118:-85 119:-85 167:-92 211:-90 
0 0 0 0 0 0 0 0 0 0 0 0 0 0 0 0 0 0 0 0 0 0 0 0 0 0 0 0 2.526140886294867e-05 0 0 0 0.0001283299328167558 0 0 3.095225366485843e-05 0 0 0 0 0 0 0 0 0 0 0 0 0 0 0 0 0 0 0 0 0 0 0 1.080065229447644e-05 2:-89 8:-90 9:-90 19:-79 24:-79 29:-88 59:-90 63:-93 65:-89 76:-87 118:-87 119:-86 
0 0 0 0 0 0 0 0 0 0 0 0 0 0 0 0 0 0 6.188673352906962e-06 0 0 0 0 0 0 0 0 0 0 0 0 0 0 0 0 0 0 0 0 0 2.567695389287805e-06 0 0 0 0 0 0 0 0 0 0 0 0 0 0 0 0 0 0 0 2:-91 16:-82 19:-85 23:-84 24:-84 26:-86 27:-86 28:-86 29:-82 59:-87 65:-87 75:-87 118:-85 119:-85 216:-92 228:-92 
4.005481516715975e-06 4.151401036325165e-06 6.335329029997946e-06 6.493553299874341e-06 4.052097421933984e-06 5.846716861262797e-06 1.681420216136274e-05 3.30326874310691e-06 5.53519688582662e-06 3.080348422285919e-06 5.248294426520711e-06 4.083565967790665e-06 3.601922202808209e-06 7.687177668171585e-06 5.464863626538444e-06 4.022020626691292e-06 7.239087249120129e-06 0 0 4.54454758606114e-06 5.146984016413917e-06 6.949784359911821e-06 5.830336372842413e-06 9.571601035722069e-07 1.589432214756815e-06 4.692897866965919e-06 4.275278494838159e-06 2.498133837992857e-06 0 6.025047110552351e-06 3.964561255286544e-06 5.514465733213038e-06 0.0001355373524076971 5.28772955851102e-06 6.657658387259609e-06 7.286102305874845e-06 5.973310119688058e-06 5.97154372016365e-06 0 9.868430840901012e-06 5.460003110904212e-06 3.668639765996425e-06 7.101791948133914e-06 1.107633757034603e-06 4.460544939963561e-06 6.575087209464175e-06 3.10283692915827e-06 6.738973842373589e-06 6.392305427556478e-06 5.901045902361917e-06 4.279542675002344e-06 5.012630823415483e-06 3.646083670155085e-06 6.082654425288485e-06 5.328175560703731e-06 0 7.537650659331722e-06 4.840802047117072e-06 5.775292082405554e-06 4.994580595085561e-07 2:-85 15:-85 19:-86 24:-86 26:-82 27:-82 67:-86 68:-85 69:-85 76:-88 118:-87 119:-87 206:-93 
0 0 0 0 0 0 0 0 0 0 0 0 0 0 0 0 0 1.30448483763942e-05 0 0 0 0 0 0 0 0 0 0 0 0 0 0 0 0 0 0 0 0 3.792111021572476e-05 0 0 0 0 0 0 0 0 0 0 0 0 0 0 0 0 0 0 0 0 1.631540024497082e-06 2:-89 9:-87 15:-80 16:-85 19:-82 24:-82 26:-87 27:-87 29:-85 67:-83 68:-83 69:-83 76:-84 118:-88 119:-88 121:-90 185:-91 204:-89 
0 0 0 0 0 0 0 0 0 0 0 0 0 0 0 0 0 0 0 0 0 0 0 0 0 0 0 0 0 0 0 0 0 0 0 0 0 0 0 0 0 0 0 0 0 0 0 0 0 0 0 0 0 0 0 0 2.49451375154994e-06 0 0 0 2:-85 4:-86 7:-86 10:-85 15:-86 16:-80 19:-84 23:-81 24:-82 26:-85 27:-85 28:-87 29:-81 59:-86 65:-86 75:-85 118:-86 119:-86 
0 0 0 0 0 0 1.246820548851244e-05 0 0 0 0 0 0 0 0 0 0 0 0 0 0 0 0 0 0 0 0 0 5.588312997089602e-05 0 0 0 0.0001338001162656576 0 0 0 0 0 0 0 0 0 0 0 0 0 0 0 0 0 0 0 0 0 0 0 0 0 0 2.070373486407271e-06 2:-86 15:-80 16:-79 19:-79 23:-80 24:-82 26:-80 27:-85 28:-87 29:-81 59:-86 65:-86 73:-91 74:-91 76:-84 118:-87 119:-87 
0 0 0 0 0 0 0 0 0 0 0 0 0 0 0 0 0 0 0 0 0 0 0 0 0 0 0 0 0 0 0 0 0 0 0 0 0 0 5.663630663143609e-06 0 0 0 0 0 0 0 0 0 0 0 0 0 0 0 0 0 0 0 0 0 2:-89 8:-88 15:-82 16:-86 19:-81 23:-87 24:-82 29:-86 59:-90 65:-89 76:-89 118:-88 119:-88 167:-88 192:-92 221:-92 
0 0 0 0 0 0 0 0 0 0 0 0 0 0 0 0 0 0 2.484565757478974e-07 0 0 0 0 0 0 0 0 0 0 0 0 0 0 0 0 0 0 0 0 0 0 0 0 0 0 0 0 0 0 0 0 0 0 0 0 0 0 0 0 0 2:-88 16:-86 19:-82 23:-86 24:-81 27:-87 28:-88 67:-86 68:-87 76:-85 118:-89 119:-87 167:-90 204:-89 
0 0 0 0 0 0 1.140312520756139e-05 0 0 0 0 0 0 0 0 0 0 0 0 0 0 0 0 0 0 0 0 0 0 0 0 0 0 0 0 0 0 0 0 0 0 0 0 0 0 0 0 0 0 0 0 0 0 0 0 4.795099646814555e-06 0 0 0 0 2:-88 8:-91 15:-83 16:-84 19:-82 23:-86 24:-82 26:-85 27:-86 28:-86 63:-92 76:-91 118:-88 119:-89 167:-83 216:-91 
0 0 0 0 0 0 0 0 0 0 0 0 0 0 0 0 0 6.645799376026316e-05 0 0 0 0 0 0 1.159767799680761e-06 0 0 0 0 0 0 0 0 0 0 0 0 0 0 0 0 0 0 0 0 0 0 0 0 0 0 0 0 0 0 0 0 0 0 0 2:-88 8:-92 9:-92 15:-83 19:-83 24:-83 29:-88 59:-89 65:-89 75:-89 118:-88 119:-89 167:-86 216:-93 
0 0 0 0 0 0 0 0 0 0 0 0 0 0 0 0 0 0 0 0 0 0 0 0 0 0 0 0 0 0 0 0 0 0 0 1.108466470180203e-05 0 0 0 0 0 0 0 0 0 0 0 0 0 0 0 0 0 0 0 0 0 0 0 0 2:-83 15:-80 16:-87 19:-80 23:-87 24:-80 26:-87 27:-85 29:-81 59:-88 65:-88 68:-87 76:-82 118:-81 119:-82 
0 0 0 0 0 0 0 0 0 0 0 0 0 0 0 0 0 0.0004859900807952392 0 0 0 0 0 0 0 0 0 0 0 0 0 0 0 0 0 0 0 0 1.224602536933915e-05 0 0 0 0 0 0 0 0 0 0 0 0 0 0 0 0 0 0 0 0 0 2:-87 8:-86 15:-80 16:-87 19:-81 23:-87 24:-80 63:-93 75:-94 76:-86 118:-86 119:-86 192:-92 
0 0 0 0 0 0 0 0 0 0 0 0 0 0 0 0 0 0 1.163947627934701e-05 0 0 0 0 0 0 0 0 0 0 0 0 0 0 0 0 4.59077345679328e-06 0 0 0 2.802547336654325e-07 0 0 0 0 0 0 0 0 0 0 0 0 0 0 0 0 1.465416323020507e-07 0 0 1.620494751122916e-05 2:-87 12:-87 15:-83 16:-82 19:-83 23:-81 24:-84 26:-82 27:-82 29:-84 59:-90 63:-92 75:-93 93:-91 118:-87 119:-86 168:-93 
2.443929701328903e-06 2.534358191938876e-06 3.864247180687999e-06 3.971541886651069e-06 2.473970588059799e-06 3.568425500000748e-06 0 5.838325648993982e-06 3.375358710861758e-06 1.017128265214544e-05 3.207418329204757e-06 2.489143886278909e-06 2.18780577117653e-06 3.610746721333203e-06 3.326236425665648e-06 2.456133771511501e-06 4.421973966519445e-06 0 1.113584514296861e-05 2.781751275635423e-06 3.144847397714251e-06 4.234195826137889e-06 3.559794589575852e-06 1.352366340227279e-05 9.935748215305889e-06 2.863118698089279e-06 2.59818669298309e-06 1.524812315709238e-06 0 3.675993603980274e-06 2.423317224924156e-06 3.365365226148418e-06 0 3.227271944917861e-06 4.067063079514988e-06 0 3.63848086450888e-06 3.647919803663401e-06 0 0 2.917474324230325e-06 2.234652934742229e-06 4.329093740711968e-06 6.870226922010638e-06 2.712061003931939e-06 4.016701431371619e-06 5.372683430556929e-06 4.115600868779561e-06 3.900014353273591e-06 3.611746023005476e-06 2.602745255371088e-06 3.051187438236961e-06 2.220524518061985e-06 3.706308618987101e-06 3.260042036419871e-06 0 2.734966336728159e-06 2.960222121596427e-06 3.529399112211878e-06 0 2:-86 16:-86 26:-83 27:-83 59:-90 63:-92 65:-89 75:-91 76:-86 118:-89 119:-87 203:-92 211:-93 
0 0 0 0 0 0 0 0 0 0 0 0 0 0 0 0 0 0 0 0 0 0 0 0 0 0 0 0 0 0 0 0 0 0 0 0 0 0 0 0 0 0 0 0 0 0 0 0 0 0 0 0 0 0 0 0 0 0 0 6.878934756509934e-06 2:-89 15:-80 16:-85 19:-80 24:-80 26:-84 27:-85 29:-86 63:-93 67:-83 68:-83 69:-82 75:-94 76:-86 118:-86 119:-86 121:-92 221:-92 
0 0 0 0 0 0 0 0 0 0 0 0 0 0 0 0 0 0 0 0 0 0 0 0 0 0 0 0 0 0 0 0 0 0 0 0 0 0 0 0 0 0 0 0 0 0 0 0 0 0 0 0 0 0 0 4.23191971875776e-06 0 0 0 0 2:-86 8:-89 9:-89 15:-87 16:-85 19:-86 23:-86 24:-86 26:-83 27:-83 28:-80 59:-89 63:-91 65:-88 67:-85 68:-87 69:-85 76:-87 118:-85 119:-85 121:-87 167:-87 187:-93 192:-93 204:-86 211:-90 
3.411006429618664e-06 3.545375699776409e-06 5.400838231228587e-06 5.542374460009678e-06 3.450275682342639e-06 4.981723944517086e-06 1.571617439439593e-05 4.576999750690649e-06 4.724903271236381e-06 7.723579944009296e-06 4.472026452747011e-06 3.489863406407143e-06 3.058166918210607e-06 6.748087764646862e-06 4.657282826725266e-06 3.425076430885106e-06 6.173588226101725e-06 0 1.498304138733934e-05 3.879077675134994e-06 4.386448247744789e-06 5.919790067544601e-06 4.961793077356872e-06 1.065590737445305e-05 5.641172842198142e-06 3.992051059355588e-06 3.630668403868211e-06 2.135392872504661e-06 0 5.134734263348951e-06 3.376852416952775e-06 4.699819423417675e-06 0 4.510269148306631e-06 5.676227669554097e-06 0 5.085750078367394e-06 5.083435970847312e-06 1.437519082395293e-05 1.037100172009188e-05 1.049532861011903e-05 3.11848300879729e-06 6.054538297146194e-06 6.800443100693515e-06 3.796737342301058e-06 5.605888917498936e-06 6.281915782273708e-06 5.747337409768697e-06 5.4514152297849e-06 5.046618649255335e-06 3.639761008447136e-06 4.266065329127526e-06 3.105283336754562e-06 5.187536476413827e-06 4.54435371367844e-06 1.214047925109805e-05 1.038899345219454e-05 4.134055233509861e-06 4.912645035854866e-06 2.729192205728235e-06 2:-87 8:-92 15:-81 16:-88 19:-81 23:-90 24:-82 28:-85 63:-92 65:-90 121:-85 192:-93 201:-93 204:-90 
0 0 0 0 0 0 0 0 0 0 0 0 0 0 0 0 0 0 0 0 0 0 0 0 0 0 0 0 0 0 0 0 0 0 0 1.679402808957027e-06 0 0 0 0 0 0 0 0 0 0 0 0 0 0 0 0 0 0 0 0 0 0 0 0 2:-88 15:-79 19:-78 23:-84 24:-79 27:-88 29:-85 59:-90 63:-93 65:-91 75:-91 76:-88 118:-89 119:-88 186:-95 211:-91 
1.891283413448589e-06 1.969678351662311e-06 2.999118297683828e-06 3.069233982986797e-06 1.922792132786753e-06 2.787383873808476e-06 0 1.019572305217643e-06 2.608600207871284e-06 0 2.492588589179782e-06 1.940834250407347e-06 1.720505579342366e-06 2.65674982761197e-06 2.595158418032686e-06 1.906481339652557e-06 3.43181709413071e-06 0.0001550581618956404 0 2.157513257115817e-06 2.452280824165415e-06 3.308410667123537e-06 2.765901056689889e-06 0 0 2.220699534036844e-06 2.033223175198787e-06 1.187268014541457e-06 0 2.85979504108351e-06 1.883670804028361e-06 2.620087714567106e-06 0.0001750753175726379 2.511280600775888e-06 3.16141117738133e-06 0 2.832382577523619e-06 2.832917591324049e-06 1.713401604071363e-06 2.25269948142285e-06 0 1.750695036448135e-06 3.361277167136334e-06 2.077158827056722e-06 2.123410661819127e-06 3.122053133263395e-06 4.993383915795452e-06 3.19618641518765e-06 3.03103881188948e-06 2.784947100168493e-06 2.03405989311383e-06 2.388701931457169e-06 1.738597153597623e-06 2.898211775721702e-06 2.520716049536379e-06 0 0 2.288636237447698e-06 2.740390132939958e-06 0 2:-89 16:-88 19:-80 24:-80 59:-89 65:-88 75:-88 76:-82 118:-83 119:-83 187:-93 216:-89 
0 0 0 0 0 0 3.347158045018543e-06 0 0 0 0 0 0 0 0 0 0 0.0003235629076951122 0 0 0 0 0 0 0 0 0 0 0 0 0 0 0 0 0 0 0 0 3.573784724543952e-05 0 1.404010680071675e-06 0 0 0 0 0 0 0 0 0 0 0 0 0 0 0 3.269050908464376e-07 0 0 8.118751239443419e-06 2:-91 9:-90 15:-83 16:-89 19:-84 23:-85 24:-82 26:-88 28:-89 29:-86 76:-82 118:-82 119:-82 192:-92 
0 0 0 0 0 0 0 0 0 0 0 0 0 0 0 0 0 0 0 0 0 0 0 0 0 0 0 0 0 0 0 0 0 0 0 0 0 0 0 0 0 0 0 0 0 0 0 0 0 0 0 0 0 0 0 0 3.766785481664812e-07 0 0 0 2:-89 8:-88 16:-86 19:-81 23:-84 24:-82 29:-86 63:-93 76:-87 118:-87 119:-87 167:-88 221:-92 
0 0 0 0 0 0 0 0 0 1.364545428785897e-07 0 0 0 0 0 0 0 0.0004823793623383524 0 0 0 0 0 0 1.057072708291312e-06 0 0 0 0 0 0 0 0.0005091300061276319 0 0 0 0 0 0 0 0 0 0 0 0 0 0 0 0 0 0 0 0 0 0 0 0 0 0 0 2:-88 15:-78 19:-78 23:-84 24:-79 26:-86 59:-91 65:-90 75:-90 76:-90 118:-87 119:-87 167:-91 
0 0 0 0 0 0 0 0 0 0 0 0 0 0 0 0 0 0 0 0 0 0 0 0 0 0 0 0 0 0 0 0 0 0 0 0 0 0 1.164505264429119e-05 0 0 0 0 0 0 0 0 0 0 0 0 0 0 0 0 0 0 0 0 0 2:-89 9:-88 15:-81 16:-79 19:-81 23:-84 24:-82 29:-85 63:-93 118:-89 119:-89 167:-89 192:-93 201:-91 211:-91 
0 0 0 0 0 0 0 0 0 0 0 0 0 0 0 0 0 0 0 0 0 0 0 0 0 0 0 0 0 0 0 0 0 0 0 0 0 0 0 0 0 0 0 0 0 0 0 0 0 0 0 0 0 0 0 1.708753691092956e-06 0 0 0 0 2:-90 9:-90 15:-84 19:-84 23:-84 24:-83 26:-85 27:-85 28:-86 29:-83 59:-89 63:-92 65:-88 67:-86 68:-87 69:-86 76:-91 118:-86 119:-86 121:-90 167:-90 
0 0 0 0 0 0 0 0 0 0 0 0 0 0 0 0 0 0 0 0 0 0 0 0 0 0 0 0 0 0 0 0 0 0 0 0 0 0 0 0 0 0 0 0 0 0 0 0 0 0 0 0 0 0 0 2.484798310843831e-05 0 0 0 0 2:-86 9:-88 15:-83 16:-85 19:-82 24:-82 26:-88 27:-88 68:-88 76:-87 118:-85 119:-85 121:-91 167:-92 211:-91 216:-93 
-0 0 0 0 0 0 0 0 0 0 0 0 0 0 0 6.396202029332823e-06 0 0 0 0 0 0 0 0 0 0 0 0 0 0 0 0 0 0 0 0 0 0 0 0 0 0 0 0 0 0 0 0 0 0 0 0 6.280663122556806e-06 0 0 0 0 0 0 0 85:-79 106:-58 110:-51 111:-53 112:-72 113:-71 122:-53 123:-57 125:-72 130:-69 132:-69 134:-71 138:-78 139:-77 159:-77 
-0 0 0 0 0 0 0 0 0 0 0 0 0 0 0 0 0 0 0 0 0 0 0 0 0 0 0 0 0 0 0 0 0 2.225619066240719e-06 0 0 0 0 0 0 0 0 0 0 0 0 0 0 0 0 0 0 0 0 0 0 0 0 0 0 64:-75 85:-80 106:-58 110:-49 111:-52 112:-74 113:-72 122:-52 123:-58 124:-58 125:-73 130:-71 132:-71 134:-72 139:-75 159:-76 
-0 0 0 0 0 0 0 0 0 0 0 0 0 0 0 0 0 0 0 0 0 0 0 0 0 0 0 0 0 0 0 0 0 0 0 0 0 0 0 0 0 0 0 0 0 0 0 0 0 0 0 0 0 7.051302332797042e-07 2.949442537599682e-06 0 0 0 0 0 43:-86 85:-78 106:-57 110:-51 111:-53 112:-72 113:-73 122:-53 123:-57 125:-71 130:-72 132:-72 134:-71 138:-75 139:-76 148:-81 150:-80 159:-76 
-0 0 0 0 0 0 0 0 0 0 0 0.0004352658858051864 0 0 0 0 0 0 0 0 0 0 0 0 0 0 0 0 0 0 0 0 0 0 0 0 0 0 0 0 0 0 0 0 0 0 0 0 0 0 0 0 0 0 0 0 0 0 0 0 85:-79 106:-58 110:-51 111:-53 112:-73 113:-72 122:-53 123:-57 124:-57 125:-71 130:-71 132:-70 139:-76 148:-80 150:-79 157:-79 159:-75 
-3.215476579085902e-06 8.485754207435452e-06 5.205830875962841e-06 5.260634216761228e-06 0 4.717775230177707e-06 2.024353976750819e-06 2.42505624106895e-06 4.46073050860668e-06 5.598593583508132e-06 0 0 9.610695171525751e-06 5.186141772358442e-06 4.400295153115975e-06 0 6.147993929797197e-06 4.132657042111281e-06 4.372578533111778e-06 3.748705890944321e-06 0 5.646136133909319e-06 0 4.430037398997012e-06 4.212062949353307e-06 3.694748981662639e-06 3.403408183127143e-06 1.983746220888007e-06 1.973016648346519e-06 4.54227538307079e-07 3.803399964618069e-06 0 1.855569375587014e-06 1.977646994444856e-05 4.259678577947588e-06 2.996742491955829e-06 4.807054230505519e-06 9.475100037608322e-07 3.372559260742637e-06 4.733996925927513e-06 4.606337142871531e-06 1.681358339666463e-06 5.744581306521836e-06 3.794604330251165e-06 0 5.318953606901026e-06 4.921633514585106e-06 1.095952387018275e-05 5.158227569755855e-06 4.706488310076462e-06 0 0 0 4.330785147910968e-06 0 2.945723868478729e-06 5.559548431149638e-06 3.892225486178395e-06 0 0 85:-79 106:-57 110:-52 111:-54 112:-72 113:-72 122:-54 123:-57 125:-72 130:-68 132:-69 134:-69 139:-76 159:-75 
-0 0 0 0 0 0 0 0 0 0 0 0 9.551449325416328e-06 0 0 0 0 0 0 0 0 0 0 0 0 0 0 0 0 0 0 0 0 0 0 0 0 0 0 0 0 0 0 0 0 0 0 0 0 0 0 0 0 0 0 0 0 0 0 0 85:-79 101:-87 106:-57 110:-52 111:-53 112:-72 113:-72 122:-54 123:-56 124:-56 125:-71 130:-69 132:-69 134:-69 139:-76 159:-76 
-0 0 0 0 0 0 0 0 0 0 0 0 0 0 0 0 0 0 0 0 0 0 0 0 0 0 0 0 0 0 0 0 0 0 0 0 0 0 0 0 0 0 0 0 0 0 0 0 0 0 0 0 0 0 1.27544718925867e-05 0 0 0 0 0 85:-79 106:-57 111:-54 113:-71 122:-54 123:-57 124:-57 125:-71 130:-69 132:-69 134:-69 139:-75 148:-79 159:-76 
-0 0 0 0 0 0 0 0 0 0 0 0 0 0 0 2.457319982287031e-06 0 0 0 0 0 0 0 0 0 0 0 0 0 0 0 0 0 0 0 0 0 0 0 0 0 0 0 0 0 0 0 0 0 0 0 0 0 0 0 0 0 0 0 0 85:-78 106:-59 110:-49 111:-51 112:-74 113:-73 122:-52 123:-58 125:-74 130:-73 132:-73 138:-76 139:-76 148:-77 150:-79 157:-79 159:-76 
-0 0 0 0 0 0 0 0 0 0 0 0 0 0 0 0 0 0 0 0 0 0 0 0 0 0 0 0 0 0 0 0 0 0 0 0 0 0 0 0 0 0 0 0 0 0 0 0 0 0 0 0 0.0001316937956971235 0 0 0 0 0 0 0 85:-79 101:-87 106:-58 110:-52 111:-54 112:-72 113:-72 122:-54 123:-58 124:-58 125:-71 130:-68 132:-69 134:-69 139:-77 159:-76 
-1.811581622613852e-06 8.282917474454552e-07 2.852724840631605e-06 2.963470601834448e-06 0 2.657206505611851e-06 1.392202371460201e-06 1.538799122538569e-06 2.517755206698351e-06 3.128678201204122e-06 0 0 0 2.934247774046664e-06 2.500264939317602e-06 0 3.28033246034832e-06 2.318343090900394e-06 2.46493061688114e-06 2.061081039645528e-06 0 3.18485537016968e-06 0 2.581835735116386e-06 2.362022456311498e-06 2.164897310540413e-06 1.950355132399598e-06 1.125305683676384e-06 1.213198384800358e-06 1.247824940335416e-06 1.814756219171435e-06 2.789323257399227e-06 1.264212017844916e-06 0 2.575271808900937e-06 1.685670489782678e-06 2.696778960385721e-06 1.305116247354293e-06 1.98888145954638e-06 2.732913302127749e-06 2.629950973579987e-06 9.504880904511678e-07 3.254100737851814e-06 2.193039738602824e-06 3.996295131714422e-06 2.995299970631097e-06 2.762231042092725e-06 5.126313843327338e-06 2.932936396270411e-06 2.678463082355586e-06 4.985554820596307e-06 0 0 2.910188559881557e-06 0 1.680324115091386e-06 3.125718138852369e-06 2.192667913910267e-06 0 0 85:-77 106:-58 111:-51 112:-73 113:-74 122:-52 123:-57 124:-58 125:-74 130:-69 132:-69 139:-76 157:-79 159:-76 
-6.974076625776841e-06 7.841905315794314e-06 1.131044727014005e-05 1.149726693384485e-05 1.425762328254021e-05 1.034190339503413e-05 8.952569250081444e-06 8.024810664805031e-06 9.781827927630376e-06 1.220333206845798e-05 2.042189577135288e-05 0.001590864225380737 3.545809341793624e-06 1.14054911933833e-05 9.649949468622496e-06 2.757588369443496e-05 1.33409587303975e-05 9.031707847212452e-06 9.595184771719337e-06 8.017120619768754e-06 1.954475339266896e-05 1.231932393327754e-05 9.605446796321265e-06 9.898813505275907e-06 9.194953161383067e-06 8.263018040238459e-06 7.501245642866427e-06 4.389812081866028e-06 6.125385833151969e-06 1.175932784897405e-05 7.787252129759604e-06 3.215780895211098e-06 8.416915584256378e-06 1.826307982148424e-05 1.188470797530013e-05 6.560874444916209e-06 1.054834817003074e-05 1.108140187727877e-05 7.531237951497432e-06 1.045705942400525e-05 1.009848844676304e-05 7.211188106711883e-06 1.257040828087677e-05 8.380880966245621e-06 1.04677182607336e-05 1.164207652867069e-05 1.078720047556927e-05 1.271419893936625e-05 1.131523889855171e-05 1.044599277838112e-05 1.268089178226958e-05 1.255582985677663e-05 8.793660863590931e-06 1.059561429483349e-05 2.090904610755301e-05 6.478822471949314e-06 1.215481726387108e-05 8.537637097260225e-06 1.363648097562429e-05 7.663984940246253e-06 85:-81 106:-61 111:-48 122:-65 123:-61 124:-72 130:-74 132:-74 134:-74 148:-74 150:-74 156:-79 157:-73 158:-79 312:-79 
-4.245836829910432e-06 2.626012688156188e-06 6.888675154115837e-06 6.999747204252339e-06 1.928317055261749e-05 6.292409491679768e-06 4.402660913586503e-06 4.941606091759022e-06 5.969657098372198e-06 7.383299056895735e-06 2.436996353957002e-05 0 0 6.963639782970049e-06 5.858107147139487e-06 0 8.182893058040861e-06 5.48960466438554e-06 5.854396443811595e-06 4.810441209344634e-06 0 7.462315562091493e-06 0 6.088984546115557e-06 5.57046726044371e-06 5.076241431529044e-06 4.566938577630089e-06 2.691418479372477e-06 3.757311787257466e-06 0 4.615759718356535e-06 0 0 4.683292497603254e-05 7.294331177458629e-06 3.979128906976745e-06 6.431743804760533e-06 0 4.662887365339002e-06 6.350640246379993e-06 6.131535717302385e-06 0 7.633448468997654e-06 5.100428606449362e-06 1.06353615295674e-05 7.094490119257837e-06 6.531766196563981e-06 3.022686925330188e-06 6.870341646149764e-06 6.430747392735151e-06 9.29399412700949e-06 0 2.019050932699251e-05 6.644345021594621e-06 1.047960403272042e-07 3.965225050775556e-06 7.390583332229935e-06 5.206412582840224e-06 2.498816568332728e-05 0 85:-79 106:-57 110:-52 111:-54 113:-71 122:-54 123:-57 124:-57 125:-72 130:-68 132:-68 134:-68 139:-76 159:-75 
-0 0 0 0 0 0 0 0 0 0 4.022643722563701e-07 0 0 0 0 0.0001149543706799823 0 0 0 0 0 0 4.463263191075995e-05 0 0 0 0 0 0 0 0 0 0 5.327861622528456e-06 0 0 0 0 0 0 0 0 0 0 0 0 0 0 0 0 4.491928654198651e-05 0 0 0 0 0 0 0 0 0 85:-79 101:-87 106:-57 110:-52 111:-54 112:-72 113:-72 122:-54 123:-57 124:-57 125:-72 130:-68 132:-69 134:-69 139:-75 159:-75 
-0 0 0 0 0 0 0 0 0 0 0 0 0 0 0 0 0 0 0 0 0 0 0 0 0 0 0 0 0 0 0 0 0 0 0 0 0 0 0 0 0 0 0 0 0 0 0 0 0 0 0 1.756241832128996e-05 0 0 0 0 0 0 0 0 85:-79 106:-57 110:-52 111:-54 113:-71 122:-54 123:-57 124:-57 125:-72 130:-68 132:-69 134:-69 139:-76 159:-75 
-0 1.71152078581774e-07 0 0 4.948167314815151e-06 0 0 0 0 0 0 0 0 0 0 0 0 0 0 0 0 0 0 0 0 0 0 0 0 0 0 0 0 0 0 0 0 0 0 0 0 0 0 0 2.132798686269872e-06 0 0 0 0 0 0 0 0 0 0 0 0 0 0 0 85:-78 106:-57 110:-51 111:-54 112:-71 113:-72 122:-54 123:-57 124:-57 125:-71 130:-70 132:-70 139:-76 148:-79 159:-74 
-0 0 0 0 0 0 0 0 0 0 0 0 2.93579660516916e-07 0 0 0 0 0 0 0 1.610083937386986e-05 0 3.066307576525136e-06 0 0 0 0 0 0 0 0 7.788133614181812e-06 0 3.189029968982809e-06 0 0 0 0 0 0 0 0 0 0 0 0 0 0 0 0 0 0 0 0 0 0 0 0 0 0 85:-77 106:-51 110:-52 111:-48 112:-76 113:-75 122:-49 123:-52 124:-59 125:-74 130:-68 132:-68 134:-69 138:-81 139:-78 148:-80 150:-81 
-0 0 0 0 0 0 0 0 0 0 0 0 0 0 0 0 0 0 0 0 0 0 0 0 0 0 0 0 0 0 0 0 0 0 0 0 0 0 0 0 0 0 0 0 0 0 0 0 0 0 0 7.737386722294825e-06 0 0 1.69603469626579e-05 0 0 0 0 0 43:-86 85:-78 106:-57 110:-50 111:-53 112:-72 113:-71 122:-53 123:-57 124:-57 125:-70 130:-72 132:-72 134:-71 139:-75 148:-80 157:-79 159:-76 
-0 0 0 0 0 0 0 0 0 0 0 0 0 0 0 0 0 0 0 0 0 0 3.175046658396305e-06 0 0 0 0 0 0 0 0 6.091327063715003e-06 0 0 0 0 0 0 0 0 0 0 0 0 0 0 0 0 0 0 0 0 0 0 0 0 0 0 0 0 64:-81 85:-78 106:-58 110:-49 111:-52 112:-73 113:-74 122:-52 123:-57 124:-58 125:-73 130:-72 132:-71 134:-71 139:-77 159:-76 
-0 0 0 0 0 0 0 0 0 0 0 0 0 0 0 0 0 0 0 0 0 0 0 0 0 0 0 0 0 0 0 0 0 0 0 0 0 0 0 0 0 0 0 0 0 0 0 0 0 0 4.227186914840057e-06 0 0 0 0 0 0 0 0 0 85:-79 106:-57 110:-52 111:-54 113:-73 122:-54 123:-57 124:-57 125:-71 130:-68 132:-68 134:-68 139:-76 159:-75 
-3.593309208141267e-06 0 5.813629167590574e-06 5.946360791187835e-06 3.130093017627251e-06 5.358237871912748e-06 7.107440142428311e-06 5.626137140584908e-06 5.068371369905344e-06 6.348996329515495e-06 0 0 0 5.907266186975543e-06 5.002936083822347e-06 1.526273368222909e-05 6.811578359983204e-06 4.678827628840989e-06 4.971987796212147e-06 4.124818628609315e-06 0 6.355998416742863e-06 0 5.147063024290173e-06 4.758711096252935e-06 4.303281175805922e-06 3.899853985291781e-06 2.285093188566761e-06 4.159332856618685e-06 1.041233340632896e-05 3.897684249307974e-06 0 6.746478340432406e-06 0 7.521198802920883e-06 3.398686617111158e-06 5.482693355500706e-06 9.614671832961059e-06 3.89131166042138e-06 5.433996957336955e-06 5.220808316198159e-06 5.620591698588248e-06 6.515576511572835e-06 4.350376613292829e-06 0 6.030008272255416e-06 5.596435840438454e-06 0 5.860677145998467e-06 5.434778887988644e-06 0 0 4.44812908902278e-06 5.34571458295631e-06 0 3.351612050924763e-06 6.294037160201312e-06 4.419397865136367e-06 1.060429119025235e-06 7.537042679188378e-06 64:-75 85:-77 106:-59 110:-49 111:-52 112:-73 113:-72 122:-52 123:-58 125:-73 130:-71 132:-71 138:-77 139:-77 159:-76 169:-82 
-0 0 0 0 0 0 0 0 0 0 1.418745673572299e-05 0 0 0 0 0 0 0 0 0 0 0 0 0 0 0 0 0 0 0 0 0 0 0 0 0 0 0 0 0 0 0 0 0 0 0 0 0 0 0 0 0 0 0 0 0 0 0 0 0 85:-79 106:-58 110:-49 111:-52 112:-73 113:-71 122:-52 123:-57 124:-58 125:-73 130:-69 132:-69 134:-69 138:-77 139:-76 159:-76 
-0 0 0 0 0 0 0 0 0 0 0 0 0 0 0 0 0 0 0 0 0 0 0 0 0 0 0 0 0 0 0 0 0 0 0 0 0 0 0 0 0 0 0 0 0 0 0 0 0 0 0 0 1.473772917475648e-06 0 0 0 0 0 0 0 85:-79 106:-57 110:-51 111:-53 112:-71 113:-72 122:-53 123:-57 124:-57 125:-71 130:-71 132:-71 134:-71 138:-75 139:-75 159:-76 
-0 0 0 0 0 0 0 0 0 0 0 0 0 0 0 1.07998594322112e-05 0 0 0 0 0 0 0 0 0 0 0 0 0 0 0 0 0 0 0 0 0 0 0 0 0 0 0 0 0 0 0 0 0 0 0 0 0 0 0 0 0 0 0 0 85:-79 106:-58 110:-51 111:-54 112:-71 113:-72 122:-54 123:-57 125:-71 130:-70 132:-71 134:-70 138:-77 139:-75 148:-80 159:-75 
-0 0 0 0 0 0 0 0 0 0 0 0 0 0 0 0 0 0 0 0 9.000231452546074e-05 0 2.149971806053425e-05 0 0 0 0 0 0 0 0 7.425652065790437e-05 0 0 0 0 0 0 0 0 0 0 0 0 0 0 0 0 0 0 0 2.652962550633183e-05 0 0 1.018658196650021e-05 0 0 0 1.051846611080144e-05 0 85:-78 106:-57 111:-53 112:-71 113:-72 122:-53 123:-57 124:-57 125:-71 130:-71 132:-71 134:-71 139:-75 159:-76 
-0 0 0 0 0 0 1.147704400936656e-06 0 0 0 0 0 0 0 0 0 0 0 0 0 0 0 0 0 0 0 0 0 0 8.734779738411616e-06 0 0 5.197800814264884e-06 0 0 0 0 8.280843043306714e-06 0 0 0 4.569954526304021e-06 0 0 0 0 0 0 0 0 0 2.655139552746283e-06 0 0 6.809801773130204e-07 0 0 0 0 7.539884879177929e-06 64:-78 85:-81 106:-58 110:-49 111:-52 113:-74 122:-52 123:-57 124:-58 125:-73 130:-69 132:-70 134:-71 139:-77 159:-76 
-0 4.475547461742106e-06 0 0 0 0 0 0 0 0 5.25750680655894e-06 0 0 0 0 0 0 0 0 0 0 0 0 0 0 0 0 0 0 0 0 0 0 0 0 0 0 0 0 0 0 0 0 0 4.605803224240655e-06 0 0 7.737622714350537e-06 0 0 0 0 0 0 0 0 0 0 0 0 64:-73 85:-79 106:-59 110:-49 111:-52 112:-73 113:-72 122:-52 123:-58 125:-73 130:-71 132:-71 138:-77 139:-77 159:-76 169:-82 
-0 0 0 0 0 0 0 0 0 0 0 0.0006354254076515787 3.928477571661891e-06 0 0 2.147137838059349e-05 0 0 0 0 2.349210536215367e-05 0 2.073012728651219e-05 0 0 0 0 0 0 0 0 3.25575923968795e-05 0 2.043384244968468e-05 0 0 0 0 0 0 0 0 0 0 1.209140504378872e-07 0 0 0 0 0 1.461868422628092e-05 1.191344562055885e-05 0 0 1.735186552639905e-06 0 0 0 3.709802534261286e-06 0 85:-77 106:-57 110:-52 111:-47 112:-76 113:-75 122:-51 123:-58 124:-62 125:-76 130:-66 132:-68 134:-66 138:-81 156:-79 158:-79 312:-79 
-0 0 0 0 0 0 0 0 0 0 0 0 0 0 0 6.314188412773377e-06 0 0 0 0 0 0 0 0 0 0 0 0 0 0 0 0 0 0 0 0 0 0 0 0 0 0 0 0 0 0 0 0 0 0 0 0 0 0 0 0 0 0 0 0 85:-81 106:-58 110:-51 111:-54 112:-72 113:-72 122:-54 123:-58 124:-57 125:-71 130:-67 132:-67 134:-67 138:-77 139:-77 157:-79 159:-75 
-0 -0 0 0 0 0 0 0 0 0 1.862186838224705e-05 0 0 0 0 0 0 0 0 0 0 0 0 0 0 0 0 0 0 0 0 0 0 0 0 0 0 0 0 0 0 0 0 0 0 0 0 0 0 0 0 0 0 0 0 0 0 0 0 0 77:-57 78:-55 79:-73 80:-69 84:-58 85:-69 86:-74 87:-70 88:-77 92:-78 95:-70 97:-78 98:-87 99:-88 100:-78 
-0 -0 0 0 0 3.774635953477875e-06 0 0 0 0 0 0 0 0 0 0 4.145587770967561e-06 0 0 3.557400252263196e-06 0 0 0 0 0 3.568459251302753e-06 0 1.80830378903094e-06 0 0 0 0 0 0 0 0 0 0 0 0 0 0 0 0 0 0 0 0 2.778068810199993e-06 0 0 0 0 0 0 0 0 0 0 0 77:-61 78:-56 79:-71 80:-67 81:-82 82:-81 83:-85 84:-60 85:-73 86:-72 87:-68 88:-78 89:-80 90:-85 91:-86 92:-82 
-0 -0 0 0 0 0 0 0 0 0 0 0 0 0 0 0 0 0 0 0 0 0 0 0 0 0 0 0 0 0 2.687706206924844e-06 0 0 0 0 0 0 0 0 0 0 0 0 0 0 0 0 0 0 0 0 0 0 0 0 0 0 0 0 0 77:-62 78:-61 79:-75 80:-72 84:-66 85:-65 86:-77 87:-74 92:-79 95:-73 96:-78 98:-86 99:-85 101:-76 103:-86 104:-84 109:-85 
-0 -0 0 0 0 0 0 0 0 0 0 0 0 0 0 0 0 0 0 0 0 0 0 0 0 0 0 0 0 0 3.452989746670365e-06 0 0 0 0 0 0 0 0 0 0 1.002795922501007e-05 0 0 4.261619641270146e-05 0 0 0 0 0 0 0 0 0 0 0 0 0 0 0 77:-61 78:-62 79:-70 80:-71 84:-65 85:-72 86:-73 87:-72 92:-81 95:-71 99:-85 100:-79 103:-88 104:-88 
-8.439753727956601e-07 -0 0 1.434527305128553e-06 0 1.613335026042158e-06 1.063554680234491e-06 9.741049923617498e-07 1.186625830144916e-06 1.517992040182271e-06 0 0 0 1.415487404168339e-06 1.201552426348749e-06 0 0 1.101823445760606e-06 1.172089140981193e-06 1.283277392302418e-06 0 1.551548930049039e-06 0 1.229155861307813e-06 1.097000029498873e-06 1.313484737255236e-06 8.912250722248597e-07 6.529271599807898e-07 7.287011602661446e-07 1.324752514647728e-06 0 0 1.00115483989222e-06 0 1.472505880059508e-06 7.923861924449975e-07 1.324455955297438e-06 1.319642461622719e-06 9.010016758250251e-07 1.272782565221877e-06 1.242274047892838e-06 0 1.574289500180288e-06 1.01737284504636e-06 0 1.462477081884992e-06 1.332295170617369e-06 0 1.661276344561129e-06 1.280475645308266e-06 0 0 0 1.344137820650031e-06 0 7.786264148700002e-07 1.512410526646002e-06 1.056400918795758e-06 0 9.22375762757476e-07 77:-56 78:-58 79:-73 80:-68 84:-61 85:-71 86:-72 87:-68 88:-76 92:-77 95:-67 96:-82 97:-76 100:-78 
-0 -0 0 0 0 0 0 0 0 0 9.92410549164521e-06 0 0 0 0 0 0 0 0 0 0 0 0 0 0 0 0 0 0 0 0 0 0 0 0 0 0 0 0 0 0 0 0 0 0.0006470707736130334 0 0 0 0 0 0 0 0 0 0 0 0 0 0 0 77:-63 78:-61 79:-74 80:-71 84:-62 85:-71 86:-77 87:-71 88:-76 92:-80 95:-70 97:-75 99:-84 100:-77 101:-80 104:-85 
-0 -9.045298091027463e-07 0 0 8.668145837851861e-06 0 0 0 0 0 0 2.008815003296408e-06 0 0 0 0 0 0 0 0 0 0 0 0 0 0 0 0 0 0 0 0 0 5.707089559033722e-07 0 0 0 0 0 0 0 0 0 0 0.0003350624651945002 0 0 0 0 0 0 0 0 0 0 0 0 0 0 0 77:-56 78:-54 79:-76 80:-71 81:-76 82:-76 84:-62 85:-72 86:-76 87:-69 89:-77 92:-77 94:-77 95:-71 100:-81 111:-82 122:-84 
-0 -1.46675784490807e-06 1.395427807453858e-06 0 0 0 0 0 0 0 6.578871201100517e-05 1.492145454825102e-06 0 0 0 0 2.262290752262186e-06 0 0 0 2.244464163249836e-07 0 0 0 0 0 0 0 0 0 0 3.733564428212883e-06 0 0 0 0 0 0 0 0 0 0 0 0 0 0 0 4.677229286616308e-06 0 0 0 1.907054164038449e-06 0 0 2.212703952470859e-06 0 0 0 1.398641474104666e-06 0 77:-58 78:-58 79:-71 80:-68 84:-61 85:-77 86:-71 87:-68 88:-76 92:-73 95:-67 96:-82 97:-76 100:-78 
