svm_type c_svc
kernel_type linear
nr_class 47
total_sv 1767
rho 0.589573 -0.0371715 -0.0563843 -0.252596 0.605662 0.0363926 0.46083 -0.00294751 0.406657 -0.133153 0.231941 0.196594 -0.18265 0.0133182 -0.257448 0.582856 0.00464172 -0.216155 -0.123011 0.0316859 -0.243907 -30.7643 -0.0427041 0.248361 0.373001 0.289971 -0.012466 0.400785 0.242398 -0.000448783 0.422932 0.612612 4.43383 -0.460652 0.0779744 0.124242 -0.191963 0.150716 0.386489 0.482087 0.173386 0.490074 0.00697274 -0.451159 0.437541 -0.482221 -0.635525 -0.606954 -0.755189 35.0363 -0.597044 -0.284037 -0.647841 2.86593 -0.65174 -0.124007 -0.438628 -0.723232 -0.656244 -0.664653 0.0649004 -0.573485 -0.706942 -0.654934 -0.577181 -0.751234 -0.43405 -0.622982 -0.754073 16.3837 -0.996775 -0.619007 -0.370418 -0.424226 -0.659665 13.0865 0.0815339 -0.637545 -0.71377 -0.532225 -0.47594 -0.709358 -0.437 -0.195094 -0.137969 -0.431786 0.226953 -0.570807 -0.705768 0.169757 -0.864081 -0.0741326 -1.44988 0.568689 0.35348 0.38235 -0.0570083 0.43745 -0.0635821 0.26205 0.225288 0.223345 -0.0717501 -0.0918547 0.650838 0.63861 -0.165163 0.673909 -0.0130073 0.260574 0.244362 0.340255 0.248937 0.416281 0.377 -0.0134328 0.314303 0.255584 -0.111077 0.438823 0.661985 -0.0397723 -0.177704 0.0349486 0.194265 0.241159 0.180998 0.482131 0.504214 0.779842 0.527889 -0.0523604 -0.194665 0.467064 -0.404346 -0.191806 0.64025 0.179949 0.431033 -0.0378175 0.452643 -0.0443911 0.282245 -10.2009 -0.0981111 -0.0526168 -0.0676221 0.651824 0.131762 -0.146348 -0.160922 -3.76635 -0.0562984 0.262351 -0.0202737 0.278115 0.43183 0.360538 0.00993942 0.331658 0.273502 -0.0587827 0.440911 0.690446 -0.0209778 -0.159062 -56.7889 0.204752 -0.129124 0.199481 0.496943 0.533521 0.238606 0.541591 2.59173 -0.14215 0.48228 -0.441046 0.74249 0.593503 0.567616 0.162438 0.597893 0.156038 0.455661 0.430219 0.416164 0.147924 0.133064 0.76274 0.504234 0.054181 0.507303 0.358558 -86.2592 0.438386 0.443915 0.453557 0.581128 0.531607 0.208625 0.498964 0.448199 0.142501 0.610932 0.768671 0.179198 0.0411338 0.22029 0.394929 0.278135 0.383149 0.633163 0.660488 1.09765 0.668663 0.195804 0.0588455 0.621078 -0.23762 -0.560368 -0.301915 -0.662113 -6.02572 -0.665754 -0.00663156 -0.464182 -0.709641 -0.670229 -0.678766 0.224618 -0.602868 -0.719087 -0.678137 -0.585152 -0.707327 -0.454532 -0.632108 -13.769 0.948392 -28.304 -0.634047 -0.390692 -0.444585 -0.670931 -62.836 0.1363 -0.652191 -0.72523 -0.554079 -0.289074 -0.714761 -0.416367 0.117236 0.0764334 -0.482884 1.00126 -0.598629 -0.707117 1.03114 -0.842117 0.333991 -0.12993 0.375876 -0.136437 0.194872 0.0747189 -0.802016 -0.144566 -0.160709 0.609688 0.100493 -0.235675 -2.1292 0.101059 3.35298 0.174007 0.127159 0.187785 0.353542 0.295885 -0.0826313 0.246718 0.185599 -0.167714 0.375761 0.618587 -0.11306 -0.247973 -0.144769 0.122364 -0.154858 0.109016 0.423875 0.439869 0.849928 0.472766 -0.179284 -0.245884 0.407532 -0.624144 -0.487323 0.0465093 -0.401164 -0.343357 -0.183764 -0.515216 -1.94508 -0.539722 -0.56133 -0.363059 -1.63389 -0.468835 -0.339525 -0.552345 -0.249027 -0.403663 -0.171059 -0.010431 -0.0712703 12.2896 -8.4156 -0.789092 -0.339166 0.0540501 0.752206 -0.78008 -0.898095 -0.311258 -0.260212 -0.52259 -1.02549 0.0993332 0.296417 -0.20694 0.0610016 -0.361497 -0.592166 0.083723 -0.721744 0.482262 -0.579095 -0.120234 0.285407 -0.090041 -0.472068 0.0229453 0.651963 0.0987254 -0.253098 -0.0291225 0.125402 -0.153209 0.137881 0.0515386 0.287289 0.452136 0.373659 -0.165972 0.549072 0.52078 5.76739 0.471296 0.666679 0.0472171 -0.263545 0.170923 0.227766 -0.0999697 0.18032 0.468367 0.551698 0.263325 0.449224 0.101084 -0.0852956 0.510719 -0.40662 -0.48749 -0.999332 -0.228286 -0.548236 -0.718871 -0.504744 0.170904 -0.402501 -0.561826 -0.504145 -0.380084 -0.591783 -0.215937 -0.441718 -0.906749 23.2789 0.507542 -0.444511 -0.308492 -0.204362 -0.498286 3.00909 0.316118 -0.46873 -0.571123 -0.339235 -0.276775 -0.555469 -0.752713 -0.215307 0.106294 -0.250759 -98.1469 -0.400959 -0.560277 61.79 -0.743179 0.243974 0.29144 -0.0836374 0.00244896 0.136275 0.6854 0.105239 0.0231435 -0.02264 0.131792 -0.146892 -9.09263 0.0580524 0.361546 0.465097 0.379468 0.138646 0.318068 -36.6391 0.191597 0.502164 0.696153 0.237203 -0.205233 0.177185 0.266091 -0.0933485 0.253312 0.524048 0.563667 0.269326 0.594144 0.107399 -0.0706437 0.5154 -0.401159 -0.034376 -0.395186 -0.635038 -0.373159 0.481806 -0.224982 -0.280501 -0.342922 -0.199365 -0.447217 0.0190894 -0.269608 -0.394452 1.0234 0.266045 -0.0535239 -0.0900833 0.00396603 -0.113529 0.0458261 0.443953 -0.332225 -0.445599 -0.154115 -0.203409 -0.403523 10.6328 -0.129474 0.271261 -0.0583595 -36.7295 -0.222831 -0.440149 1.04413 -0.640735 -0.371541 -0.299004 -0.312662 0.495242 -0.349249 -0.382505 -0.390476 44.9722 -0.413203 0.0130887 -0.253667 0.0299595 0.20364 0.0989432 -0.240782 0.089012 0.0250643 -0.304552 0.247099 0.507727 -0.269294 -0.393556 18.3017 -0.0397475 -0.395739 -0.0533953 0.281695 0.326628 -0.0584689 0.337176 -3.31718 -0.381033 0.263741 -0.62011 0.0752054 0.0603 0.729324 0.500077 -0.019269 -1.31122 0.393895 -0.462037 0.377043 0.155568 0.391612 0.53025 0.448882 0.137165 0.440499 0.387373 0.0690961 0.562106 0.736947 0.107112 -0.0324377 0.11642 0.330992 0.0181318 0.318842 0.587204 0.619118 0.396258 0.625774 0.141984 -0.0173844 0.574562 -0.568138 0.0287948 0.544613 0.113302 -6.58951 -0.0144336 0.139906 -0.138829 0.100502 0.0662659 0.381831 0.716085 0.38647 -0.570287 0.515568 0.262552 0.229454 0.491897 0.680255 -0.12495 -0.320349 0.185302 0.249145 -0.0852285 0.326248 0.487419 0.564058 0.277021 0.640749 0.115669 -0.0561654 0.742777 -0.394238 0.68395 0.128196 -0.170105 0.000648438 0.154478 -0.120649 0.65964 0.0812793 0.34921 0.479878 0.404623 0.105542 0.360279 0.24661 0.00983247 0.519568 0.694243 0.157192 -0.214468 0.199696 0.268288 -0.0701853 0.301423 0.517881 0.576149 0.290661 0.603911 0.130485 -0.429924 0.532096 -0.381542 -0.627522 -0.612588 -0.698902 -0.61096 -0.759974 -0.391878 -0.655462 -0.866573 -0.173489 -0.395527 -0.515916 -0.170837 -0.46539 -0.661176 -0.368635 -10.5771 -0.64768 -0.690056 -0.575794 -15.3672 -0.73371 -0.575221 -1.03627 -3.47264 -0.513192 -0.106716 -0.627816 -0.731647 -0.103562 -0.853154 -0.205567 -0.288473 -0.122922 -0.410372 0.204696 -0.139966 0.220834 0.380975 0.285939 -0.0510725 0.276371 0.216017 -0.119452 0.419174 0.637874 -0.0814387 -0.218084 0.0259673 0.153455 -0.369119 0.140179 0.449505 0.4882 0.286162 0.49696 -0.0313588 -0.203801 0.433812 -0.479383 0.0801791 0.231289 -0.0449191 0.648356 0.15975 0.424148 0.538155 0.464126 1.888 0.347392 0.575581 1.03296 0.558573 0.728284 0.0927171 -0.0774188 0.274869 0.345474 0.00939504 -0.0641631 0.565973 0.625821 0.361869 0.581611 0.207845 0.0858899 0.587133 -0.311314 0.358907 0.130763 0.323647 0.265925 0.338669 0.4848 0.39881 0.0769575 0.389836 0.334477 0.00811228 0.519132 0.707841 0.0464732 -0.0932547 0.151566 0.275539 -0.785444 0.263074 0.545756 0.57987 2.64643 0.587625 0.0915778 -0.0782221 0.531988 -0.655343 -0.309095 0.178698 -0.139353 0.195069 0.357697 0.260765 -0.0777993 0.250975 0.190319 -0.145847 0.396761 0.621608 -0.108127 -0.243521 37.0481 0.126921 -0.318542 0.113848 0.427648 0.467449 0.066656 0.476485 -0.414086 -0.229331 0.411882 -0.512046 0.431065 0.576736 0.442551 0.575022 0.562519 0.197102 0.494972 0.44082 0.117772 0.610122 0.764667 0.170232 0.0319517 0.186958 0.386926 0.0609837 0.375473 0.627645 0.658766 1.59214 0.663351 0.0692968 0.0356613 0.615743 -0.390371 -0.249583 0.0213863 0.171231 0.0860701 -0.284323 0.00501499 -0.224374 0.127189 0.23493 0.458017 -0.290838 -0.619323 -0.133167 -0.141287 -0.385648 0.0168046 0.138044 0.299177 -0.036989 0.257011 -0.202289 -0.706627 0.251488 -0.628053 0.265506 0.420778 0.328732 -0.00364458 0.319281 0.260836 -0.0724027 0.457561 0.665038 -0.0341875 -0.172599 0.119799 0.199553 -0.272816 0.186265 0.486408 0.523397 -4.16003 0.531907 0.0501779 -0.15777 0.471677 -0.780132 1.47428 0.499936 -0.230308 0.0887535 -0.0433973 -0.298365 0.771866 0.799534 -0.3068 -0.463517 -0.14979 0.206471 -0.399778 -7.59248 0.677863 0.729179 -0.0539096 0.752425 -0.21962 -0.418247 0.902105 -0.638464 0.541749 -0.415665 -0.295488 -0.178177 -0.476122 3.99566 0.339185 -0.439567 -0.549506 -0.316074 -0.247062 -0.537186 -0.773346 -0.220517 0.131729 -0.226529 -83.0128 -0.378794 -0.538752 18.4827 -0.730989 -0.332098 -0.0213894 -0.0740765 -0.445346 2.00598 0.456795 -0.358822 -0.473992 -0.221848 -0.140683 -0.456662 -0.308765 0.16382 0.168315 -0.122744 0.246345 -0.346244 -0.512633 -0.229512 -0.677724 0.00546638 0.710764 -0.0296369 0.431049 0.650405 -0.140824 0.630001 0.124024 0.18593 -0.147023 -0.247657 0.450661 0.520793 0.218087 0.433383 0.0533246 -0.135482 0.474445 -0.446013 -0.326276 -0.926549 0.156106 0.438887 -0.434999 -0.739762 -0.207072 -0.0678366 -0.448433 -16.9015 0.0256442 0.243332 -0.11227 0.469456 -0.274871 -0.446568 0.351288 -0.671633 -0.19656 0.220365 0.489017 -0.271709 -0.540627 -0.144966 -0.0647282 -0.395959 -0.0199297 0.255551 0.30359 -0.0490526 0.322597 -0.213808 -0.350602 0.240228 -0.635226 0.475685 0.679049 0.00517561 -0.259907 0.191234 0.251912 -0.0790256 0.0607974 0.486489 0.564123 0.282671 0.468184 0.122068 -0.0839278 0.5305 -0.389055 0.550083 -0.483945 -0.582004 -0.345146 -0.121223 -0.568912 -0.359314 0.350208 0.392579 -0.269314 0.564054 -0.417123 -0.56948 0.214264 -0.751709 -0.685943 -0.744247 -0.617237 -0.851332 -0.741144 -0.499582 4.87596 0.274378 -0.525272 -0.205906 -0.636313 -0.73707 -0.281835 -0.857773 -0.289535 0.153991 0.214216 -0.1171 0.259733 0.466201 0.541058 0.247084 0.559142 0.0838475 -0.400721 0.497794 -0.421064 0.287018 0.361242 0.0225675 0.442984 0.593238 0.636276 0.373282 0.666331 0.220276 0.0599479 0.59583 -0.299525 0.0762457 -0.164875 0.0675752 0.388869 0.430247 0.183352 0.439609 -0.538002 -0.272913 0.372289 -0.526706 -0.339812 0.0940873 -75.9704 0.530178 0.0158309 0.376321 -0.151225 -0.346595 0.330704 -0.595148 0.327688 0.593614 0.624831 0.975369 0.631845 0.149743 -0.00726252 0.58088 -0.422604 -0.0729349 0.33925 0.0294898 -1.88211 -0.137933 -0.369689 0.863861 -0.586003 -27.9286 -0.303416 0.283368 -0.447446 -0.583038 0.261467 -0.767361 -0.347962 0.0187848 -0.48353 -0.615791 -0.0689442 -0.787297 0.358152 -0.168763 -0.360187 0.285891 -0.960079 -0.495354 -0.659509 58.666 -0.791933 -0.202527 0.431927 -0.487487 0.585329 -0.313238 -0.759119
label 8 2 4 42 9 22 15 31 43 3 14 13 47 18 17 37 38 32 24 26 36 12 11 20 19 10 27 28 46 21 45 25 41 5 40 39 30 29 16 33 35 23 7 44 34 6 1
probA -4.10634 -4.42806 -4.39315 -4.48863 -4.39044 -4.34599 -4.40895 -4.21197 -4.35285 -3.75387 -4.3567 -4.0686 -4.42153 -4.51619 -3.91812 -3.95623 -4.05592 -4.38081 -4.33524 -4.27476 -4.50322 -0.490309 -4.25974 -4.24291 -4.36057 -4.41917 -4.19847 -4.17847 -4.12363 -4.41204 -4.42873 -3.91149 -1.55515 -4.37976 -4.33201 -4.25266 -4.37052 -4.36416 -4.31392 -4.18009 -4.31119 -4.17502 -4.40576 -4.14641 -4.39486 -3.91577 -4.27983 -4.1708 -4.4118 -0.413661 -4.12145 -4.12888 -4.26405 -0.591618 -4.15692 -3.38554 -3.68474 -4.30282 -4.42859 -4.07436 -3.34924 -3.73258 -4.41882 -4.12064 -4.07494 -4.44091 -3.81786 -3.92699 -3.61161 -0.403206 -3.98497 -4.09218 -3.92396 -4.04301 -4.33113 -0.115962 -3.28019 -4.31951 -4.37358 -4.05302 -4.02352 -4.14723 -3.47499 -4.00201 -3.65022 -3.91977 -3.3945 -4.1932 -4.20681 -2.72456 -3.84161 -4.39341 -3.03641 -4.45239 -4.20146 -4.58849 -4.53638 -4.4133 -4.44366 -4.36009 -4.24467 -4.24591 -4.67823 -4.38878 -4.19849 -3.52463 -4.65506 -4.26378 -4.12327 -4.23703 -4.29764 -4.01679 -4.34619 -4.55932 -4.53726 -4.39978 -4.2846 -4.41253 -4.59922 -4.50013 -3.9804 -4.56105 -4.59651 -4.38501 -4.34451 -4.11629 -4.37468 -4.4751 -4.24149 -4.2336 -4.31043 -4.43381 -4.52646 -4.42404 -3.88632 -4.40144 -4.45553 -4.29165 -4.68045 -4.4766 -4.38499 -4.37736 -4.32746 -1.65926 -4.27819 -4.62123 -4.31451 -4.11058 -3.64171 -4.56807 -4.29298 -1.49726 -4.33274 -4.19453 -4.25694 -4.30482 -4.58962 -4.44913 -4.3365 -4.35268 -4.40016 -4.52274 -4.44402 -4.06074 -4.51224 -4.52996 -0.579461 -4.31788 -4.2472 -4.30229 -4.48647 -4.24061 -4.18233 -4.30291 -2.79495 -4.36906 -4.45055 -3.79301 -4.51987 -3.86475 -4.75424 -4.57021 -4.48684 -4.47269 -4.43631 -4.29528 -3.70969 -4.68856 -4.44123 -4.30435 -4.03478 -4.64889 -3.64188 -4.33342 -0.638337 -4.38003 -3.896 -4.43581 -4.62872 -4.58453 -4.43737 -4.43799 -4.49146 -4.60664 -4.56037 -4.11382 -4.5799 -4.60702 -4.39716 -4.39608 -3.97534 -4.4226 -4.54788 -4.37126 -3.65453 -4.37348 -4.39641 -4.48289 -4.51109 -3.78356 -4.29995 -4.58381 -4.54315 -1.18067 -4.36714 -3.63878 -3.97225 -4.44601 -4.65561 -4.30029 -3.91185 -3.89781 -4.66838 -4.32732 -4.34692 -4.59407 -4.05933 -4.20612 -1.48063 -0.719824 -2.05381 -4.32754 -4.28246 -4.39232 -4.59449 -0.44098 -3.85906 -4.59951 -4.60507 -4.36528 -4.13393 -4.41806 -3.81218 -4.1664 -4.064 -4.31212 -4.44712 -4.49823 -4.40305 -3.04254 -3.91484 -4.51856 -4.43989 -4.35884 -4.35216 -4.26232 -4.11197 -3.23957 -4.59261 -4.27643 -4.08363 -3.61046 -4.55603 -1.28301 -4.08147 -2.42975 -4.17185 -3.57273 -4.20387 -4.4924 -4.36782 -4.33774 -4.18398 -4.34085 -4.47744 -4.32406 -3.89242 -4.52107 -4.51929 -4.2921 -4.31275 -3.98047 -4.25474 -4.42564 -4.08547 -2.96011 -4.2473 -4.24269 -4.38107 -4.35664 -3.70638 -4.13453 -4.4696 -4.26586 -4.77091 -4.20554 -4.69746 -3.88914 -4.43841 -2.97161 -4.16093 -3.87508 -4.55015 -4.58228 -4.7152 -4.18166 -4.43508 -4.11838 -4.52636 -4.58681 -0.837469 -0.773002 -3.5703 -4.58227 -4.60903 -2.95746 -4.66068 -4.59605 -4.56832 -4.22349 -4.61697 -4.34141 -4.42246 -4.24394 -4.48628 -4.31199 -4.6594 -4.39414 -4.60325 -4.29289 -4.44535 -3.52746 -4.43439 -4.18347 -4.47532 -3.57532 -4.28953 -4.11963 -4.16789 -3.54208 -4.41159 -4.35897 -4.55935 -2.95484 -4.33757 -3.85821 -4.51158 -4.53577 -3.75293 -3.97093 -3.54961 -2.01821 -4.41964 -4.06218 -4.41704 -4.40164 -4.42761 -4.37634 -4.41793 -4.15063 -4.4879 -4.28947 -4.42711 -4.1489 -4.50683 -4.38861 -4.50816 -3.90732 -4.34547 -3.50313 -3.94716 -4.38222 -4.44327 -4.27189 -3.89773 -3.89784 -4.60428 -4.29077 -4.26404 -4.5027 -3.99721 -4.17776 -3.99752 -1.11516 -4.46148 -4.31796 -3.91555 -4.31129 -4.53671 -1.36213 -3.76366 -4.51565 -4.58025 -4.28663 -4.21932 -4.39784 -3.6949 -4.32318 -4.0969 -4.22136 -0.338362 -4.4112 -4.35071 -0.430443 -3.9301 -4.28153 -4.07015 -4.38907 -4.17466 -3.97195 -4.09653 -4.04225 -4.25365 -4.32021 -4.26881 -4.48426 -0.137271 -4.22591 -4.15115 -4.51035 -4.4025 -3.94911 -4.23565 -0.243426 -4.22564 -4.40664 -3.98581 -3.94425 -4.41146 -4.30606 -4.31955 -4.31821 -4.22652 -4.41841 -4.18529 -4.29317 -4.25415 -4.38427 -4.05972 -4.3864 -3.81972 -3.95793 -4.37975 -4.24756 -4.26622 -3.7779 -3.91174 -4.56413 -4.24279 -4.21976 -4.46722 -4.13775 -4.14789 -3.66241 -2.48619 -4.16303 -4.16426 -3.48437 -4.45914 -4.19353 -3.59822 -3.79162 -4.48298 -4.57177 -4.25329 -4.13776 -4.33408 -2.40305 -4.04144 -4.00749 -4.22775 -0.740882 -4.34403 -4.3177 -3.43705 -3.83934 -4.12938 -4.33529 -4.03164 -3.61767 -3.6123 -4.3222 -4.2246 -0.666397 -4.23673 -3.77809 -3.96625 -3.92477 -4.23325 -4.1063 -4.02256 -3.97227 -4.04066 -4.23478 -4.05071 -3.55556 -4.23192 -4.28716 -0.816808 -3.93669 -4.19083 -3.95202 -4.02048 -3.82519 -3.99836 -3.90081 -0.710025 -4.1028 -4.0294 -3.66817 -4.64885 -4.35242 -4.17424 -3.94675 -4.57911 -3.36636 -4.20321 -3.56047 -4.28435 -3.4678 -4.32727 -4.57875 -4.4474 -4.37515 -4.37606 -4.42532 -4.53739 -4.46003 -4.01161 -4.52376 -4.55086 -4.3113 -4.29614 -4.08292 -4.35923 -4.4284 -4.26822 -3.33273 -4.2869 -4.28419 -4.40737 -4.40086 -3.72407 -4.42164 -4.19541 -4.27943 -2.18702 -4.54497 -4.5085 -4.70765 -4.06687 -4.47781 -4.19856 -4.49193 -4.69146 -2.97079 -4.14611 -2.76447 -4.16094 -4.62066 -4.22781 -4.50277 -4.17531 -4.57637 -4.50315 -4.54616 -3.9367 -4.58395 -4.48209 -4.56935 -4.32956 -4.64158 -4.47201 -4.54863 -4.03727 -3.98536 -3.9953 -4.45033 -4.2534 -4.20596 -4.45405 -3.56087 -4.2185 -4.19523 -4.36658 -4.32224 -4.2156 -4.24991 -4.20186 -4.42456 -4.34307 -3.88808 -3.77741 -3.85489 -4.25256 -4.19974 -4.28504 -4.17142 -4.30161 -4.12489 -4.25577 -4.16298 -4.32221 -2.86486 -4.32709 -3.81383 -3.65624 -4.28072 -4.07574 -4.01087 -4.33127 -3.52899 -3.92821 -3.94226 -3.83457 -4.03175 -3.9119 -3.63143 -3.96774 -4.23129 -4.00651 -0.670085 -4.21941 -4.29784 -3.98775 -0.207069 -4.1848 -3.59479 -0.197396 -0.959922 -3.91025 -3.78596 -4.16573 -4.12639 -3.88311 -3.77372 -4.27186 -3.94901 -1.98539 -3.84274 -3.78699 -3.92021 -3.86975 -4.07341 -4.04055 -4.06469 -3.91796 -3.96778 -4.17226 -4.05579 -3.48396 -4.16346 -4.23115 -3.6666 -3.88813 -3.97332 -4.02527 -3.94195 -3.78818 -3.65635 -3.83291 -3.85989 -4.08424 -3.98089 -3.66687 -4.49922 -4.47571 -4.66456 -4.12877 -4.45653 -4.10879 -4.64826 -4.65507 -2.26185 -3.98686 -3.14452 -4.75836 -4.5793 -4.21359 -4.47394 -4.41147 -4.52966 -4.50683 -4.52944 -4.1729 -4.60159 -4.47154 -4.535 -4.36016 -4.5998 -4.51897 -4.64335 -3.95539 -4.25659 -3.39843 -4.11805 -3.07576 -4.20137 -4.47457 -4.38561 -4.28343 -4.28475 -4.315 -4.46374 -4.39176 -3.90727 -4.43982 -4.49254 -4.30156 -4.24098 -2.75436 -4.24149 -4.36807 -4.15588 -2.12551 -4.21168 -4.31246 -4.32247 -4.32672 -3.63201 -4.20381 -4.07084 -4.10568 -4.17215 -4.46569 -4.34636 -4.24173 -4.2355 -4.30314 -4.42157 -4.3648 -3.87109 -4.40306 -4.43254 -0.186929 -4.18645 -4.14703 -4.19093 -4.38033 -4.13258 -3.9618 -4.19508 -4.1423 -4.25291 -4.33605 -3.71376 -4.32511 -4.05782 -4.43481 -4.67711 -4.64843 -4.47228 -4.38686 -4.51784 -4.61911 -4.62368 -4.1448 -4.6141 -4.62969 -4.31538 -4.42283 -3.8688 -4.44839 -4.57476 -4.39423 -3.40048 -4.41321 -4.46447 -4.53556 -4.53773 -3.89734 -4.02843 -4.00074 -4.09625 -4.13638 -3.70699 -4.17819 -3.88308 -4.16916 -4.22495 -3.56239 -3.32925 -4.37744 -4.08143 -3.98862 -4.21014 -4.14448 -4.06839 -3.79213 -4.04186 -3.81615 -4.20175 -3.77632 -4.08009 -3.80829 -4.11934 -4.34762 -4.30865 -4.20695 -4.15131 -4.23401 -4.38746 -4.24684 -3.76592 -4.35975 -4.40784 -4.19558 -4.12611 -3.70577 -4.14478 -4.25818 -4.02615 -1.17154 -4.06262 -4.26389 -4.24793 -4.20156 -3.83 -2.80374 -3.92232 -3.84429 -3.43594 -4.14591 -3.92725 -3.96041 -3.7895 -4.42618 -4.42472 -4.20359 -3.98968 -4.22614 -1.46497 -3.65478 -4.02144 -4.21522 -3.86158 -4.3152 -4.26364 -3.64344 -3.79789 -4.45595 -4.33776 -4.02683 -4.55745 -4.5571 -2.04254 -4.16919 -4.57464 -4.66085 -4.50917 -4.21511 -4.4782 -3.33396 -4.27893 -4.29384 -4.46557 -0.507372 -4.626 -4.42935 -0.869721 -4.00464 -4.39518 -4.2184 -4.45099 -4.61058 -1.96277 -4.06759 -4.57331 -4.59154 -4.40066 -4.33863 -4.36868 -4.05532 -4.36586 -4.26059 -4.38486 -4.34232 -4.49872 -4.47112 -4.15651 -3.89549 -3.52099 -3.47348 -4.21451 -4.3276 -3.91305 -4.33645 -2.99879 -4.27067 -4.19531 -4.32245 -3.68571 -4.28238 -4.12341 -4.24315 -3.97769 -4.348 -4.33329 -4.33944 -3.81645 -3.96845 -4.21439 -4.35252 -3.78602 -4.33865 -4.45692 -4.25244 -4.2506 -4.32201 -0.578868 -4.24606 -4.01458 -4.21398 -3.88763 -4.35396 -4.2605 -4.00124 -3.89179 -4.03852 -4.43451 -3.92622 -4.2877 -4.36467 -4.30299 -4.27428 -4.36819 -4.10755 -4.43773 -4.14646 -4.29141 -4.22532 -4.42781 -4.31301 -4.41192 -3.91941 -4.55297 -4.11551 -4.55042 -4.60637 -4.48366 -4.41284 -4.46944 -4.26401 -4.52797 -4.35934 -4.47285 -4.18141 -4.54107 -4.4554 -4.56693 -3.96234 -3.90421 -4.60407 -4.64339 -4.38752 -4.17918 -4.39079 -3.65407 -4.11813 -4.11498 -4.35603 -4.02268 -4.49253 -4.4569 -2.62536 -3.93241 -4.09304 -4.20425 -3.92992 -2.13169 -3.93546 -3.70988 -1.6423 -2.42547 -3.81219 -3.73021 -4.03552 -4.00183 -3.92224 -3.5403 -4.30448 -4.47489 -4.39813 -4.4641 -4.36695 -4.55644 -4.35329 -4.46372 -4.42149 -4.53437 -3.95873 -4.57735 -3.96052 -4.49671 -4.4828 -4.49001 -4.27801 -4.61135 -4.4413 -4.51751 -4.49715 -4.56449 -3.6653 -4.60002 -3.92952 -4.18918 -4.22535 -4.23087 -4.40762 -4.15036 -4.21682 -4.20442 -4.12339 -4.30055 -4.35129 -3.89483 -4.25062 -4.09423 -0.68409 -3.43837 -4.23009 -4.12805 -4.33395 -4.2653 -4.24835 -3.81145 -4.27589 -4.39908 -4.18765 -3.52571 -4.23028 -4.30816 -4.34499 -4.36704 -3.6399 -3.84593 -4.00608 -4.21008 -2.4575 -4.3274 -4.26128 -3.51234 -3.84946 -0.715267 -4.3489 -4.10434 -4.52808 -4.38467 -4.20418 -3.90199 -4.05295 -3.97638 -4.25974 -4.22587 -4.13777 -3.86309 -4.1432 -4.3558 -4.32351 -4.30527 -3.86855 -4.34583 -4.24676 -0.596725 -3.79453 -4.36865 -4.48308 -3.81196 -4.40304 -3.84924 -3.93731
probB 0.0314218 0.0702008 -0.00890609 -0.0492943 0.362971 -0.017646 0.467856 0.0393769 0.154474 -0.270145 0.23065 -0.231335 -0.0524151 0.536792 -0.48522 0.0211383 -0.28887 0.180769 -0.108414 -0.101029 -0.0418654 0.329556 -0.189347 -0.0736063 0.240913 0.196092 -0.0104988 0.217292 0.226007 0.111381 0.322504 -0.136986 -0.10782 -0.0386655 -0.0235643 0.0375597 -0.0518218 0.0967233 0.284106 0.0639754 0.0314105 0.213726 0.0242734 -0.430299 0.265369 -0.82567 -0.0318134 0.0701696 -0.135783 0.130482 -0.158937 0.43857 0.0253011 0.875877 -0.0475539 0.115775 -0.381389 -0.112786 0.176442 -0.169045 -0.0935074 -0.268453 0.0968618 -0.206253 0.0215942 -0.185722 0.0311025 -0.380427 -0.287408 0.282304 -0.0785968 -0.0466652 -0.0166268 0.157654 0.0704786 1.19257 -0.0477364 0.114392 0.0406705 -0.0039088 -0.175317 0.042206 -0.246871 0.301363 0.0239919 -0.238431 0.329233 -0.00856818 -0.0929506 -0.123092 -0.885205 -0.174667 -0.19566 0.0675549 0.328339 0.185629 -0.0442756 0.0074102 -0.158451 -0.0746243 -0.188561 0.143451 0.104754 -0.218123 -0.220727 0.185011 0.000451426 0.195161 -0.0216527 0.103144 -0.100585 -0.237619 -0.177982 0.221628 0.0795361 -0.128726 -0.208889 0.039686 -0.0686688 0.062896 -0.28835 0.0293724 -0.00358233 -0.118301 -0.126167 -0.0484285 -0.134361 0.138135 -0.183872 0.244197 -0.047219 -0.209058 -0.203499 0.113689 -0.791447 -0.0263148 0.260434 0.0280577 0.372651 0.0469346 0.133394 -0.0399466 0.030009 0.0887681 0.0499825 0.194155 -0.109616 -0.079499 -0.287318 0.11992 0.074764 0.189776 0.0172318 -0.109262 -0.050552 -0.0162382 0.309991 0.186904 -0.0612407 0.0510653 0.105236 0.111819 0.208435 -0.119449 0.116662 0.0861009 0.0308866 -0.022468 -0.0676232 -0.0164144 0.257566 0.00996373 -0.0421422 0.088525 -0.128533 -0.0724989 0.193015 -0.770621 0.287136 0.292174 0.414977 0.0802928 0.182864 -0.027414 0.070402 0.0246856 -0.204536 0.212102 -0.0932919 0.0693945 -0.389287 0.104936 0.0540885 -0.0652251 -0.314308 0.0206377 -0.538625 0.00134832 0.344834 0.165713 -0.0192106 0.0597859 0.154242 0.116257 0.276282 -0.164493 0.138919 0.0763365 -0.0176163 0.00500842 0.162438 0.0324577 0.233135 0.091209 -0.131083 0.10793 -0.0825677 -0.0760307 0.206496 -0.793431 -0.465755 0.0524925 -0.244422 0.415901 -0.387899 -0.265447 -0.656048 -0.188599 -0.129226 -0.455963 -0.332586 -0.621938 -0.15514 -0.381647 -0.297514 -0.223862 -0.511518 -0.477522 0.130882 -0.421658 0.264381 -0.365257 -0.411542 -0.257089 -0.203583 0.200863 -0.276136 -0.184063 -0.213729 -0.368821 -0.584529 -0.139094 -0.483776 -0.180681 -0.279801 -0.355913 0.332025 -0.297965 -0.392228 -0.496784 -0.902064 0.434082 0.044012 0.100131 -0.0387836 0.0526553 -0.167384 -0.202777 0.219974 -0.118537 -0.0145558 -0.254593 0.104859 0.0177173 0.0613043 -0.269218 -0.0165376 0.457144 0.0726417 0.434262 0.404338 -0.07506 0.0441154 0.143355 0.109171 0.416871 -0.112138 0.086687 0.0631324 -0.118909 -0.0917221 -0.0113738 0.00684732 0.344953 0.13735 0.198396 0.157774 -0.120536 -0.107294 0.28639 -0.660635 -0.735788 -0.320254 -0.293152 -0.258309 -0.719104 -0.355339 0.204503 -0.597602 -0.21328 -0.778883 -0.873485 -0.54289 -0.423837 -0.352042 -0.477995 -0.617225 -0.646281 -0.261467 -0.0937025 -0.687506 -0.572659 -0.500101 -0.65269 -0.13363 -0.196097 -0.481689 -0.7595 -0.481673 -0.657782 -0.422655 -0.636429 -0.265957 -0.46462 -0.438624 -0.284006 -0.380522 -0.3128 -0.162685 -1.06133 0.145502 0.193697 0.0941686 -0.259411 -0.0568625 0.350657 -0.100889 -0.0211877 -0.292849 0.503308 -0.121943 -0.136669 -0.0418933 -0.0506007 -0.163696 -0.192277 0.131311 0.124074 0.426148 0.425135 0.363938 -0.463457 0.118423 -0.22689 0.0417717 0.0564696 -0.0680801 -0.0597523 -0.123532 0.318901 0.254714 -0.0196904 -0.00875609 -0.125448 -0.0385086 -0.0805659 0.184029 -0.888446 -0.21346 -0.669408 -0.430981 -0.153095 -0.13289 -0.322262 -0.123678 -0.494829 -0.0537925 -0.256394 -0.217761 -0.181236 -0.347382 -0.344727 -0.544544 -0.256704 0.103987 -0.171363 -0.502941 -0.0303779 -0.0807486 -0.880496 -0.127024 -0.0513076 -0.0716915 -0.177537 -0.237724 -0.0560582 -0.842817 0.349985 0.0371463 -0.15039 -0.17434 -0.111038 -0.289053 -0.0679463 -0.882368 0.262605 -0.151015 0.00686246 0.444325 -0.029521 0.0488541 -0.274037 -0.0370041 -0.0490417 -0.0663977 0.0391361 0.197379 -0.0822649 -0.0243619 0.375345 0.231963 -0.0490278 0.124676 -0.143236 0.137414 0.357489 -0.0491814 0.19047 0.00501388 0.0405547 0.0949451 -0.0339815 0.294062 0.286109 0.125618 0.0932805 0.184369 0.0658835 0.0925477 0.286628 -0.817614 -0.264452 -0.0109253 -0.211429 -0.228696 -0.111784 -0.395356 -0.0863154 -0.133934 -0.0992701 -0.0376038 -0.207452 -0.213502 0.168891 0.636707 0.305991 -0.171487 -0.382828 -0.00188418 -0.0594916 -0.0121567 -0.168873 -0.0213776 -0.045541 -0.0484317 -0.244213 -0.0256344 -0.298791 -0.277413 0.0339258 -0.0143742 0.448995 0.0249098 -0.267262 0.586864 -0.866812 0.0232552 0.416295 0.0924309 0.285953 -0.30973 0.317609 -0.0218324 0.0349204 -0.0397861 0.0931789 -0.00447794 0.270051 0.541654 0.448064 0.148933 0.294913 0.378426 0.302402 0.576475 0.18965 0.321248 0.261092 -0.232221 0.190551 0.0263093 0.226819 0.572412 0.313012 0.10074 0.328001 0.574185 0.0731558 0.527191 -0.648133 0.191467 -0.0839783 0.0189841 -0.211909 0.121222 -0.0838184 -0.0607575 -0.154533 -0.0230961 -0.414062 -0.00524568 0.249782 0.162332 -0.023872 0.0520913 0.0889841 0.143422 0.22606 -0.18551 0.133694 0.0982862 -0.0490168 0.00239806 0.0136484 0.0176211 0.211759 0.0262277 -0.332408 0.0670382 -0.0524715 -0.0633367 0.186968 -0.737432 -0.353715 -0.196437 -0.514081 -0.4127 -0.303219 -0.296928 -0.190228 -0.533001 -0.359672 -0.276165 0.160527 -0.042661 -0.504681 -0.208465 -0.0267206 -0.0745678 -0.0161171 -0.395412 -0.241785 0.00217124 -0.223807 -0.188798 -0.276544 0.0925588 -0.0329238 -0.170063 -0.173098 -0.0231559 -0.183459 -0.226038 0.238334 -0.986653 0.164889 -0.203622 0.180692 0.000575936 0.0280554 0.111599 0.141838 0.0114788 0.130919 0.419545 0.306237 0.0291437 0.274997 0.208747 0.232029 0.425361 -0.0621699 0.237825 -0.0991321 0.0930954 0.182906 0.0190067 0.13889 0.429593 0.205138 0.159638 0.305627 0.154364 0.399012 0.333123 -0.767514 -0.336558 0.174626 -0.100418 -0.0168023 -0.0192024 -0.0896417 -0.177976 -0.124554 0.164756 0.400262 -0.0719655 0.152112 0.0799081 0.13774 0.290153 -0.24085 0.135676 0.0603495 -4.65675e-05 0.866908 0.140794 -0.147445 0.873772 0.859649 0.00777769 0.2992 0.0701529 -0.134323 0.241 -0.813509 0.363375 0.248604 -0.196047 0.293177 0.216181 0.0901395 0.351823 0.682984 0.428424 0.135861 0.432919 0.427124 0.400093 0.437411 0.14275 0.420178 0.358657 0.441094 0.310808 0.139193 0.158419 0.583594 0.297679 0.264937 0.358609 0.28431 0.173185 0.485419 -0.559143 -0.189625 -0.19291 -0.0822183 -0.105453 -0.212416 -0.337034 0.099793 0.0807552 0.102701 0.0912974 0.30223 -0.00265713 0.0512997 -0.334058 -0.268921 -0.166258 -0.125347 -0.0945129 -0.158421 -0.011751 0.0940922 -0.0534183 -0.0760688 -0.155612 -0.0826225 -0.112287 0.10512 -0.904611 -0.0639981 -0.408544 -0.0104815 -0.253908 0.111056 0.425445 0.257348 0.0292852 0.164429 0.210547 0.169826 0.326262 -0.0824165 0.203752 0.132379 -0.124816 0.0470285 0.137399 0.0796035 0.367303 0.125344 -0.0460688 0.162526 -0.102986 -0.00891056 0.313036 -0.664913 0.00183963 -0.0588722 -0.0315844 0.0984413 0.415585 0.292979 0.0425941 0.120745 0.19474 0.201565 0.338662 -0.102265 0.189692 0.170792 -0.721434 0.0484933 -0.0533655 0.0391433 0.335072 0.103477 -0.20041 0.154057 0.452309 -0.0168125 0.276777 -0.639311 -0.0866397 -0.147914 0.00645312 0.323667 0.222843 -0.0404569 -0.0401354 0.118391 0.0150061 0.210968 -0.141285 0.107843 0.0623867 -0.0544039 -0.00931424 0.252673 -0.00623054 0.259349 -0.0203218 -0.0670294 0.0913571 0.0836492 -0.0964825 0.212771 -0.812872 -0.0493652 0.0258177 0.38831 0.39752 -0.127297 0.286086 0.165041 0.34353 0.258962 -0.0228462 0.0157422 -0.111521 0.133056 0.111885 0.079049 0.292557 0.422736 0.1873 0.157176 0.381948 0.197964 -0.0957534 0.451093 -0.790168 0.180281 0.539041 0.34738 0.117221 0.259452 0.276965 0.229539 0.459014 0.0166565 0.270461 0.203562 0.132803 0.112887 0.148501 0.135914 0.459553 0.222099 0.193578 0.268924 0.178874 0.0483147 0.413828 -0.86122 -0.071044 0.370458 -0.342394 0.238968 0.359647 0.423637 0.0816984 -0.122722 0.109947 0.172311 -0.0489183 0.0342628 -0.0973939 0.231629 -0.25936 0.319543 -0.0626659 -0.0893983 0.00460861 -0.115908 -0.098609 -0.769149 0.147385 -0.335686 -0.66858 -0.26457 -0.0986876 -0.891819 -0.362147 -0.0945017 -0.192053 -0.393437 -0.225091 -0.350714 -0.711749 -0.285153 -0.441865 -0.387075 -0.187933 -0.317907 -0.401477 0.131552 -1.02538 -0.221901 -0.353715 -0.194189 -0.173198 0.747334 -0.221345 -0.0741937 -0.0886644 -0.26258 -0.292562 -0.178495 -0.465919 -0.173383 -0.414575 -0.27703 -0.230411 -0.275553 -0.327267 -0.313555 -0.862177 0.138276 0.0111576 -0.15308 0.14972 -0.111313 0.0484588 0.19467 0.0441893 0.0995553 -0.0525934 -0.057503 0.289717 0.0786587 0.110337 -0.0308896 0.094301 0.162392 0.280337 -0.833005 -0.0811363 -0.141639 0.292409 -0.10344 -0.106775 -0.203841 -0.066936 -0.15498 -0.0749087 -0.143791 -0.25329 0.0228344 -0.036095 0.257955 -0.00864877 -0.155714 0.548172 -0.863671 -0.240264 0.166548 -0.16654 -0.0491402 -0.0977622 -0.131007 -0.116473 -0.135827 0.0243269 0.166608 -0.143908 -0.114545 -0.0291115 -0.072942 -0.139012 0.122246 -0.839063 0.163465 -0.321473 -0.0641794 -0.14736 -0.127319 -0.0708336 -0.158513 0.209589 0.0701256 -0.0556594 -0.0599128 -0.162423 -0.0531894 -0.18347 0.140866 -0.893012 -0.321234 -0.179103 -0.152209 -0.285849 -0.248359 -0.259874 -0.390301 -0.0558784 -0.0841382 -0.307084 0.419631 -0.266989 -0.348213 -0.085665 -0.956694 0.250357 0.236917 0.0517702 0.421915 0.150467 0.0920491 0.256869 0.156645 0.121998 0.159581 0.194745 0.0416633 0.281887 -0.568512 -0.0392569 -0.114115 -0.0967316 -0.142782 -0.126895 0.177611 -0.106659 -0.0812486 0.0448884 -0.0753097 -0.161977 0.125923 -0.873514 -0.0854896 -0.0439692 -0.14358 -0.088745 0.150323 -0.020806 -0.0440547 0.00234068 -0.0506187 0.0797625 0.131978 -0.88274 0.00488835 -0.0529695 -0.0104883 0.340203 0.0891297 0.152401 0.144196 -0.324669 -0.093603 0.294938 -0.654952 -0.0619362 0.0322336 0.0284838 0.559652 0.0259759 0.246226 0.0984801 -0.158391 0.350566 -0.794308 0.0922775 0.241076 0.0670214 -0.159331 0.102344 0.0473917 0.0163436 0.201237 -0.672234 0.059906 0.141353 0.0508903 0.305543 0.0555642 -0.146357 0.663211 -0.827913 -0.724461 -0.256533 0.206364 -0.261679 -0.380386 0.353143 -0.934203 -0.0135703 0.12596 0.0130651 -0.146406 0.302688 -0.76256 0.118026 -0.0151782 -0.135719 0.279978 -0.867967 -0.0861721 -0.262576 -0.101817 -0.79181 -0.065749 0.201132 -0.789216 0.296466 -0.775982 -0.855332
nr_sv 37 27 48 34 39 56 50 73 22 53 43 41 31 44 48 20 53 31 47 83 31 39 48 30 19 63 11 38 42 40 28 33 23 33 39 31 31 36 49 44 19 53 20 20 25 32 10
SV
0 0 0 0 0 0 0 0 0 0 0 0 0 0 0 0 0 0 0 0 0 0 0 0 0 0 0 0 0 0 0 0 9.913086908231926e-05 2.11005461345903e-06 0 0 0 0 0 0 0 0 0 0 0 0 114:-67 115:-68 116:-78 121:-71 122:-76 123:-79 124:-82 125:-70 129:-84 131:-78 137:-69 138:-84 
0 0 0 0 0 0 0 1.665329254223127e-06 0 6.401780837353306e-07 0 0 0 2.081608189337604e-06 0 0 0 0 0 0 0 0.0007423681025383776 0 0 0 0 0 0 6.104856048134663e-06 0 0 0 0 0 0 0 0 0 0 0 0 0 0 0 0 0 114:-69 115:-71 116:-82 117:-76 121:-72 122:-78 124:-77 125:-75 129:-84 134:-75 137:-74 143:-80 147:-85 148:-83 157:-84 158:-81 
0 0 0 0 0 0 0 0 0 0 0 0 0 0 0 0 0 0 0 0 0 0.002953109467997265 0 0 0 0 0 0 0 0 0 0 0 0 0 0 0 0 0 0 0 0 0 0 0 0 114:-67 115:-67 117:-73 121:-74 122:-77 124:-78 125:-75 129:-85 132:-78 134:-72 137:-74 143:-81 148:-83 
0 0 0 0 0 0 0 0 0 0 0 0 0 0 0 0 0 0 0 0 0 0 0 0 0 0 0 1.392901916410872e-06 0 0 0 0 0 2.398214178659102e-06 0 0 0 0 0 0 0 0 0 0 0 0 114:-65 115:-71 117:-74 121:-69 122:-77 124:-74 125:-72 129:-79 132:-74 137:-71 143:-84 149:-81 163:-83 
1.25027788282165e-05 7.563387803333386e-06 7.414304510466422e-06 5.877458224245238e-06 1.265695706663763e-05 8.166052386735637e-06 1.308251715775403e-05 1.334067349020634e-06 1.105784537977677e-05 0 9.428441224438959e-06 9.406737341337246e-06 6.420116996759283e-06 0 2.726939408078904e-05 1.571483767531553e-05 7.905840835014796e-06 2.401617773420657e-06 6.90083557964865e-06 8.112893961466074e-06 5.943836014984655e-06 0.000687790071691948 7.533923401560397e-06 7.171016066368254e-06 1.108643516320794e-05 1.013133994567838e-05 7.524721548428861e-07 1.492650027605825e-05 2.365542530964045e-06 3.466872785719552e-06 1.11947040246419e-05 1.301884224309336e-05 0 1.492898237576796e-05 8.459041349526488e-06 1.009236025949287e-05 6.356017208890512e-06 4.277237314428643e-06 1.338422783906522e-05 1.191270970797165e-05 9.247997297899823e-06 1.314588210112439e-05 7.939217713201454e-06 2.307788466676012e-05 1.129610372076415e-05 4.058589977097003e-06 114:-65 115:-64 117:-72 121:-69 122:-73 124:-72 125:-79 129:-81 132:-73 149:-86 
0 0 0 0 0 0 0 0 0 0 0 0 0 0 6.492699846595801e-06 0 0 0 0 0 0 0 0 0 0 0 0 0 0 0 0 0 0 0 0 0 0 0 0 0 0 0 0 0 0 0 114:-65 115:-64 117:-74 121:-70 122:-71 124:-76 125:-73 129:-85 131:-82 132:-76 137:-73 
0 0 0 0 0 0 0 0 0 0 0 0 0 0 0 0 0 0 0 0 0 0.002021769667412468 0 0 0 0 0 0 0 0 0 0 0 0 0 0 0 0 0 0 0 0 0 0 0 0 115:-71 117:-74 121:-74 122:-76 123:-78 124:-75 125:-77 129:-81 132:-76 137:-75 147:-81 148:-83 157:-82 158:-80 
0 0 0 0 0 0 2.555057173398574e-06 1.675060254490274e-07 0 4.510079565746737e-07 0 0 0 3.745862551585161e-06 0 0 0 6.791349346498476e-06 0 0 0 0.0001469360005355324 0 0 0 0 5.527759547051789e-06 0 2.313761554970271e-06 5.686379459644204e-07 0 0 0.0009003993596575509 1.679913072987355e-06 0 0 0 0 0 0 0 0 0 0 0 0 114:-48 115:-48 116:-73 117:-75 118:-76 119:-74 121:-72 122:-70 123:-74 124:-74 125:-82 126:-75 129:-76 131:-75 132:-75 133:-74 134:-82 136:-86 139:-75 141:-89 147:-84 148:-81 157:-83 158:-86 
0 0 0 0 0 0 0 0 0 0 0 0 0 0 3.515142700725229e-06 0 0 0 0 0 0 0 0 0 0 0 0 0 0 0 0 0 0 2.007004013908579e-06 0 0 0 0 0 0 0 0 0 3.163030085880475e-07 0 0 114:-64 115:-65 117:-77 121:-71 122:-75 124:-79 125:-74 129:-84 132:-79 134:-75 137:-74 138:-84 
0 0 0 0 0 0 0 0 0 2.24460377672123e-05 0 0 0 0 0 0 0 2.931404361554265e-06 0 0 0 0 0 0 0 0 0 0 0 0 0 0 0 0 0 0 0 0 0 0 0 0 0 0 0 0 114:-67 115:-71 117:-74 121:-73 122:-76 123:-78 124:-75 125:-76 129:-82 132:-76 137:-75 143:-79 147:-81 148:-83 157:-82 158:-80 162:-81 
0 0 0 0 0 0 0 0 0 2.058500715665485e-06 0 0 0 0 0 0 0 0 0 0 0 0 0 0 0 0 0 0 0 0 0 0 0 0 0 0 0 0 0 0 0 0 0 0 0 0 115:-71 117:-74 121:-75 122:-77 124:-75 125:-67 129:-82 137:-68 143:-82 162:-82 
7.487534727880878e-06 4.527114361936995e-06 4.461577833270476e-06 3.522999646424307e-06 7.55679836473409e-06 4.897510132219309e-06 1.104115467771281e-05 1.66906896776447e-05 6.650518109854134e-06 6.689477960227825e-06 1.388369614237462e-05 5.638133145588279e-06 3.856153167095742e-06 1.134379297908272e-05 0 8.984921806466591e-06 4.739138592328416e-06 1.375431211935318e-05 4.136153188494225e-06 4.863424503178335e-06 3.572863067764316e-06 0 4.517582316427439e-06 1.12273464962605e-05 6.606957026053001e-06 6.061227687201805e-06 1.273166031078531e-05 9.277416658848204e-06 1.798596667080249e-05 1.201201747390819e-05 6.698551675935254e-06 7.738541371970585e-06 0 0 5.07595509565295e-06 5.869541344403924e-06 3.80763314852397e-06 1.64374102864917e-05 7.198097062301164e-06 7.09393996922851e-06 5.529345270674442e-06 7.702802463124082e-06 4.742718804251739e-06 0 6.772301855865409e-06 2.448322758107392e-06 114:-72 115:-68 121:-77 122:-73 124:-82 125:-76 134:-75 137:-75 143:-80 158:-82 162:-82 
0 0 0 0 0 0 0 0 0 0 0 0 0 0 0 0 0 0 0 0 0 0 0 0 0 0 0 0 0 0 0 0 0.0003386474980278044 0 0 0 0 0 0 0 0 0 0 0 0 0 114:-65 115:-64 117:-72 121:-68 122:-74 123:-83 124:-72 125:-80 129:-84 132:-72 137:-79 138:-85 
0 0 0 0 0 0 0 0 0 1.382078143811972e-05 0 0 0 5.43320250570175e-06 0 0 0 0 0 0 0 0 0 0 0 0 0 0 0 0 0 0 0 0 0 0 0 0 0 0 0 0 0 0 0 0 114:-65 115:-64 117:-71 121:-69 122:-74 124:-71 125:-79 129:-84 132:-72 149:-86 
0 0 0 0 0 0 0 0 0 0 0 0 0 0 0 0 0 0 0 0 0 0 0 0 0 0 0 0 0 0 0 0 0 0 0 0 0 0 0 0 0 0 0 2.256200833284941e-06 0 0 114:-62 115:-65 116:-76 117:-74 121:-70 122:-73 123:-76 124:-75 125:-73 129:-84 137:-73 
0 0 0 0 0 0 0 0 0 6.490288097484053e-06 0 0 0 0 0 0 0 0 0 0 0 0 0 0 0 0 0 0 0 0 0 0 0 0 0 0 0 0 0 0 0 0 0 0 0 0 114:-72 115:-68 121:-77 122:-73 124:-82 125:-78 129:-84 134:-77 137:-77 143:-80 158:-82 162:-82 
0 0 0 0 0 0 0 0 0 0 0 0 0 0 0 0 0 0 0 0 0 0.04224308443229802 0 0 0 0 0 0 0 0 0 0 0 0 0 0 0 0 0 0 0 0 0 0 0 0 114:-67 115:-67 117:-75 121:-75 122:-78 124:-76 125:-74 129:-85 132:-78 134:-75 137:-74 
0 0 0 0 0 0 0 0 0 0 0 0 0 0 0 0 0 0 0 0 0 0 0 0 0 0 0 0 0 0 0 0 0.000125762489265073 0 0 0 0 0 0 0 0 0 0 0 0 0 114:-71 115:-70 116:-78 121:-76 122:-77 123:-81 125:-73 129:-87 131:-82 134:-72 137:-72 
1.536145250719006e-05 9.302264396263719e-06 9.113893032422788e-06 7.218005280014499e-06 1.550209119289171e-05 9.985984690064945e-06 1.177651973081189e-05 4.164060075575402e-06 1.358492897229746e-05 0 9.02473388626029e-06 1.156408558213881e-05 7.899910931254151e-06 2.35037997530793e-06 6.19920657046097e-06 1.836357484712905e-05 9.700892184763382e-06 0 8.469242928423079e-06 9.977844028917983e-06 7.30360446604618e-06 0 9.237458548789158e-06 9.873584401912068e-06 1.376551779501245e-05 1.246682993157144e-05 2.160692910434321e-06 6.164225227716077e-06 3.923222457995765e-06 2.879342329991682e-06 1.374231098015729e-05 1.615371242554577e-05 0 0 1.042803947465902e-05 1.319326774873449e-05 7.797467413967972e-06 7.517055232638348e-06 1.542606901988601e-05 1.475872537015748e-05 1.132971874544734e-05 1.702976398256171e-05 9.717149409997195e-06 0 1.389906312447937e-05 5.007444541805182e-06 114:-70 115:-70 116:-78 121:-77 122:-77 123:-81 125:-73 129:-81 137:-72 
0 0 0 0 0 0 0 0 0 0 0 0 0 0 0 0 0 0 0 0 0 0 0 0 0 0 0 0 0 0 0 0 0.0002891397190601578 0 0 0 0 0 0 0 0 0 0 0 0 0 114:-67 115:-68 116:-78 117:-77 121:-71 122:-76 124:-78 125:-70 129:-84 131:-78 132:-75 137:-69 138:-84 
4.68757586536875e-06 2.857054613043791e-06 2.773794569823389e-06 2.207597177172032e-06 4.731215294670858e-06 3.056349989206941e-06 6.550931092329504e-06 0 4.138149934130766e-06 0 8.802855419347966e-06 3.54115420088463e-06 2.417176626358515e-06 0 5.730410388117893e-06 4.467811965503565e-06 2.961970819681221e-06 0 2.58868932382847e-06 3.036162588980709e-06 2.230226782767953e-06 0 2.823163441483486e-06 7.018214814887275e-06 4.300767596294563e-06 3.837330293185868e-06 3.71407148279738e-06 0 0 3.250357718854142e-06 4.202924543154998e-06 5.069362594468672e-06 0 0 3.194626775493137e-06 4.513305474027771e-06 2.3866562140937e-06 1.060597778751563e-05 4.699180747244299e-06 4.581700549474621e-06 3.454708514491592e-06 5.73096525811292e-06 2.971013151537743e-06 6.156683677732461e-06 4.246630927529568e-06 1.523466113122231e-06 115:-71 117:-74 121:-74 122:-77 124:-75 125:-67 129:-82 137:-68 143:-82 162:-81 
0 0 0 0 0 0 0 2.380915703500413e-06 0 2.155388246117399e-06 0 0 0 0 4.29769261744244e-06 0 0 0 0 0 0 7.025377248913446e-05 0 0 0 0 0 0 2.882605299456929e-06 0 0 0 0 0 0 0 0 0 0 0 0 0 0 4.109243254244905e-06 0 0 114:-72 115:-71 116:-83 121:-77 122:-76 123:-81 124:-79 125:-71 129:-84 131:-82 147:-86 
0 0 0 0 0 0 0 0 0 5.187735337353413e-06 0 0 0 0 0 0 0 0 0 0 0 0 0 0 0 0 0 0 0 0 0 0 0 0 0 0 0 0 0 0 0 0 0 0 0 0 114:-70 115:-72 116:-81 117:-77 121:-76 122:-73 124:-79 125:-75 129:-87 132:-78 134:-72 137:-75 143:-82 148:-83 157:-84 158:-83 
0 0 0 0 0 0 0 0 0 0 0 0 0 0 0 0 0 0 0 0 0 0.0005092762954338719 0 0 0 0 0 0 0 0 0 0 0 0 0 0 0 0 0 0 0 0 0 0 0 0 114:-68 115:-69 117:-71 121:-74 122:-75 124:-73 125:-72 129:-82 134:-73 137:-73 143:-84 158:-84 
0 0 0 0 0 0 0 0 0 0 0 0 0 0 7.645229003033874e-06 0 0 0 0 0 0 0.1039235602831246 0 0 0 0 0 0 0 0 0 0 0 0 0 0 0 0 0 0 0 0 0 9.690606589009835e-06 0 0 114:-63 115:-63 117:-75 121:-69 122:-76 124:-75 125:-77 129:-81 132:-72 134:-77 137:-67 
0 0 0 0 0 0 0 0 0 0 0 0 0 0 0 0 0 0 0 0 0 0 0 0 0 0 0 0 0 0 0 0 0 0 0 0 0 0 0 0 0 0 0 6.560938999905941e-06 0 0 114:-66 115:-65 117:-80 121:-72 122:-74 124:-80 125:-72 129:-83 131:-81 132:-81 137:-74 
0 0 0 0 0 0 0 0 0 0 0 0 0 0 0 0 0 0 0 0 0 0.001569381673005461 0 0 0 0 0 0 0 0 0 0 4.259563763536892e-05 0 0 0 0 0 0 0 0 0 0 0 0 0 114:-65 115:-64 117:-71 121:-69 122:-75 124:-71 125:-77 129:-84 132:-72 134:-77 149:-86 
0 0 0 0 0 0 0 0 0 0 0 0 0 0 0 0 0 0 0 0 0 0 0 0 0 0 0 0 0 0 0 0 0.0001411956538968471 0 0 0 0 0 0 0 0 0 0 0 0 0 114:-65 115:-66 116:-76 117:-75 121:-71 122:-73 123:-76 124:-75 125:-72 129:-87 131:-82 134:-72 137:-72 
0 0 0 0 0 0 0 0 0 0 0 0 0 0 0 0 0 0 0 0 0 0.001606914330873606 0 0 0 0 0 0 0 0 0 0 0 0 0 0 0 0 0 0 0 0 0 0 0 0 114:-68 115:-66 117:-72 121:-73 122:-78 124:-72 125:-77 129:-85 132:-78 134:-75 137:-75 148:-82 157:-84 
0 0 0 0 0 0 0 0 0 0 0 0 0 0 0 0 0 0 0 0 0 0 0 0 0 0 0 0 0 0 0 0 0.0001582726812179782 0 0 0 0 0 0 0 0 0 0 0 0 0 114:-68 115:-68 116:-83 117:-70 121:-72 122:-76 123:-82 124:-71 125:-73 129:-81 131:-85 132:-74 134:-72 137:-72 143:-80 
0 0 0 0 0 0 0 1.316435358644166e-05 0 1.482665570503062e-05 0 0 0 1.0902297708369e-05 0 0 0 0 0 0 0 0 0 0 0 0 3.897366689488053e-06 0 1.778860736364961e-05 7.614573505754169e-06 0 0 0 0 0 0 0 0 0 0 0 0 0 0 0 0 115:-67 117:-74 121:-73 122:-76 123:-78 124:-74 125:-76 129:-83 132:-76 137:-75 143:-79 147:-81 148:-83 157:-82 158:-80 
0 0 0 0 0 0 0 0 0 0 0 0 0 0 0 0 0 0 0 0 0 0.00436789129633431 0 0 0 0 0 0 0 0 0 0 0 0 0 0 0 0 0 0 0 0 0 0 0 0 114:-72 115:-72 117:-81 121:-77 122:-76 124:-83 125:-74 129:-87 134:-76 137:-74 143:-80 147:-84 157:-85 158:-80 162:-81 
0 0 0 0 0 0 0 0 0 1.004687493630459e-05 0 0 0 0 0 0 0 0 0 0 0 0 0 0 0 0 0 0 0 0 0 0 0 0 0 0 0 0 0 0 0 0 0 0 0 0 114:-70 115:-67 117:-73 121:-76 122:-74 124:-73 125:-71 129:-85 132:-82 134:-72 137:-72 143:-81 148:-83 157:-85 
0 0 0 0 0 0 0 0 0 0 0 0 0 0 0 0 0 0 0 0 0 0 0 0 0 0 0 6.700506706706785e-06 0 1.491579074248683e-07 0 0 0 0 0 0 0 0 0 0 0 0 0 0 0 0 115:-67 116:-79 117:-75 121:-73 122:-75 123:-79 124:-75 125:-71 129:-84 132:-76 134:-69 137:-70 143:-79 149:-84 150:-83 158:-81 162:-80 163:-84 
0 0 0 0 0 0 0 0 0 0 0 0 0 0 0 0 0 0 0 0 0 0 0 0 0 0 0 0 0 0 0 0 0.000270678735221101 0 0 0 0 0 0 0 0 0 0 0 0 0 114:-62 115:-63 116:-76 117:-74 121:-68 122:-72 123:-76 124:-76 125:-73 129:-85 131:-82 132:-76 137:-73 
0 0 0 0 0 0 0 0 0 0 0 0 0 0 0 0 0 0 0 0 0 0 0 0 0 0 0 0 0 0 0 0 0.001441392028719423 0 0 0 0 0 0 0 0 0 0 0 0 0 114:-62 115:-63 116:-76 117:-74 121:-68 122:-73 123:-76 124:-76 125:-73 129:-84 132:-76 137:-73 
0 0 0 0 0 0 0 0 0 0 0 0 0 4.750047657202193e-06 0 0 0 1.192682333488281e-05 0 0 0 0 0 0 0 0 7.63088288917156e-06 3.224967285449672e-06 0 2.016598213968579e-06 0 0 0 5.849197345276807e-06 0 0 0 0 0 0 0 0 0 0 0 0 114:-74 115:-69 116:-77 117:-72 121:-75 122:-77 123:-78 124:-74 125:-74 129:-80 137:-74 138:-87 143:-79 149:-84 150:-83 158:-81 162:-81 163:-84 
-2.144873353587926e-06 8.526043873142711e-06 3.360895112754331e-06 9.503735158648535e-06 0.0001884719331980361 7.809469089289599e-06 3.745157169245063e-06 1.841189528998779e-06 2.021938709076777e-05 1.820193746899876e-06 4.581850790545222e-06 4.340807014104851e-06 1.14409338643585e-05 1.796199218751559e-06 1.751958680766854e-06 5.569146552070912e-06 7.110715983123478e-06 1.535577480043771e-06 1.082583307107276e-05 5.782231740217217e-06 1.225191527556159e-05 2.962690262351826e-06 1.455219103823135e-05 1.285435867334464e-06 9.091874730665566e-05 1.658261764327503e-08 1.995748782305196e-06 3.295297944951398e-06 3.010421777764466e-06 1.779985912528492e-06 7.366994591671437e-05 5.657676925155116e-06 1.895004509649483e-06 1.498858078484638e-06 3.930639207483908e-06 2.741658785754828e-06 7.14656416353955e-06 2.943823589250755e-06 4.208661857750979e-06 4.508813819921039e-06 1.164802080020738e-05 6.415893917256819e-06 2.152907172059698e-06 1.538957638973516e-06 6.11842356891197e-06 9.79689711440786e-06 5:-64 6:-61 7:-60 13:-82 14:-89 15:-61 18:-84 20:-83 21:-82 22:-87 23:-88 24:-84 25:-87 26:-94 27:-86 28:-82 32:-93 33:-87 35:-77 44:-83 45:-83 46:-75 47:-75 48:-84 49:-71 50:-98 51:-70 52:-55 53:-56 54:-89 
-0 0 0 0 0 0 0 0 0.068943766178668 0 0 0 0 0 0 0 0 0 0 0 0 0 0 0 0 0 0 0 0 0 0 0 0 0 0 0 0 0 0 0 0 0 0 0 0 0 56:-90 57:-76 58:-90 59:-75 60:-74 61:-91 63:-83 64:-83 65:-89 66:-89 67:-90 69:-94 
-0 0 0 0 0.3046693716185555 0 0 0 0 0 0 0 0 0 0 0 0 0 0 0 0 0 0 0 1 0 0 0 0 0 0 0 0 0 0 0 0 0 0 0 0 0 0 0 0 0 56:-87 57:-78 58:-88 59:-79 60:-84 61:-88 63:-89 64:-88 67:-89 
-0 0 0 0 0 0 0 0 0.0009463038696225197 0 0 0 0 0 0 0 0 0 0 0 0 0 0 4.176996756251535e-07 0 0 0 0 0 0 0.0001631724998850676 0 0 0 0 0 0 0 0 0 0 0 0 0 3.614238632955345e-06 0 57:-77 59:-77 60:-77 65:-91 66:-91 67:-87 68:-92 
-0 0 0 0 0.1302565396995212 0 0 0 0.1043370563051665 0 4.701164562036444e-05 0 0 0 0 0 0 0 0 0 0 0 0 0.0001444765215841673 0 0 0 0 0 0 1 0 0 0 0 0 0 2.781301508889014e-05 0 0 0 3.724080322734123e-05 0 0 0.0001281045429007714 0 57:-79 59:-80 60:-80 63:-91 64:-91 
-0 0 0 0 4.212068546968753e-05 0 0 0 0 0 0 0 0 0 0 0 0 0 0 0 0 0 0 0 0 0 0 0 0 0 0 0 0 0 0 0 0 0 0 0 0 0 0 0 0 0 57:-76 58:-96 59:-76 60:-77 63:-91 65:-91 66:-93 68:-92 70:-95 71:-98 
-0 0 0 0 0 0 0 0 0 0 3.239595624184409e-05 0 0 0 0 0 0 0 0 0 0 0 0 0 0.980027670159484 0 0 0 0 0 0 0 0 0 0 0 0 1.033448858988929e-06 0 0 0 1.253316801787621e-06 0 0 5.494067163492962e-05 0 57:-80 58:-93 59:-77 60:-77 63:-87 64:-88 67:-87 69:-94 
-0 0 0 0 0 0 0 0 0 0 1.452192885512223e-06 0 0 0 0 0 0 0 0 0 0 0 0 1.723892723440763e-07 1 0 0 0 0 0 0 0 0 0 0 0 0 5.149057914036886e-06 0 0 0 9.917549682837388e-06 0 0 1.331869954745325e-05 0 56:-87 57:-73 58:-87 59:-74 60:-74 61:-86 63:-91 64:-92 67:-89 
-0 0 0 0 0 0 0 0 0.00769029507697953 0 0 0 0 0 0 0 0 0 0 0 0 0 0 0 0 0 0 0 0 0 0 0 0 0 0 0 0 0 0 0 0 0 0 0 0 0 56:-87 57:-82 58:-87 59:-83 60:-82 61:-86 65:-96 66:-92 
-0 0 0 0 0 0 0 0 0.2138559107173877 0 0 0 0 0 0 0 0 0 0 0 0 0 0 0 0 0 0 0 0 0 0 0 0 0 0 0 0 0 0 0 0 0 0 0 0 0 56:-86 57:-87 58:-86 59:-87 60:-88 61:-86 63:-89 64:-88 65:-95 66:-94 
-0 0 0 0 0.01943638974405972 0 0 0 0 0 0 0 0 0 0 0 0 0 0 0 0 0 0 0 0.02304517128195015 0 0 0 0 0 0.0005370140476189899 0 0 0 0 0 0 0 0 0 0 0 0 0 0 0 57:-86 58:-93 
-0 0 0 0 0 0 0 0 0 0 0 0 0 0 0 0 0 0 0 0 0 0 0 0 0.00202342988583433 0 0 0 0 0 0 0 0 0 0 0 0 0 0 0 0 0 0 0 0 0 57:-77 58:-96 59:-78 60:-78 63:-91 65:-91 66:-92 68:-92 71:-98 
-0 0 0 0 0 0 0 0 0 0 0 0 0 0 0 0 0 0 0 0 0 0 0 0 1 0 0 0 0 0 0 0 0 0 0 0 0 0 0 0 0 0 0 0 0 0 56:-90 57:-75 58:-91 59:-75 60:-76 61:-91 63:-87 64:-88 67:-87 
-0 0 0 0 0 0 0 0 0.00243905662543269 0 3.275947353286156e-06 0 0 0 0 0 0 0 0 0 0 0 0 4.646567898356348e-07 0 0 0 0 0 0 0 0 0 0 0 0 0 2.277881670383261e-06 0 0 0 5.364226533085759e-06 0 0 9.575339068188296e-07 0 57:-78 59:-77 60:-77 64:-89 65:-91 66:-91 67:-90 68:-92 
-0 0 0 0 0 0 0 0 0 0 0 0 0 0 0 0 0 0 0 0 0 0 0 0 0.6336852629622165 0 0 0 0 0 0 0 0 0 0 0 0 0 0 0 0 0 0 0 0 0 57:-85 58:-91 59:-85 60:-85 63:-91 64:-90 67:-86 
-0 0 0 0 0 0 0 0 0 0 1.217570280694353e-05 0 0 0 0 0 0 0 0 0 0 0 0 1.928804257410624e-06 0 1.962562144351446e-08 0 0 0 0 0 0 0 0 0 0 0 6.985425922181634e-06 0 0 0 1.766793289523473e-05 0 0 3.807555471518181e-05 0 57:-81 59:-78 60:-79 64:-89 66:-91 67:-90 68:-92 
-0 0 0 0 0.000118695767229273 0 0 0 0 0 0 0 0 0 0 0 0 0 0 0 0 0 0 0 0 5.774481631715476e-08 0 0 0 0 0.0002820311977062 0 0 0 0 0 0 0 0 0 0 0 0 0 0 0 57:-76 59:-75 60:-76 69:-94 
-0 2.270250933461149e-06 6.783335044005136e-06 2.50851329555759e-06 0 0 0 0 0 0 0 3.375617840172904e-06 7.511569388814571e-07 0 0 0 8.234325342798442e-06 0 5.92943526624773e-06 4.651606577910141e-06 2.253459796315688e-06 0 0 0 0 0 0 0 0 0 0 0 0 0 3.453011765870554e-06 0 4.763748897801099e-06 0 0 0 6.577826871791098e-06 0 4.81671555090566e-06 0 0 0 14:-89 23:-88 26:-94 32:-93 33:-87 48:-84 51:-54 52:-55 53:-56 54:-89 55:-66 56:-61 57:-87 58:-88 
-0 0 0 0 0 0 0 0 0 0 0 0 0 0 0 0 0 0 0 0 0 0 0 0 0 2.687540480910827e-05 0 0 0 0 0.6110867603599844 0 0 0 0 0 0 0 0 0 0 0 0 0 0 0 57:-85 59:-83 60:-86 
-1.90860616089637e-05 1.692203845176825e-05 1.814671899207147e-05 1.134669125569564e-05 1 1.872317524468991e-05 3.326934505595695e-05 1.635903228234595e-05 0 1.620112008415728e-05 0 2.605652019412592e-05 1.284892029705484e-05 1.595624940646829e-05 1.556397335101715e-05 4.948464243856871e-05 1.970422121055497e-05 1.361200994001327e-05 1.595753373680029e-05 1.960196192489481e-05 1.152638745783831e-05 2.630114589004681e-05 1.752983808826457e-05 1.145186576984872e-05 0.58086551651203 8.541494437098535e-05 1.770102130949425e-05 2.926055217716838e-05 2.675246693178531e-05 1.579892446401096e-05 0 5.028354092678734e-05 1.684349578433006e-05 1.332075089439917e-05 2.167772346347856e-05 2.43596141905006e-05 1.343409707493983e-05 0 3.90136027451575e-05 4.006627046866573e-05 2.632724179281795e-05 0 1.987266938094458e-05 1.366960973749467e-05 0 6.351633322760236e-06 57:-66 59:-77 60:-75 
-0 0 0 0 0.734462111390085 0 0 0 0 0 0 0 0 0 0 0 0 0 0 0 0 0 0 0 0 0.0003231288824535237 0 0 0 0 1 0 0 0 0 0 0 0 0 0 0 0 0 0 0 0 57:-76 59:-77 60:-77 
-0 0 0 0 0 0 0 0 0 0 0 0 0 0 0 0 0 0 0 0 0 0 0 0 0.07354394203992151 0 0 0 0 0 0 0 0 0 0 0 0 0 0 0 0 0 0 0 0 0 56:-84 57:-82 58:-85 59:-83 60:-80 61:-84 67:-91 
-0 0 0 0 0 0 0 0 0 0 0 0 0 0 0 0 0 0 0 0 0 0 0 0 8.824310952964699e-05 0 0 0 0 0 0 0 0 0 0 0 0 0 0 0 0 0 0 0 0 0 57:-75 58:-96 59:-75 60:-75 63:-91 65:-90 66:-92 68:-92 70:-95 71:-98 
-1.880840696610457e-05 1.450259823664167e-05 1.146420921218081e-05 8.820408140503758e-06 0.1301192409345809 1.851417451445427e-05 3.286261657760694e-05 1.616818165795607e-05 0 1.598180310418719e-05 1.509586474243007e-05 2.245437197168084e-05 1.197511702278855e-05 1.578163272819989e-05 1.539088998989834e-05 4.888387221726749e-05 1.159033444942005e-05 1.34540401970635e-05 1.008973812798629e-05 1.4870371623779e-05 9.246915695601937e-06 2.595871608050332e-05 1.730160700118621e-05 1.145555212718612e-05 0.07439735208245001 3.407169659112657e-07 1.747056148918547e-05 2.887783919688295e-05 2.641057546219155e-05 1.561288818525779e-05 0.005984103296134019 4.962887046434003e-05 1.6623048684695e-05 1.315266266890171e-05 1.810296026736858e-05 2.403408220314745e-05 8.718949203884969e-06 2.106393098066117e-05 3.635224510239354e-05 3.955417983798879e-05 1.969727788668958e-05 4.070274076190792e-05 1.501473556634289e-05 1.348322226849055e-05 3.199824569227903e-05 6.230803588380564e-06 57:-86 58:-93 
-0 0 0 0 0 0 0 0 0 0 0 0 0 0 0 0 0 0 0 0 0 0 0 0 1 0 0 0 0 0 0 0 0 0 0 0 0 1.736165868442458e-06 0 0 0 0 0 0 1.341821040894002e-05 0 57:-79 58:-92 59:-80 60:-81 63:-87 64:-87 67:-88 
-0 0 0 0 0 0 0 0 0.004999094300490781 0 0 0 0 0 0 0 0 0 0 0 0 0 0 0 0 0 0 0 0 0 0 0 0 0 0 0 0 0 0 0 0 0 0 0 0 0 56:-90 57:-90 58:-91 59:-91 60:-92 63:-92 64:-91 65:-88 66:-87 
-0 0 0 0 0 0 0 0 0 0 0 0 0 0 0 0 0 0 0 0 0 0 0 0 0 0 0 0 0 0 1 0 0 0 0 0 0 0 0 0 0 0 0 0 0 0 57:-87 59:-88 60:-86 
-0 -0 0 0 0 0 0 0 0 0 0 0 0 0 0 0 3.962624793190673e-06 0 0 1.051116184168374e-06 0 0 0 0 0 0 0 0 0 0 0 0 0 0 0 0 0 0 0 0 0 0 0 0 0 0 5:-89 15:-86 32:-91 35:-90 44:-76 45:-76 48:-76 50:-91 51:-62 52:-62 53:-62 100:-56 101:-87 102:-82 103:-89 104:-88 105:-56 106:-82 110:-93 111:-92 112:-89 130:-89 
-0 -0 0 0 0 0 0 0 0 0 0 0 0 0 0 0 0 0 0 0 0 0 0 0 0 0 0 0 0 0 0 0 0 0 0 0 3.777030393764482e-06 0 0 0 0 0 0 0 0 0 5:-90 9:-90 19:-89 33:-88 35:-91 44:-74 45:-75 48:-75 51:-56 52:-56 53:-56 100:-47 101:-86 102:-86 103:-91 104:-89 105:-47 106:-86 108:-89 113:-48 
-0 -0 0 1.327082623125493e-05 0 0 0 0 0 0 0 0 0 0 0 0 0 0 0 3.052694196596806e-06 0 0 0 0 0 0 0 0 0 0 0 0 0 0 0 0 2.257368805977752e-06 0 0 0 0 0 0 0 0 0 5:-89 18:-86 24:-86 26:-86 32:-91 33:-84 35:-92 44:-79 45:-79 48:-79 51:-53 52:-53 53:-54 100:-49 102:-85 103:-89 104:-89 105:-48 106:-85 107:-88 112:-89 113:-49 130:-89 
-0 -0 0 2.767400749281568e-05 0 1.047976151695617e-05 0 0 0 0 0 0 0 0 0 0 0 0 0 0 4.336327626112761e-06 0 0 0 0 0 0 0 0 0 0 0 0 0 0 0 0 0 0 0 0 0 0 0 0 0 5:-89 9:-90 14:-87 18:-83 19:-90 24:-84 26:-84 31:-95 33:-87 44:-84 45:-84 48:-84 51:-60 52:-60 53:-61 100:-47 101:-86 102:-87 104:-84 105:-47 106:-87 113:-46 
-3.297544918274584e-07 -2.254279281174081e-06 0 3.017737669393112e-05 0 3.983886576069329e-07 2.100064485505075e-07 2.984676067173535e-07 4.55862490689973e-07 2.969542662812454e-07 3.89218924746734e-07 0 1.328297922752527e-05 2.990412552286935e-07 2.54102728181037e-07 2.202586901182152e-07 9.896941517930985e-06 2.729968732455845e-07 1.068431679639852e-05 0 0 3.991129435066933e-07 9.936958264242887e-06 1.322519846613223e-07 4.534397446047311e-07 0 2.865929116010862e-07 2.526810878464926e-07 3.938681512768118e-07 0 0 5.318660000830059e-07 3.029647851101196e-07 2.639497619854515e-07 0 3.820898343210953e-07 0 3.740047026439156e-07 4.778148438844198e-07 0 1.242268231714837e-05 4.865425967751213e-07 0 0 4.669839926594198e-07 2.628891094678899e-06 5:-87 7:-87 9:-87 18:-84 19:-87 23:-87 24:-85 26:-85 31:-87 32:-90 35:-90 44:-76 45:-76 48:-76 51:-58 52:-58 100:-47 101:-89 102:-89 105:-47 106:-89 108:-87 109:-86 113:-46 
-0 -0 0 0 0 0 0 0 0 0 0 0 0 0 0 0 0 0 0 1.773340148926791e-05 0 0 0 0 0 0 0 0 0 0 0 0 0 0 0 0 1.189065117193841e-07 0 0 0 0 0 0 0 0 0 5:-92 14:-83 33:-85 35:-91 44:-80 45:-79 48:-80 50:-90 51:-66 52:-65 53:-65 100:-52 101:-79 102:-79 103:-93 104:-87 105:-52 106:-79 110:-94 111:-93 112:-89 113:-57 
-7.975683471778621e-07 -4.842753403039447e-06 2.790043580821662e-06 0 2.944537283161414e-06 0 1.504056369020425e-06 7.221381749199901e-07 1.094581900313953e-06 7.109041231204133e-07 9.790874903628067e-07 2.264362050637741e-06 3.053751349554678e-07 7.054640264663083e-07 7.650013567731462e-07 1.856493561015785e-06 0 6.246578958808169e-07 5.231246074787425e-06 0 4.346811152983152e-06 9.449859634464974e-07 5.917070055930836e-07 1.467769582276429e-06 1.081186975117646e-06 2.453833090496295e-06 7.93750110195553e-07 1.325035469413557e-06 9.600048413336575e-07 1.317729592937451e-06 2.548639353740763e-06 1.25259969803184e-06 7.38486288111993e-07 6.200866813750485e-07 2.049594512258299e-06 9.069663993135411e-07 0 8.995978981702667e-07 1.130106458710263e-06 2.306958705145118e-06 1.639794846047077e-06 1.160789807249367e-06 2.40651299972757e-06 1.323787730177319e-06 1.115995595202626e-06 4.022590803820178e-06 4:-92 5:-87 6:-88 12:-90 14:-85 23:-85 32:-93 33:-85 35:-91 44:-77 45:-77 48:-77 51:-56 52:-56 53:-67 100:-52 102:-80 104:-87 105:-52 106:-80 109:-86 113:-53 
-0 -1.396968675090765e-07 0 0 7.375179551331189e-07 6.452023316360597e-06 0 0 0 0 0 0 0 0 0 0 0 0 0 0 8.839000054412632e-06 0 0 0 0 3.39256987341381e-07 0 0 0 0 3.211501091263008e-07 0 0 0 0 0 0 0 0 0 0 0 8.104539222510334e-07 0 0 0 5:-89 7:-88 9:-89 15:-88 18:-84 19:-89 23:-89 24:-85 26:-84 33:-91 45:-83 48:-83 50:-92 51:-56 52:-56 53:-57 100:-49 101:-84 102:-84 104:-89 105:-49 106:-84 113:-49 
-0 -0 0 0 0 0 0 0 0 0 0 0 1.920563682817057e-07 0 0 0 0 0 5.718415925111036e-06 0 0 0 0 0 0 0 0 0 0 0 0 0 0 0 0 0 9.238033952161144e-06 0 0 0 0 0 0 0 0 0 5:-86 6:-87 9:-87 14:-84 18:-85 19:-87 23:-90 24:-84 26:-85 31:-88 33:-91 45:-76 48:-76 51:-59 52:-59 53:-57 100:-46 101:-89 102:-88 103:-93 105:-46 106:-88 108:-88 109:-86 113:-47 
-0 -0 0 1.40357300669494e-05 0 0 0 0 0 0 0 0 0 0 0 0 0 0 0 0 0 0 0 0 0 0 0 0 0 0 0 0 0 0 0 0 0 0 0 0 0 0 0 0 0 0 5:-86 7:-86 15:-88 24:-86 26:-87 32:-90 44:-84 45:-84 48:-83 50:-93 51:-59 52:-60 53:-62 100:-48 101:-84 102:-84 103:-87 104:-89 105:-47 106:-84 112:-87 113:-48 130:-87 
-0 -0 0 0 0 0 0 0 0 0 0 0 0 0 0 0 7.501061522976289e-05 0 0 6.552971021464354e-06 0 0 0 0 0 0 0 0 0 0 0 0 0 0 0 0 1.475946201990077e-06 0 0 0 0 0 0 0 0 0 5:-90 23:-85 33:-84 44:-73 45:-72 48:-72 50:-91 51:-61 52:-61 53:-66 100:-56 101:-88 102:-83 104:-80 105:-56 106:-83 107:-87 108:-87 109:-87 110:-95 111:-94 
-1.716747460587891e-05 -2.204220726724155e-05 1.638979125572982e-05 0 3.209315431805792e-05 1.298270515869253e-05 2.430532087596363e-05 1.560462998341866e-05 2.379598349693446e-05 1.549425098981797e-05 2.094266834975078e-05 2.107910637238241e-05 1.40071274860788e-05 1.536086802806047e-05 1.524507189383557e-05 2.924569236640509e-05 3.692907268999156e-05 1.382125855830162e-05 4.253908258249708e-06 9.938589285677864e-06 6.801084151064068e-06 2.059226603972458e-05 9.733939546193145e-06 2.230353430750288e-05 2.343586840222813e-05 2.766221567079895e-05 1.644427951313074e-05 2.279037760648059e-05 2.078003096359785e-05 1.680521552145998e-05 2.882611369450445e-05 2.750405775633125e-05 1.589749121205922e-05 1.359997411760792e-05 1.760203809306167e-05 1.975995294045217e-05 8.801884472275887e-06 1.954248414586741e-05 2.452657753976641e-05 2.87607987221624e-05 9.102784742321514e-06 2.528229185909822e-05 1.894388829782783e-05 1.57098104126773e-05 2.427238367150619e-05 5.038637968155176e-06 30:-92 100:-51 101:-81 102:-81 103:-92 104:-88 105:-51 106:-81 
-0 -0 0 0 0 0 0 0 0 0 0 0 3.299566125180862e-06 0 0 0 0 0 0 0 0 0 0 0 0 0 0 0 0 0 0 0 0 0 0 0 0 0 0 0 0 0 0 0 0 0 5:-86 6:-87 7:-88 9:-89 18:-84 19:-89 23:-91 24:-85 26:-84 33:-91 45:-83 48:-83 51:-56 52:-56 53:-57 100:-49 102:-83 103:-87 104:-87 105:-49 106:-84 112:-87 113:-49 130:-86 
-0 -0 0 2.065485262500695e-07 0 0 0 0 0 0 0 0 0 0 0 0 0 0 0 0 0 0 0 0 0 0 0 0 0 0 0 0 0 0 0 0 0 0 0 0 0 0 0 0 0 0 5:-86 6:-87 7:-87 9:-91 15:-88 18:-85 19:-91 24:-86 26:-87 31:-92 32:-90 33:-87 35:-91 44:-84 45:-84 48:-83 50:-93 51:-59 52:-60 53:-62 100:-47 101:-84 102:-84 103:-90 104:-86 105:-47 106:-85 112:-90 113:-47 130:-90 
-0 -0 0 0 0 4.843607151198735e-06 0 0 0 0 0 0 0 0 0 0 0 0 0 0 0 0 0 0 0 0 0 0 0 0 0 0 0 0 0 0 0 0 0 0 0 0 0 0 0 0 5:-88 6:-88 9:-89 14:-86 18:-84 19:-89 24:-84 26:-84 31:-89 35:-91 44:-76 45:-76 48:-76 51:-58 52:-59 53:-58 100:-46 101:-87 102:-87 104:-88 105:-46 106:-87 113:-47 
-0 -0 0 0 0 0 0 0 0 0 0 0 0 0 0 0 0 0 0 0 0 0 0 0 0 0 0 0 0 0 0 0 0 0 0 0 0 0 0 0 0 0 0 0 0 4.5092663052719e-06 5:-87 6:-87 7:-87 9:-88 14:-87 15:-87 18:-83 19:-88 24:-83 26:-84 30:-93 31:-89 33:-87 45:-76 48:-77 51:-58 52:-58 100:-46 101:-89 102:-89 104:-91 105:-46 106:-89 108:-89 
-0 -0 0 0 0 0 0 0 0 0 0 0 0 0 0 0 0 0 0 0 3.790067882166606e-06 0 0 0 0 0 0 0 0 0 0 0 0 0 0 0 0 0 0 0 0 0 0 0 0 0 5:-89 9:-87 18:-85 19:-87 23:-87 24:-85 26:-84 33:-89 44:-76 45:-76 48:-76 51:-58 52:-58 53:-59 100:-46 101:-89 102:-89 104:-91 105:-46 106:-89 108:-87 109:-86 113:-46 
-0 -0 0 0 0 2.187665390569393e-06 0 0 0 0 0 0 0 0 0 0 0 0 0 0 0 0 0 0 0 0 0 0 0 0 0 0 0 0 0 0 0 0 0 0 0 0 0 0 0 0 5:-87 9:-89 14:-89 18:-88 19:-89 23:-88 26:-87 45:-77 48:-76 51:-56 52:-56 100:-47 101:-89 102:-88 104:-90 105:-47 106:-88 107:-87 108:-88 109:-87 113:-48 
-0 -0 0 0 0 0 0 0 0 0 0 0 0 0 0 0 0 0 0 0 1.943767547722152e-06 0 0 0 0 0 0 0 0 0 0 0 0 0 0 0 0 0 0 0 0 0 0 0 0 0 4:-90 5:-87 12:-90 30:-91 32:-88 33:-87 45:-76 48:-76 51:-58 52:-58 53:-58 100:-52 101:-81 102:-81 104:-88 105:-52 106:-81 108:-89 113:-53 
-0 -0 0 0 0 0 0 0 0 0 0 0 0 0 0 0 0 0 0 1.320811488056517e-06 0 0 0 0 0 0 0 0 0 0 0 0 0 0 0 0 0 0 0 0 0 0 0 0 0 0 4:-91 5:-90 14:-86 15:-86 30:-91 32:-91 35:-90 44:-76 45:-76 48:-76 50:-91 51:-59 52:-59 53:-62 100:-54 101:-81 102:-85 103:-89 104:-88 105:-53 106:-85 110:-93 111:-92 112:-89 113:-53 130:-89 
-0 -0 0 0 0 0 0 0 0 0 0 0 0 0 0 0 0 0 0 0 0 0 0 0 0 0 0 0 0 0 0 0 0 0 0 0 3.526475926229329e-06 0 0 0 0 0 0 0 0 0 4:-90 5:-89 12:-90 14:-86 15:-88 30:-92 45:-77 48:-77 51:-58 52:-58 100:-54 101:-80 102:-80 103:-90 104:-88 105:-54 106:-80 108:-89 113:-55 130:-89 
-0 -0 0 0 0 8.66233328761429e-06 0 0 0 0 0 0 9.744313813006671e-06 0 0 0 0 0 2.252807956378287e-05 0 1.050938993042897e-05 0 3.519343477546897e-06 0 0 0 0 0 0 0 0 0 0 0 0 0 1.678501125145556e-05 0 0 0 1.028888280358924e-05 0 0 0 0 9.005518201498992e-07 5:-87 9:-88 14:-90 18:-85 19:-87 23:-89 24:-85 26:-85 31:-90 33:-90 35:-91 51:-61 52:-61 53:-59 100:-46 101:-87 102:-86 103:-90 104:-91 105:-47 106:-87 112:-92 113:-47 130:-89 156:-93 
-0 -4.999321715298367e-08 1.818010849417378e-07 0 0 0 0 0 0 0 0 0 0 0 0 0 0 0 0 7.613635604364185e-06 0 0 0 0 0 0 0 0 0 0 0 0 0 0 0 0 0 0 0 0 0 0 0 0 0 0 5:-88 14:-84 33:-86 44:-77 45:-77 48:-77 50:-93 51:-58 52:-58 53:-58 100:-52 101:-80 102:-80 104:-91 105:-51 106:-80 110:-93 112:-89 113:-51 
-0 -0 0 0 0 0 0 0 0 0 0 0 0 0 0 0 0 0 0 0 0 0 0 0 0 0 0 0 0 0 0 0 0 0 0 0 1.212772756987566e-06 0 0 0 0 0 0 0 0 0 4:-90 5:-88 7:-87 12:-90 14:-85 15:-88 30:-90 45:-77 48:-78 51:-60 52:-60 53:-60 100:-53 101:-79 102:-79 103:-89 104:-86 105:-53 106:-79 108:-88 112:-89 130:-88 
-0 -0 0 0 0 0 0 0 0 0 0 0 0 0 0 0 0 0 0 0 0 0 0 0 0 0 0 0 0 0 0 0 0 0 0 0 0 0 0 0 0 0 5.515322740290005e-07 0 0 0 5:-91 14:-87 18:-85 24:-85 26:-84 44:-84 45:-84 48:-84 51:-60 52:-60 53:-61 100:-47 101:-88 102:-88 104:-84 105:-47 106:-88 113:-47 
-0 -0 0 0 0 0 0 0 0 0 0 0 0 0 0 0 7.905716220673042e-06 0 0 0 0 0 0 0 0 0 0 0 0 0 0 0 0 0 0 0 0 0 0 0 0 0 0 0 0 0 4:-91 12:-92 14:-88 15:-87 23:-86 30:-92 32:-89 44:-74 45:-75 48:-75 51:-59 52:-58 53:-61 100:-53 101:-82 102:-82 103:-92 104:-82 105:-53 106:-82 112:-89 
-0 -0 0 1.585326236099452e-06 0 0 0 0 0 0 0 0 0 0 0 0 0 0 0 0 0 0 0 0 0 0 0 0 0 0 0 0 0 0 0 0 0 0 0 0 0 0 0 0 0 0 5:-88 14:-89 18:-84 24:-84 26:-85 30:-93 31:-93 44:-82 45:-83 48:-82 51:-59 52:-59 53:-55 100:-46 101:-87 102:-87 104:-86 105:-46 106:-87 113:-47 156:-91 
-0 -0 0 1.978362247932736e-05 0 0 0 0 0 0 0 0 0 0 0 0 0 0 0 0 0 0 0 0 0 0 0 0 0 0 0 0 0 0 0 0 0 0 0 0 0 0 0 0 0 0 5:-89 9:-90 14:-88 18:-85 19:-90 24:-84 26:-84 31:-95 33:-87 45:-84 48:-83 51:-60 52:-60 53:-62 100:-47 101:-86 102:-85 103:-91 104:-84 105:-47 106:-86 113:-46 
-0 -1.216791577246802e-06 4.128104924467395e-08 0 0 0 0 0 0 0 0 0 0 0 0 0 0 0 0 0 0 0 0 0 0 0 0 0 0 0 0 0 0 0 0 0 0 0 0 0 0 0 0 0 0 0 4:-91 5:-91 7:-85 14:-84 15:-85 23:-87 32:-91 35:-90 44:-80 45:-78 48:-79 50:-92 51:-68 52:-68 53:-63 100:-53 102:-84 103:-91 104:-82 105:-53 106:-84 113:-54 
-0 -0 0 0 0 0 0 0 0 0 0 0 6.15021249976574e-06 0 0 0 0 0 1.519900793566381e-05 0 0 0 3.232193175291668e-06 0 0 0 0 0 0 0 0 0 0 0 0 0 2.613444498829245e-06 0 0 0 2.587657853890648e-06 0 0 0 0 6.844996964820195e-07 5:-89 9:-90 15:-88 18:-85 19:-89 23:-89 24:-86 26:-85 33:-89 45:-77 48:-77 51:-58 52:-58 53:-58 100:-46 101:-85 102:-91 103:-91 105:-46 106:-90 107:-88 113:-47 
-0 -0 0 0 0 0 0 0 0 0 0 0 0 0 0 0 1.960125575767871e-05 0 0 0 0 0 0 0 0 0 0 0 0 0 0 0 0 0 0 0 0 0 0 0 0 0 0 0 0 0 4:-90 5:-89 12:-90 14:-86 30:-90 45:-78 48:-79 51:-62 52:-62 53:-64 100:-54 101:-78 102:-79 103:-89 104:-82 105:-54 106:-79 112:-88 130:-88 
-0 -0 0 0 0 0 0 0 0 0 0 0 0 0 0 0 0 0 0 0 1.701052249825402e-06 0 0 0 0 0 0 0 0 0 0 0 0 0 0 0 0 0 0 0 0 0 0 0 0 0 5:-88 9:-88 15:-89 18:-85 19:-88 23:-89 24:-85 26:-84 31:-89 33:-89 44:-77 45:-76 48:-76 51:-59 52:-59 53:-58 100:-46 101:-89 102:-89 104:-92 105:-46 106:-88 107:-88 108:-88 113:-47 
-0 -0 0 0 0 0 0 0 0 0 0 0 0 0 0 0 0 0 0 1.274532394307247e-06 0 0 0 0 0 0 0 0 0 0 0 0 0 0 0 0 0 0 0 0 0 0 0 0 0 0 5:-91 14:-85 23:-85 32:-93 33:-85 35:-91 44:-79 45:-78 48:-77 51:-66 52:-66 53:-67 100:-54 101:-80 102:-80 103:-88 104:-82 105:-54 106:-80 112:-88 113:-54 130:-88 
-0 -0 0 0 0 0 0 0 0 0 0 0 0 0 0 0 5.652293421072048e-06 0 0 0 0 0 0 0 0 0 0 0 0 0 0 0 0 0 0 0 0 0 0 0 0 0 0 0 0 0 4:-91 5:-90 6:-87 7:-86 12:-91 14:-85 23:-85 32:-90 35:-90 44:-77 45:-76 48:-76 51:-64 52:-64 53:-64 100:-54 101:-85 102:-81 103:-88 104:-86 105:-54 106:-80 112:-88 113:-54 130:-88 
-0 -4.901050520016734e-07 8.486147325509936e-07 7.763280177318525e-06 0 1.33932815875672e-05 0 0 0 0 0 0 4.304459321354553e-06 0 0 0 0 0 6.577001491874915e-06 0 1.409759578933508e-05 0 8.072285681747967e-06 0 0 0 0 0 0 0 0 0 0 0 0 0 0 0 0 0 8.710497046396454e-06 0 0 0 0 0 5:-88 9:-92 14:-88 18:-85 24:-85 26:-84 31:-95 33:-88 45:-82 48:-82 51:-59 52:-59 53:-62 100:-47 102:-85 103:-91 104:-85 105:-47 106:-86 113:-46 
-0 -0 0 0 0 0 0 0 0 0 0 0 0 0 0 0 0 0 0 0 0 0 5.234018222886295e-06 0 0 0 0 0 0 0 0 0 0 0 0 0 0 0 0 0 5.999037716294524e-06 0 0 0 0 0 5:-88 9:-89 14:-89 18:-85 19:-88 24:-85 26:-86 31:-88 33:-87 35:-90 45:-79 48:-79 51:-57 52:-57 53:-58 100:-47 101:-89 102:-90 104:-91 105:-47 106:-88 113:-49 156:-95 
-0 -0 0 0.0003365630359930989 0 0 0 0 0 0 0 9.112176133822457e-07 1.763312580203906e-06 0 0 0 1.770170139354179e-05 0 3.264469442978258e-06 8.32108031770424e-06 0 0 0 0 0 0 0 0 0 0 0 0 0 0 0 0 2.286462172658937e-06 0 0 0 3.101802898659534e-06 0 0 0 0 0 5:-90 9:-87 18:-87 19:-87 26:-88 31:-89 32:-89 44:-76 45:-76 48:-76 51:-57 52:-57 100:-47 101:-87 102:-84 103:-90 105:-46 106:-84 113:-48 130:-90 
-0 -0 0 0 0 0 0 0 0 0 0 0 0 0 0 0 0 0 0 0 0 0 0 0 0 0 0 0 0 0 0 0 0 0 0 0 0 0 0 0 0 0 0 0 0 8.668959880454853e-07 4:-91 5:-89 6:-86 7:-87 12:-91 15:-86 30:-91 32:-89 33:-84 35:-91 44:-79 45:-76 48:-76 50:-91 51:-61 52:-61 53:-61 100:-53 101:-88 102:-88 104:-83 105:-53 106:-87 112:-89 
-0 -0 0 3.264135205137444e-05 0 0 0 0 0 0 0 0 0 0 0 0 0 0 0 0 0 0 0 0 0 0 0 0 0 0 0 0 0 0 0 0 0 0 0 0 0 0 0 0 0 0 5:-88 9:-87 14:-86 18:-87 19:-87 24:-84 26:-84 31:-89 35:-91 44:-76 45:-76 48:-76 51:-58 52:-58 53:-58 100:-46 101:-87 102:-84 103:-90 104:-88 105:-46 106:-84 113:-47 130:-90 
-0 -0 0 0 0 0 0 0 0 0 0 0 0 0 0 0 0 0 0 0 0 0 0 0 0 0 0 0 0 0 0 0 0 0 0 0 1.093717017567537e-06 0 0 0 0 0 0 0 0 0 5:-90 23:-86 33:-84 44:-74 45:-73 48:-73 50:-91 51:-64 52:-64 53:-66 100:-55 101:-82 102:-85 103:-89 104:-86 105:-55 106:-85 107:-87 108:-87 109:-87 110:-95 111:-94 112:-89 
-0 -0 0 0 0 0 0 0 0 0 0 0 0 0 0 0 0 0 0 2.514535247467717e-06 0 0 0 0 0 0 0 0 0 0 0 0 0 0 0 0 0 0 0 0 0 0 0 0 0 0 4:-90 5:-89 7:-88 12:-91 14:-86 30:-91 32:-93 33:-86 45:-78 48:-79 50:-93 51:-62 52:-62 53:-64 100:-54 101:-80 102:-80 103:-89 104:-82 105:-54 106:-80 112:-88 113:-55 130:-88 
-3.936673692126475e-06 -9.307741701898635e-06 3.629660570643508e-06 9.777989363207867e-06 8.656352468371453e-07 0 4.302125584877501e-06 3.595166937075094e-06 5.467268729789457e-06 3.558863816474843e-06 4.763264406908769e-06 5.916447527367201e-06 0 3.526386933032848e-06 3.315585185953224e-06 4.999872220477258e-06 3.017624310877601e-05 3.175715313353269e-06 0 6.249002066496618e-06 0 4.731097155407667e-06 2.753277902769819e-06 3.677346630271933e-06 5.383630530351344e-06 1.442779480236203e-06 3.692221408922202e-06 4.308518401254901e-06 4.777841703561056e-06 1.952376930292364e-06 1.591597382281591e-06 6.309210465858517e-06 3.654965777246029e-06 3.129654616087581e-06 5.550195978373575e-06 4.544604687332272e-06 0 4.499067651591246e-06 5.632125371196637e-06 3.047228369348059e-06 9.852554732045596e-07 5.815723134707271e-06 1.185345001129722e-06 1.396017899230379e-06 5.589452744442706e-06 0 5:-89 18:-84 23:-87 24:-85 33:-88 44:-84 45:-84 48:-84 51:-62 52:-62 100:-47 101:-87 102:-87 105:-46 106:-87 113:-46 
-0 -0 0 0 0 0 0 0 0 0 0 0 0 0 0 0 1.485790824205202e-05 0 0 0 0 0 0 0 0 0 0 0 0 0 0 0 0 0 0 0 0 0 0 0 0 0 0 0 0 0 4:-91 5:-89 14:-86 30:-91 45:-77 48:-77 51:-59 52:-59 100:-54 101:-81 102:-82 103:-89 104:-88 105:-54 106:-82 108:-89 112:-89 113:-53 130:-89 
-0 -0 0 0 0 0 0 0 0 0 0 0 0 0 0 0 1.421843159855795e-05 0 0 0 0 0 0 0 0 0 0 0 0 0 0 0 0 0 0 0 0 0 0 0 0 0 0 0 0 0 5:-91 14:-85 23:-88 32:-93 33:-85 35:-91 44:-79 45:-77 48:-77 51:-58 52:-58 53:-67 100:-52 101:-80 102:-84 103:-88 104:-82 105:-52 106:-84 109:-86 112:-88 113:-54 130:-88 
-0 -0 0 0 0 0 0 0 0 0 0 0 0 0 0 0 0 0 0 0 0 0 0 0 0 0 0 0 0 0 0 0 0 0 0 0 1.248001021732421e-07 0 0 0 0 0 0 0 0 0 5:-89 14:-83 15:-86 30:-91 32:-91 35:-91 45:-75 48:-75 50:-91 51:-65 52:-65 53:-65 100:-53 101:-85 102:-86 103:-93 104:-81 105:-53 106:-86 110:-93 111:-92 
-0 -0 2.257221494496876e-06 0 0 0 0 0 0 0 0 0 0 0 0 0 0 0 0 0 0 0 0 0 0 0 0 0 0 0 0 0 0 0 0 0 0 0 0 0 0 0 0 0 0 0 5:-91 12:-92 14:-83 23:-86 33:-84 44:-76 45:-76 48:-76 51:-67 52:-67 53:-68 100:-56 101:-86 102:-84 104:-89 105:-56 106:-84 113:-62 
-0 -0 0 0 0 0 0 0 0 0 0 0 0 0 0 0 0 0 0 1.008068171415128e-06 0 0 0 0 0 0 0 0 0 0 0 0 0 0 0 0 0 0 0 0 0 0 0 0 0 0 5:-91 6:-86 14:-86 15:-87 33:-85 44:-79 45:-79 48:-78 50:-89 51:-62 52:-62 53:-64 100:-55 101:-81 102:-80 103:-91 104:-84 105:-55 106:-80 112:-91 113:-52 130:-91 
-2.018350037567182e-06 -1.87736312774953e-06 4.477125827730855e-06 0 5.866155198401313e-06 0 3.33755074153649e-06 1.829901035621262e-06 2.802779291625515e-06 1.833274266407058e-06 2.488891359622372e-06 4.960459271467417e-06 0 1.808453657703474e-06 1.858009592049183e-06 4.085701791778371e-06 0 1.630947696953992e-06 0 0 0 2.42694503867176e-06 0 3.150665283707789e-06 2.760549546721725e-06 4.913572485561241e-06 1.961647052451626e-06 3.028740181518244e-06 2.445939563757516e-06 2.669420372405788e-06 5.096254891605755e-06 3.26346964896925e-06 1.863921448803776e-06 1.605050118082835e-06 4.235726472128415e-06 2.331019370975953e-06 6.544687837172546e-06 2.296931931583341e-06 2.886316452933918e-06 4.683875792670971e-06 0 2.978005403378701e-06 4.822289404554235e-06 2.64151062538469e-06 2.854328891906788e-06 0 4:-91 5:-91 14:-84 33:-84 44:-77 45:-81 48:-82 51:-61 52:-61 53:-58 100:-50 102:-89 104:-90 105:-50 106:-88 108:-89 112:-89 113:-48 
-0 -0 -0 0 0 0 0 0 0 0 0 0 0 0 0 0 0 0 0 0 0 0 0 0 0 0 0 0 0 0 0 0 0 0 0.000168532119758592 0 0 0 0 0 0 0 0 0 0 0 14:-94 23:-92 33:-92 51:-83 52:-83 53:-85 54:-72 55:-87 100:-81 105:-81 113:-82 170:-88 297:-66 298:-72 299:-66 300:-66 301:-72 334:-87 
-0 -0 -0 0 0 0 0 0 0 0 0 0 0 0 0 0 2.967490892744012e-06 0 0 0 0 0 0 0 0 0 0 0 0 0 0 0 0 0 0 0 0 0 0 0 0 0 0 0 0 0 23:-92 33:-92 51:-81 52:-81 53:-84 54:-72 55:-87 100:-81 105:-81 170:-88 297:-64 298:-73 299:-66 300:-66 301:-72 334:-87 335:-91 336:-90 337:-91 
-7.110912917912145e-06 -1.089195905214879e-05 -3.801905990697559e-06 1.595166772575463e-06 1.105458816995736e-05 0 1.297595415273245e-05 6.478506225713252e-06 9.787676289039272e-06 6.439120538659404e-06 8.631780949309432e-06 0.0001328053041824113 9.861023838126125e-07 6.388508891030921e-06 6.276935311343585e-06 1.395360450147747e-05 4.821979488482295e-06 5.75796811710769e-06 0 0.0001913133833168895 6.423308516366658e-07 8.495429795185314e-06 5.695743128263707e-06 8.609664345951105e-06 9.64315389143698e-06 1.269446583708077e-05 6.808175514229828e-06 8.966015653915659e-06 8.577370447515721e-06 6.336216022478056e-06 1.287029930656358e-05 1.760233544746005e-05 6.618559612679703e-06 5.664999004378652e-06 0.03664259672171662 9.225396710804771e-06 8.050530255493301e-07 8.07223314190641e-06 1.008019583010752e-05 1.032166836375045e-05 5.383643540179708e-06 1.037322801405207e-05 5.428199558878535e-05 5.745059318941353e-06 9.986031165651474e-06 3.537439955777396e-06 54:-82 127:-87 238:-86 239:-87 297:-75 298:-82 299:-74 300:-75 301:-82 324:-88 325:-87 326:-89 
-1.324645426975294e-06 -2.568784753245264e-08 -1.379427212095639e-06 2.766141358101603e-06 2.118630011236332e-06 0 0 1.214554988667475e-06 1.817639737659143e-06 1.243978409911632e-06 1.628840225432034e-06 0 0 1.236102793408792e-06 1.180104243500377e-06 4.582590050235931e-07 4.954313499039203e-06 1.071482536583121e-06 0 0 2.404873511767763e-06 1.594529332143205e-06 0 1.629011298905007e-06 1.810752308723558e-06 0 1.249955791251413e-06 1.69259680588855e-06 1.623778223587486e-06 1.19218303254913e-06 0 0 1.202214609634951e-06 1.075876035315292e-06 0 8.823825510818119e-07 0 1.528972289006024e-06 1.875208544953782e-06 1.978263119027904e-06 0 1.984452254953798e-06 0 1.075293583332316e-06 1.846583326680651e-06 0 51:-86 52:-86 53:-87 54:-73 100:-85 105:-85 297:-67 298:-73 299:-67 300:-67 301:-73 
-0 -0 -0 0 0 0 0 0 0 0 0 0 0 0 0 0 0 0 5.86501961860116e-06 1.040681297468862e-05 1.208480253309684e-06 0 1.793246231296584e-06 0 0 0 0 0 0 0 0 0 0 0 0.0006274750262797566 0 4.504678676912461e-06 0 0 0 6.753179925311164e-06 0 0 0 0 0 33:-92 51:-85 52:-85 54:-72 100:-83 105:-82 113:-83 297:-64 298:-73 299:-66 300:-66 301:-72 335:-90 
-0 -0 -0 0 0 0 0 0 0 0 0 0 0 0 0 0 0 0 0 0 0 0 0 0 0 0 0 0 0 0 0 0 0 0 0 0 0 0 0 0 0 0 0.0003597772445820882 0 0 0 51:-84 52:-84 53:-85 54:-72 100:-84 105:-83 113:-83 297:-67 298:-72 299:-66 300:-66 301:-72 335:-93 336:-90 337:-91 
-0 -0 -0 0 0 0 4.201247526120282e-07 0 0 0 0 0.0009136214130210056 0 0 0 3.52958800890858e-07 0 0 0 0 0 0 0 0 0 7.23296981457933e-08 0 0 0 0 4.172530625602042e-07 6.788212105047237e-07 0 0 0 7.611846384618168e-08 0 0 0 0 0 0 0.0001648375291798612 0 0 0 51:-81 52:-81 53:-84 54:-71 100:-82 105:-81 170:-88 297:-64 299:-67 300:-67 301:-71 335:-91 336:-90 337:-91 
-0 -0 -0 0 0 0 0 0 0 0 0 0 0 0 0 0 0 0 3.667974835702262e-06 0 0 0 0 0 0 0 0 0 0 0 0 0 0 0 0.0001756265892848996 0 8.182485685094502e-07 0 0 0 0 0 0 0 0 0 14:-94 33:-92 51:-84 52:-84 53:-85 54:-71 55:-87 100:-81 105:-81 113:-82 297:-63 298:-70 299:-63 300:-63 301:-72 334:-87 
-0 -0 -0 0 0 0 0 0 0 0 0 0 0 0 0 0 0 0 3.300500333147479e-06 0 1.994871536134839e-06 0 1.248628037789679e-07 0 0 0 0 0 0 0 0 0 0 0 0 0 3.39425514416606e-06 0 0 0 2.009799372296903e-06 0 0 0 0 0 33:-92 51:-84 52:-83 53:-87 54:-72 55:-88 100:-82 105:-82 113:-81 297:-64 299:-64 300:-64 301:-73 323:-93 334:-87 
-7.886565829498341e-06 -1.25849162886315e-05 -9.514679958634625e-06 2.942807500530723e-06 1.226070254309805e-05 1.622188136804342e-05 1.002625104151234e-05 7.200803885702413e-06 1.084108831422769e-05 7.135505361065696e-06 9.583127305248459e-06 7.957973743781909e-05 2.787698757522329e-06 7.074103404863581e-06 6.974346481985732e-06 1.180727362971001e-05 0 6.385837567859642e-06 2.884497204608562e-06 0.000173453821788454 6.096814450039427e-07 9.444939879674817e-06 5.565284796922362e-06 9.547113836307321e-06 1.068704718987624e-05 8.892321761592812e-06 7.557208460868628e-06 9.948458166416056e-06 9.52032113783096e-06 7.039811216203129e-06 1.01725401250012e-05 1.125972000316461e-05 7.308366861347572e-06 6.28112171885832e-06 0 8.784960982700914e-06 2.737545690726692e-06 8.968115463743084e-06 1.121035781249933e-05 1.146395351237274e-05 1.264704076407454e-05 1.153119490881798e-05 0 6.303256596987087e-06 1.108766235773659e-05 4.385868248102345e-06 14:-94 51:-84 54:-73 100:-82 105:-82 113:-84 297:-68 299:-67 300:-67 301:-73 
-2.392751359810729e-06 -7.691331185872646e-06 -4.822463720999455e-06 1.012120182375704e-05 3.621218638317197e-06 1.673859358521807e-05 3.113850110941882e-06 2.161472100611713e-06 3.301232720901719e-06 2.119486349986192e-06 2.877293621243045e-06 0 1.389924917573879e-05 2.086859489765998e-06 2.097788192211279e-06 3.642540055291316e-06 1.161552206078688e-05 1.91206767745555e-06 1.305805593214909e-05 0 1.194354976337721e-05 2.834298868797201e-06 6.862739269926222e-06 2.87803001338645e-06 3.241850741684438e-06 2.247532968964524e-06 2.298529573420915e-06 3.008771660853226e-06 2.855744575912803e-06 2.112365002401302e-06 3.153114662078062e-06 2.917698026500076e-06 2.231422370835429e-06 1.870359800335672e-06 0 2.722788897632643e-06 7.378736053275765e-07 2.711791869461547e-06 3.38315964186204e-06 3.406522469522223e-06 3.425293461508815e-06 3.463094901064366e-06 0 1.809460871341652e-06 3.353995926796301e-06 0 23:-92 51:-86 52:-86 53:-86 54:-73 100:-83 105:-83 113:-84 297:-60 299:-63 300:-63 301:-73 
-0 -0 -0 0 0 0 0 0 0 0 0 0 0 0 0 0 0 0 0 0 0 0 0 0 0 0 0 0 0 0 0 0 0 0 3.344292756882146e-06 0 0 0 0 0 0 0 0 0 0 0 33:-92 51:-85 52:-86 53:-87 54:-75 55:-88 100:-81 105:-81 113:-81 297:-64 298:-73 299:-64 300:-64 301:-75 323:-93 334:-88 
-0 -0 -0 0 0 0 0 0 0 0 0 0.001146280214808213 0 0 0 0 0 0 0 4.161189757816992e-05 0 0 0 0 0 0 0 0 0 0 0 0 0 0 0 0 0 0 0 0 0 0 0 0 0 0 54:-73 55:-86 100:-87 105:-87 113:-84 170:-90 297:-76 298:-73 299:-70 300:-70 301:-73 334:-87 
-0 -0 -0 0 0 0 0 0 0 0 0 0.001674109048261104 0 0 0 0 0 0 0 9.225058628815807e-06 0 0 0 0 0 0 0 0 0 0 0 0 0 0 0 0 0 0 0 0 0 0 0 0 0 0 51:-86 52:-87 53:-86 54:-74 55:-87 100:-83 105:-83 113:-86 297:-75 298:-74 299:-73 300:-73 301:-74 334:-86 
-0 -0 -0 0 0 0 0 0 0 0 0 0 0 0 0 0 0 0 0 1.102393385170213e-05 0 0 0 0 0 0 0 0 0 0 0 0 0 0 0.0001308776609619839 0 0 0 0 0 0 0 0 0 0 0 33:-92 51:-80 52:-79 53:-85 54:-70 100:-81 104:-91 105:-80 113:-82 170:-88 297:-63 298:-69 299:-68 300:-68 301:-70 336:-90 337:-90 
-6.58218159921407e-07 -3.686030990943441e-06 -1.14908814687349e-06 0 1.032635653280774e-06 0 1.767517747492631e-06 5.965100281422696e-07 8.804575712140393e-07 5.682570451899339e-07 8.045762593890462e-07 0 0 5.874893746992782e-07 5.843697632152431e-07 1.827714253821841e-06 0 5.426536998020788e-07 0 0 0 7.858488521562548e-07 1.852715624089681e-07 7.794989405384545e-07 8.804626675498402e-07 3.117813199539112e-06 6.298626275643724e-07 8.134131745291498e-07 7.826097214194617e-07 5.863497575136506e-07 1.791447767706434e-06 2.382947862926863e-06 6.075883490458359e-07 5.225342632252669e-07 0 1.062262727299479e-06 0 7.234749546085738e-07 9.116937598056538e-07 9.497094389707547e-07 2.359876295529776e-07 9.18616230515258e-07 0 9.107732305853345e-07 9.376957210240079e-07 0 51:-82 52:-82 53:-82 54:-71 55:-87 100:-81 105:-81 170:-86 297:-65 299:-64 300:-64 301:-71 334:-87 
-0 -0 -0 0 0 0 0 0 0 0 0 0 0 0 0 0 0 0 0 0.000295574427009909 0 0 0 0 0 0 0 0 0 0 0 0 0 0 0 0 0 0 0 0 0 0 2.634941336100311e-05 0 0 0 51:-87 52:-87 53:-87 54:-72 100:-85 105:-85 297:-67 298:-73 299:-68 300:-68 301:-73 
-0 -0 -0 0 0 0 0 0 0 0 0 8.802955364104096e-05 0 0 0 0 0 0 0 0.006774618883922567 0 0 0 0 0 0 0 0 0 0 0 0 0 0 0 0 0 0 0 0 0 0 0 0 0 0 51:-84 52:-84 54:-73 100:-84 105:-84 113:-84 297:-67 298:-73 299:-69 300:-69 301:-72 
-0 -0 -0 0 0 0 0 0 0 0 0 0.005690437330212602 0 0 0 0 0 0 0 0 0 0 0 0 0 0 0 0 0 0 0 0 0 0 0 0 0 0 0 0 0 0 0 0 0 0 51:-87 52:-87 53:-87 54:-71 100:-89 105:-88 113:-90 297:-69 299:-68 300:-68 301:-71 
-0 -0 -0 0 0 0 0 0 0 0 0 0.004394503928482852 0 0 0 0 0 0 0 0 0 0 0 0 0 0 0 0 0 0 0 0 0 0 0 0 0 0 0 0 0 0 0 0 0 0 51:-86 52:-87 53:-86 54:-74 55:-87 100:-83 105:-83 113:-86 170:-89 297:-75 298:-75 299:-73 300:-73 301:-74 334:-86 
-3.554999607322575e-06 -3.705737933009771e-06 -0 0 5.445536571836451e-06 0 3.112780015529867e-06 3.209497079933092e-06 4.883674509356585e-06 3.197845871557058e-06 4.292085843897125e-06 0 4.586890887380068e-06 3.143245301047181e-06 3.120963915900763e-06 4.093732727168217e-06 2.233671475767183e-06 2.844022512154498e-06 0 0 0 4.237968339468711e-06 3.562459057256776e-06 4.275033613723419e-06 4.804785215207025e-06 0 3.378563968210953e-06 4.476619234005973e-06 4.272460674549709e-06 3.145135226355923e-06 3.202214982025399e-06 2.327354724771343e-06 3.28053875242498e-06 2.794433670303682e-06 0 3.499569479782331e-06 0 4.034687330623219e-06 5.033969587375173e-06 5.11045504638387e-06 1.484446486706429e-06 5.177478999948867e-06 0 2.186359367271206e-06 4.96159188082147e-06 1.854897253890165e-06 54:-71 55:-87 100:-88 105:-87 170:-87 297:-68 298:-72 299:-64 300:-64 301:-71 334:-88 336:-87 337:-88 
-0 -0 -0 0 0 0 0 0 0 0 0 0 0 0 0 0 0 0 0 0 0 0 0 0 0 0 0 0 0 0 0 0 0 0 0.03379510063706313 0 0 0 0 0 0 0 0 0 0 0 23:-93 51:-84 52:-84 54:-75 100:-85 105:-85 113:-87 297:-68 298:-77 299:-67 300:-67 301:-75 
-0 -0 -0 4.1380927500524e-06 0 0 0 0 0 0 0 0.00399421335144109 0 0 0 0 0 0 0 0 0 0 0 0 0 4.263912163098304e-07 0 0 0 0 0 0 0 0 0 0 0 0 0 0 0 0 0 0 0 0 51:-87 52:-88 54:-73 100:-85 105:-85 170:-89 297:-67 298:-73 299:-68 300:-68 301:-73 
-0 -0 -0 0 0 0 0 0 0 0 0 0 0 0 0 0 0 0 0 0 0 0 0 0 0 0 0 0 0 0 0 0 0 0 0 0 0 0 0 0 0 0 0 0 0 6.183273191133707e-08 14:-91 51:-85 52:-86 53:-82 54:-71 55:-87 100:-80 105:-81 170:-86 297:-64 299:-64 300:-64 301:-71 334:-87 
-0 -0 -0 0 0 4.285177029108071e-06 0 0 0 0 0 0 0 0 0 0 0 0 0 0 0 0 0 0 0 0 0 0 0 0 0 0 0 0 0 0 0 0 0 0 0 0 0 0 0 0 54:-74 55:-88 100:-87 105:-87 113:-87 297:-68 298:-75 299:-67 300:-67 301:-74 334:-88 
-0 -0 -3.089303333155321e-06 0 0 4.614539235800576e-07 0 0 0 0 0 0 0 0 0 0 0 0 0 0 0 0 0 0 0 3.512929249470062e-06 0 0 0 0 0 0 0 0 0 0 0 0 0 0 0 0 0.0003827527127568911 9.004069939585647e-07 0 0 54:-69 55:-86 100:-88 104:-92 105:-87 113:-89 297:-69 298:-69 299:-66 300:-66 301:-69 334:-86 335:-89 336:-89 337:-89 
-0 -0 -0 0 0 3.669532351167829e-06 0 0 0 0 0 0 0 0 0 0 0 0 9.773495602400838e-07 0 0 0 0 0 0 0 0 0 0 0 0 0 0 0 0 0 3.071564897723914e-06 0 0 0 0 0 0 0 0 0 51:-84 52:-84 53:-85 54:-70 100:-84 105:-83 113:-83 170:-89 298:-72 299:-65 300:-65 301:-70 336:-89 337:-89 
-0 -0 -4.570956562596879e-06 0 0 0 0 0 0 0 0 0 0 0 0 0 0 0 2.044874766886599e-06 0 6.503250758478394e-06 0 0 0 0 0 0 0 0 0 0 0 0 0 0 0 0 0 0 0 0 0 0 0 0 0 33:-92 51:-80 52:-81 53:-85 54:-70 100:-82 104:-91 105:-82 113:-82 170:-88 297:-63 298:-69 299:-64 300:-64 301:-70 336:-90 337:-90 
-0 -0 -0 0 0 0 0 0 0 0 0 0 0 0 0 0 0 0 0 0.0007623308355691951 0 0 0 0 0 0 0 0 0 0 0 0 0 0 0 0 0 0 0 0 0 0 0 0 0 0 51:-85 52:-85 53:-85 54:-70 100:-85 105:-85 113:-85 297:-70 298:-70 299:-69 300:-69 301:-70 
-0 -0 -0 0 0 1.197455379633394e-07 0 0 0 0 0 0 0 0 0 0 0 0 0 0 0 0 0 0 0 0 0 0 0 0 0 0 0 0 0 0 0 0 0 0 0 0 1.865511511059233e-05 0 0 0 51:-88 52:-87 53:-87 54:-70 100:-84 105:-84 113:-85 298:-70 299:-68 300:-68 301:-70 335:-91 336:-89 337:-90 
-0 -0 -0 0 0 6.029617041028954e-07 0 0 0 0 0 0 0 0 0 0 0 0 0 0 0 0 0 0 0 0 0 0 0 0 0 0 0 0 0 0 0 0 0 0 0 0 0 0 0 0 51:-85 52:-85 53:-86 54:-69 100:-86 105:-81 113:-81 297:-63 298:-74 299:-60 300:-59 301:-69 
-8.354766445425872e-07 -1.169495062873154e-06 -0 4.396373795000109e-06 1.368553661696254e-06 1.807163218629094e-06 2.100441359383266e-06 7.867916764022208e-07 1.17107614949892e-06 7.993334411981024e-07 1.028930753030615e-06 0 0 7.961714698232835e-07 7.443354129640815e-07 2.134230508320208e-06 0 6.978717560072536e-07 0 0 6.226758621146364e-07 1.009708919228176e-06 0 1.038305193985903e-06 1.14672552093823e-06 9.554176720751766e-07 8.03034592658085e-07 1.054278244492704e-06 1.020740391934158e-06 7.623011277527322e-07 2.056905230091637e-06 3.38926865062811e-06 7.879195242338663e-07 7.036568861974961e-07 0 1.287996640526289e-06 1.452694416942386e-08 9.538523570697806e-07 1.192572440726422e-06 1.268381919248704e-06 1.743806313761413e-06 1.23698212090544e-06 0 3.280542591172082e-07 1.179074750231626e-06 0 51:-85 52:-85 54:-70 55:-86 100:-85 105:-84 113:-84 299:-67 300:-67 301:-70 334:-86 336:-87 337:-87 
-0 -0 -2.287714671107156e-06 4.814632632930975e-07 0 9.616369870812252e-07 0 0 0 0 0 0 9.111055528293999e-06 0 0 0 2.45055528575338e-05 0 2.712505434301368e-06 0 6.766723645194486e-06 0 0 0 0 0 0 0 0 0 0 0 0 0 0 0 1.402013987590563e-05 0 0 0 0 0 0 0 0 3.306500915628697e-06 14:-94 23:-92 51:-86 52:-86 54:-73 100:-84 105:-84 113:-84 297:-64 299:-63 300:-63 301:-73 
-0 -0 -0 0 0 0 0 0 0 0 0 0 0 0 0 0 0 0 0 0 0 0 0 0 0 0 0 0 0 0 0 0 0 0 0 0 0 0 0 0 0 0 0.0002285549123667496 0 0 0 33:-92 51:-80 52:-81 53:-85 54:-70 100:-81 104:-91 105:-80 113:-81 170:-88 297:-65 298:-69 299:-65 300:-65 301:-70 335:-90 336:-90 337:-90 
-0 -0 -0 -0 0 0 0 0 0 0 0 0 0 0 0 0 0 0 0 0 6.936867364478919e-05 0 0 0 0 0 0 0 0 0 0 0 0 0 0 0 0 0 0 0 0 0 0 0 0 0 4:-88 5:-80 9:-82 12:-88 18:-81 19:-81 20:-92 24:-81 26:-81 30:-87 31:-80 33:-88 51:-70 52:-70 53:-74 100:-66 104:-93 105:-66 113:-67 
-0 -0 -0 -0 0 0 0 0 0 0 0 0 0 0 0 0 0 0 0 0 0.001601292592782039 0 0 0 0 0 0 0 0 0 0 0 0 0 0 0 0 0 0 0 0 0 0 0 0 0 4:-88 5:-82 9:-83 12:-88 18:-79 19:-83 20:-90 23:-89 24:-80 26:-81 30:-90 31:-84 51:-71 52:-72 53:-73 100:-66 104:-82 105:-65 113:-66 
-0 -0 -0 -0 0 0 0 0 0 0 0 0 6.980190470711964e-07 0 0 0 0 0 0 0 0 0 0 0 0 0 0 0 0 0 0 0 0 0 0 0 0 0 0 0 0 0 0 0 0 2.143334868934621e-06 4:-88 5:-82 6:-89 9:-83 12:-87 14:-89 18:-74 19:-83 20:-86 24:-74 26:-74 30:-91 31:-84 32:-90 44:-88 51:-73 52:-74 100:-64 105:-64 
-0 -0 -1.083605684436609e-05 -0 0 0 0 0 0 0 0 0 0 0 0 0 0 0 0 0 0 0 0 0 0 0 0 0 0 0 0 0 0 0 0 0 0 0 0 0 0 0 0 0 0 0 4:-88 5:-88 9:-81 12:-88 14:-86 18:-76 19:-80 20:-86 24:-76 26:-76 31:-80 35:-90 45:-87 48:-87 51:-74 52:-74 53:-74 100:-62 104:-90 105:-61 113:-61 
-0 -0 -0 -0 0 0 0 0 0 0 0 0 0 0 0 0 3.595241645460294e-06 0 0 0 0 0 7.31065039889464e-06 0 0 0 0 0 0 0 0 0 0 0 0 0 0 0 0 0 0 0 0 0 0 0 4:-88 5:-85 9:-80 12:-88 18:-80 19:-81 20:-91 23:-90 24:-79 31:-81 32:-91 33:-91 35:-91 51:-75 52:-75 53:-72 100:-65 104:-90 105:-65 
-0 -0 -5.048409208575052e-05 -0 0 0 0 0 0 0 0 0 0 0 0 0 0 0 0 0 0.0003473599012640014 0 0 0 0 0 0 0 0 0 0 0 0 0 0 0 0 0 0 0 0 0 0 0 0 0 4:-89 5:-81 9:-83 12:-89 14:-90 18:-81 19:-82 20:-85 30:-89 31:-84 32:-90 33:-88 44:-87 45:-87 48:-87 51:-73 52:-72 53:-73 100:-64 104:-83 105:-64 113:-65 
-0 -0 -0 -0 0 0 0 0 0 0 0 0 0 0 0 0 0 0 0 0 0.0007198386244879922 0 0 0 0 0 0 0 0 0 0 0 0 0 0 0 0 0 0 0 0 0 0 0 0 0 4:-90 5:-83 9:-81 12:-89 18:-79 19:-81 20:-87 23:-89 24:-80 30:-90 31:-83 51:-72 52:-71 53:-73 100:-65 104:-91 105:-65 113:-65 
-0 -0 -0 -0 0 0 0 0 0 0 0 0 4.683190972485945e-06 0 0 0 0 0 4.26126178779178e-05 6.258857289062537e-07 0 0 0 0 0 0 0 0 0 0 0 0 0 0 0 0 1.45813719901113e-05 0 0 0 0 0 0 0 0 2.353427417973121e-06 4:-89 5:-82 9:-82 12:-88 18:-81 19:-82 20:-88 24:-80 30:-88 31:-82 33:-89 35:-90 51:-70 52:-70 53:-71 100:-64 103:-93 105:-64 113:-64 
-0 -0 -0 -0 0 0 0 0 0 0 0 0 9.88900553955652e-07 0 0 0 0 0 0 0 0 0 0 0 0 0 0 0 0 0 0 0 0 0 0 0 0 0 0 0 0 0 0 0 0 0 4:-90 5:-84 9:-81 12:-89 18:-80 19:-81 20:-87 23:-91 24:-80 26:-81 30:-89 31:-82 51:-72 52:-71 100:-65 104:-86 105:-65 113:-65 
-0 -0 -0 -0 0 0 0 0 0 0 0 0 0 0 0 0 0 0 0 0 0 0 0 0 0 0 0 0 0 0 0 0 0 0 0 0 0 0 0 0 0 0 0 0 0 1.566005875019044e-06 4:-89 5:-80 9:-82 12:-88 18:-79 19:-82 20:-88 24:-79 26:-79 30:-88 31:-82 32:-89 33:-89 35:-90 51:-70 52:-70 53:-71 100:-64 103:-93 105:-64 113:-64 
-0 -0 -0 -0 0 0 0 0 0 0 0 0 0 0 0 0 0 0 0 0 0 0 0 0 0 0 0 0 0 0 0 0 0 0 0 0 1.369137566128698e-06 0 0 0 0 0 0 0 0 0 4:-91 5:-91 9:-86 12:-91 14:-89 18:-85 19:-86 20:-82 23:-91 24:-85 26:-84 30:-90 32:-88 33:-89 51:-75 52:-75 53:-73 100:-61 104:-94 105:-61 113:-59 
-0 -0 -0 -0 0 0 0 0 0 0 0 0 0 0 0 0 0 0 0 0 0 0 0 0 0 0 0 0 0 0 0 0 0 0 0 0 0 0 0 0 0 0 0 0 0 1.954437830004885e-06 4:-88 5:-89 6:-86 7:-87 9:-80 12:-89 14:-86 15:-86 18:-78 19:-80 20:-88 23:-88 24:-78 26:-78 30:-92 31:-81 32:-89 35:-89 44:-86 48:-85 51:-69 52:-69 53:-70 100:-62 104:-91 105:-62 113:-62 
-0 -0 -0 -0 0 7.238806807134108e-06 0 0 0 0 0 0 0 0 0 0 0 0 0 0 0 0 0 0 0 0 0 0 0 0 0 0 0 0 0 0 0 0 0 0 1.489882373903307e-06 0 0 0 0 0 5:-81 6:-87 9:-81 12:-92 18:-83 19:-80 20:-89 24:-84 30:-92 31:-80 32:-88 33:-88 51:-74 52:-73 100:-62 104:-92 105:-62 
-0 -0 -0 -0 0 0 0 0 0 0 0 0 0 0 0 0 0 0 0 0 0 0 0 0 0 0 0 0 0 0 0 0 0 0 0 0 0 0 0 0 0 0 0 0 0 6.717247634438807e-06 4:-89 5:-89 6:-87 7:-87 9:-79 12:-89 14:-85 15:-86 18:-78 19:-79 20:-89 23:-87 24:-78 26:-77 30:-91 31:-79 32:-94 33:-87 48:-86 51:-72 52:-72 100:-63 104:-89 105:-63 
-0 -0 -0 -0 0 0 0 0 0 0 0 0 0 0 0 0 0 0 0 0 0 0 1.112942945761651e-07 0 0 0 0 0 0 0 0 0 0 0 0 0 0 0 0 0 0 0 0 0 0 0 4:-89 5:-86 9:-83 12:-89 14:-89 18:-79 19:-82 20:-89 24:-80 26:-80 30:-89 31:-81 32:-91 33:-90 35:-91 45:-87 48:-86 51:-74 52:-74 53:-76 100:-65 104:-83 105:-65 
-0 -0 -0 -0 0 0 0 0 0 0 0 0 2.566570768643202e-06 0 0 0 0 0 0 0 0 0 0 0 0 0 0 0 0 0 0 0 0 0 0 0 0 0 0 0 0 0 0 0 0 0 4:-88 5:-88 9:-81 12:-88 14:-87 18:-75 19:-80 20:-88 23:-87 24:-76 26:-75 30:-88 31:-80 51:-67 52:-67 53:-69 100:-62 104:-89 105:-62 113:-59 
-0 -0 -0 -0 0 0 0 0 0 0 0 0 0 0 0 0 0 0 0 0 0.006978091077188305 0 0 0 0 0 0 0 0 0 0 0 0 0 0 0 0 0 0 0 0 0 0 0 0 0 4:-88 5:-79 9:-82 12:-88 18:-79 19:-82 20:-89 23:-91 24:-79 26:-80 31:-82 33:-89 51:-72 52:-72 53:-72 100:-64 104:-90 105:-64 113:-64 
-0 -0 -0 -0 0 0 0 0 0 0 0 0 1.088722441726821e-05 0 0 0 0 0 5.986472013909945e-06 0 0 0 0 0 0 0 0 0 0 0 0 0 0 0 0 0 0 0 0 0 0 0 0 0 0 0 4:-90 5:-81 9:-81 12:-90 18:-78 19:-80 20:-88 23:-91 24:-78 26:-81 31:-81 33:-90 51:-73 52:-73 100:-65 104:-90 105:-64 
-0 -7.255627141772774e-06 -0 -0 0 0 0 0 0 0 0 0 0 0 0 0 0 0 0 0 0 0 0 0 0 0 0 0 0 0 0 0 0 0 0 0 0 0 0 0 0 0 0 0 0 2.04327911295308e-06 4:-90 5:-85 9:-81 12:-89 18:-80 19:-81 20:-90 23:-90 24:-80 26:-81 32:-91 33:-91 51:-73 52:-73 53:-72 100:-64 104:-83 105:-64 
-0 -7.958742087119054e-08 -0 -2.868419199212888e-07 0 4.670113353771986e-05 0 0 0 0 0 0 5.772023973814904e-07 0 0 0 0 0 0 0 0.0005704240374079482 0 3.992485706342338e-06 0 0 0 0 0 0 0 0 0 0 0 0 0 0 0 0 0 2.776045319470212e-06 0 0 0 0 0 4:-91 5:-83 9:-82 18:-84 19:-82 20:-90 23:-91 24:-84 26:-83 31:-86 48:-86 51:-75 52:-75 53:-74 100:-63 104:-92 105:-63 113:-62 
-0 -0 -0 -0 0 0 0 0 0 0 0 0 0 0 0 0 9.697950323640933e-07 0 0 0 0 0 0 0 0 0 0 0 0 0 0 0 0 0 0 0 0 0 0 0 0 0 0 0 0 0 4:-89 5:-82 9:-80 12:-89 14:-88 18:-80 19:-81 20:-86 23:-90 24:-81 31:-81 44:-86 45:-87 48:-87 51:-72 52:-72 53:-72 100:-65 104:-87 105:-65 
-0 -3.121000918984395e-06 -0 -0 0 0 0 0 0 0 0 0 0 0 0 0 3.734536532095896e-06 0 0 0 0 0 0 0 0 0 0 0 0 0 0 0 0 0 0 0 0 0 0 0 0 0 0 0 0 0 4:-90 5:-87 6:-88 7:-89 9:-81 12:-88 14:-89 15:-89 18:-76 19:-81 20:-88 23:-88 24:-76 30:-90 33:-89 44:-87 45:-87 48:-87 51:-74 52:-75 53:-73 100:-67 104:-84 105:-66 113:-67 
-0 -0 -0 -0 0 0 0 0 0 0 0 0 0 0 0 0 0 0 0 0 0.006090365369162228 0 0 0 0 0 0 0 0 0 0 0 0 0 0 0 0 0 0 0 0 0 0 0 0 0 4:-89 5:-84 9:-82 12:-88 18:-81 19:-81 20:-89 24:-80 30:-88 31:-82 33:-88 51:-70 52:-70 53:-73 100:-64 105:-64 113:-64 
-0 -0 -0 -0 0 0 0 0 0 0 0 0 1.146380184478331e-05 0 0 0 0 0 6.364440031247486e-05 0 0 0 0 0 0 0 0 0 0 0 0 0 0 0 0 0 0 0 0 0 8.954578507177928e-06 0 0 0 0 0 4:-90 5:-85 9:-79 12:-90 14:-90 18:-81 19:-79 20:-88 23:-91 24:-81 26:-82 31:-81 32:-93 33:-90 51:-73 52:-73 53:-74 100:-65 104:-82 105:-65 113:-66 
-0 -0 -0 -0 0 0 0 0 0 0 0 0 0 0 0 0 0 0 0 0 0 0 0 0 0 0 0 0 0 0 0 0 0 0 0 0 0 0 0 0 0 0 0 0 0 2.57140076684996e-06 4:-89 5:-89 6:-87 7:-87 9:-79 12:-89 14:-85 15:-86 18:-78 19:-79 20:-89 23:-88 24:-78 26:-77 30:-91 31:-79 32:-94 48:-86 51:-69 52:-69 100:-63 104:-91 105:-63 
-0 -0 -0 -0 0 0 0 0 0 0 0 0 0 0 0 0 0 0 0 0 0.1740280190114016 0 0 0 0 0 0 0 0 0 0 0 0 0 0 0 0 0 0 0 0 0 0 0 0 0 4:-88 5:-79 9:-81 12:-88 18:-78 19:-80 20:-89 23:-91 24:-79 26:-81 30:-90 31:-80 33:-89 51:-74 52:-74 53:-74 100:-65 104:-93 105:-65 113:-66 
-2.57769194813089e-06 -0 -0 -9.108339450195589e-06 3.622841757504187e-06 1.59569430160994e-05 3.246463937881643e-06 2.411789611223083e-06 3.308571495487915e-06 2.383750282228589e-06 3.005438793250516e-06 9.060783673856002e-06 8.515754627254628e-06 2.369045004130699e-06 2.337190982595196e-06 3.645517563353439e-06 0 2.182654592729663e-06 0 5.746447265916031e-06 0 2.9691474741495e-06 0 3.026788130700076e-06 3.259460460570257e-06 3.222158614761565e-06 2.481046448102775e-06 3.109703168302327e-06 2.987506658085324e-06 2.361765163539911e-06 3.348119790053029e-06 3.641399341616333e-06 2.437521690429524e-06 2.148012834887772e-06 6.074230641779894e-06 2.868852620735244e-06 3.098167183174566e-07 2.863000934612898e-06 3.378444341016664e-06 3.431066540047236e-06 0 3.448072666053359e-06 7.355550388066071e-06 2.201195741404687e-06 3.344003508317523e-06 0 4:-88 5:-87 9:-80 12:-88 18:-79 19:-80 20:-92 23:-89 24:-79 26:-79 51:-72 52:-72 53:-73 100:-66 104:-82 105:-65 113:-66 
-1.21591020409387e-05 -1.329110313756988e-05 -0 -1.325233944599687e-05 1.62654928390808e-05 3.430036027452588e-05 1.48792501871868e-05 1.128912406393479e-05 1.551263270261321e-05 1.122983083273857e-05 1.416428789419645e-05 1.55737531315623e-05 2.210246970753334e-05 1.115399934610265e-05 1.099242592534375e-05 1.655605785097851e-05 1.294405939941026e-05 1.026243980929633e-05 1.961006798679091e-05 1.10417820244222e-05 0 1.396787249586223e-05 1.628379386436764e-05 1.34264688128708e-05 1.535785752916521e-05 1.10636550702788e-05 1.172793383626487e-05 1.396429317201784e-05 1.407444243750443e-05 1.03139064331069e-05 1.410116028161398e-05 1.717910589700285e-05 1.145763833216595e-05 1.011480416693737e-05 1.340319736118697e-05 1.354651453764508e-05 9.94688517530466e-06 1.345340359605395e-05 1.584449841377139e-05 1.554169020334198e-05 3.053916070613265e-05 1.621677707133077e-05 1.055597604845878e-05 8.563466675858223e-06 1.574776900452859e-05 6.160449465748202e-06 5:-81 9:-78 12:-92 19:-78 20:-89 24:-81 30:-92 31:-80 51:-71 52:-71 100:-60 105:-60 
-0 -0 -0 -0 0 0 0 0 0 0 0 0 0 0 0 0 0 0 1.512604576534604e-05 0 0.0007418056003055788 0 0 0 0 0 0 0 0 0 0 0 0 0 0 0 0 0 0 0 0 0 0 0 0 0 4:-88 5:-84 9:-84 12:-88 14:-87 18:-80 19:-83 20:-88 23:-88 24:-81 26:-82 30:-89 31:-84 33:-88 51:-71 52:-71 53:-71 100:-65 104:-82 105:-65 113:-66 
-0 -0 -0 -0 0 0 0 0 0 0 0 0 4.221915109424062e-06 0 0 0 1.23697190895981e-06 0 0 0 0 0 0 0 0 0 0 0 0 0 0 0 0 0 0 0 0 0 0 0 0 0 0 0 0 0 4:-88 5:-87 9:-80 12:-88 18:-79 19:-80 20:-92 23:-89 24:-79 30:-88 51:-72 52:-72 100:-66 104:-82 105:-65 113:-66 
-0 -0 -0 -0 0 0 0 0 0 0 0 0 0 0 0 0 0 0 0 0 1.65959013562721e-05 0 0 0 0 0 0 0 0 0 0 0 0 0 0 0 0 0 0 0 0 0 0 0 0 0 4:-88 5:-82 9:-83 12:-87 18:-81 19:-83 20:-88 23:-91 24:-80 26:-78 31:-84 33:-89 44:-86 51:-74 52:-74 53:-70 100:-65 104:-83 105:-65 113:-66 
-0 -0 -0 -0 0 0 0 0 0 0 0 0 0 0 0 0 0 0 0 3.928128106268347e-06 0 0 0 0 0 0 0 0 0 0 0 0 0 0 5.361574676243817e-07 0 0 0 0 0 0 0 7.050918968127494e-07 0 0 0 4:-88 5:-80 9:-83 12:-88 19:-82 20:-89 30:-89 31:-81 32:-90 33:-88 44:-87 45:-87 48:-87 51:-73 52:-73 100:-64 104:-85 105:-64 113:-65 
-1.387264728831352e-07 -0 -0 -0 9.607564267368347e-07 0 5.822249685268165e-07 1.01862049106181e-07 1.537902520586766e-07 1.123530343933073e-07 1.236947160127612e-07 0 0 1.125550028170348e-07 1.324713857603428e-07 8.740601286770248e-07 0 8.189738245512122e-08 0 0 0 1.443603121063906e-07 0 9.819178654834633e-07 1.576952774850463e-07 4.776904937882356e-06 1.433786389705442e-07 8.651233946154846e-07 1.377787400539436e-07 1.080552000282349e-06 2.043035259178639e-06 1.892770349536165e-07 1.138218794674014e-07 1.04021172661899e-07 0 1.519290310684632e-07 0 1.132584380701549e-07 1.669580214555446e-07 8.820413845482554e-07 0 1.564675667296614e-07 0 2.208791691356636e-06 1.550625134751716e-07 0 4:-89 5:-83 9:-81 12:-89 18:-77 19:-81 20:-88 24:-77 31:-80 51:-77 52:-77 100:-62 104:-87 105:-62 
-0 -0 -0 -0 0 0 0 0 0 0 0 0 0 0 0 0 0 0 0 0 0 0 0 0 0 0 0 0 0 0 0 0 0 0 0 0 5.86052434224992e-06 0 0 0 1.214612320533918e-05 0 0 0 0 0 4:-89 5:-83 9:-82 12:-89 18:-80 19:-82 20:-89 23:-90 24:-80 26:-81 32:-91 33:-89 51:-74 52:-74 53:-72 100:-65 104:-81 105:-65 
-0 -0 -0 -0 0 0 0 0 0 0 0 0 0 0 0 0 0 0 0 0 0 0 6.809602782591465e-06 0 0 0 0 0 0 0 0 0 0 0 0 0 0 0 0 0 0 0 0 0 0 0 4:-90 5:-81 9:-81 12:-89 14:-89 18:-80 19:-81 20:-88 23:-88 24:-80 26:-81 30:-90 31:-81 33:-89 51:-72 52:-72 53:-76 100:-65 104:-88 105:-65 
-0 -0 -0 -0 0 1.823266629323937e-05 0 0 0 0 0 0 0 0 0 0 0 0 0 0 0 0 3.681742054347962e-06 0 0 0 0 0 0 0 0 0 0 0 0 0 3.965091003246734e-06 0 0 0 1.643631824425361e-05 0 0 0 0 0 4:-91 5:-84 9:-81 12:-91 14:-88 18:-80 19:-81 20:-89 24:-81 26:-80 31:-81 32:-91 33:-87 35:-91 51:-71 52:-71 53:-72 100:-65 104:-86 105:-65 113:-65 
-0 -0 -0 -0 0 0 0 0 0 0 0 0 0 0 0 0 0 0 0 3.182860490001818e-07 0 0 0 0 0 0 0 0 0 0 0 0 0 0 0 0 0 0 0 0 0 0 4.40116183745152e-07 0 0 0 4:-88 5:-83 9:-80 12:-88 14:-88 18:-81 19:-80 20:-91 24:-81 31:-81 48:-87 51:-72 52:-71 53:-72 100:-65 104:-88 105:-65 113:-65 
-0 -0 -0 -0 0 0 0 0 0 0 0 0 0 0 0 0 0 0 0 0 0.0002498416172122421 0 0 0 0 0 0 0 0 0 0 0 0 0 0 0 0 0 0 0 0 0 0 0 0 0 4:-88 5:-83 9:-83 12:-88 18:-81 19:-83 20:-90 23:-89 24:-81 26:-79 30:-88 31:-84 33:-88 51:-72 52:-72 100:-65 104:-81 105:-65 113:-65 
-3.950539865903356e-06 -8.432029231207288e-06 -0.0004321589463815111 -3.793726447196685e-06 5.386627222779781e-06 2.392916990749061e-05 4.884185378521239e-06 3.670807039143784e-06 5.039147073171176e-06 3.648725506252024e-06 4.590749628573327e-06 4.851240879989434e-06 2.161651271327198e-05 3.619109315873306e-06 3.572925338510216e-06 5.462726798912655e-06 2.14558454979664e-05 3.320149351511295e-06 4.005051781082866e-05 1.071631423879753e-05 0 4.536392648324092e-06 1.776460885395709e-05 4.469383649741892e-06 4.991052704599782e-06 4.219436594737779e-06 3.810776781596176e-06 4.63015558592576e-06 4.571409561125443e-06 3.478001873617996e-06 4.827601366495638e-06 5.575576122232777e-06 3.719134530479026e-06 3.281876214407798e-06 4.219774684789389e-06 4.400295123164655e-06 1.507380060030052e-05 4.359128223826993e-06 5.154300774579661e-06 5.144717706809361e-06 3.068182708984257e-05 5.261421526558801e-06 3.37260488189479e-06 3.064748110400442e-06 5.116456508585149e-06 4.858157518029048e-07 5:-88 9:-87 18:-84 19:-87 24:-84 26:-88 31:-87 32:-89 44:-75 45:-76 48:-76 51:-57 52:-57 100:-47 101:-87 102:-84 103:-90 105:-46 106:-84 113:-47 130:-90 
-0 -1 -0 -0 -0 0 0 0 1 0 0 0 0 0 0 0 0 0 0 0 0 0 0 0 0 0.005541096290333622 0 0 0 0 1 0 0 0 0 0 0 0 0 0 0 0 0 0 0 0 57:-76 59:-75 60:-76 
-0 -0 -0 -0 -0 0 0 0 1 0 0 0 0 0 0 0 0 0 0 0 0 0 0 0 0 0 0 0 0 0 0 0 0 0 0 0 0 0 0 0 0 0 0 0 0 0 57:-62 59:-61 60:-62 63:-93 64:-92 67:-93 
-0 -0 -0 -0 -0 0 0 0 1 0 0 0 0 0 0 0 0 0 0 0 0 0 0 0 0 0 0 0 0 0 0 0 0 0 0 0 0 0 0 0 0 0 0 0 0 0 57:-63 59:-67 60:-66 67:-94 
-4.319444266874758e-07 -0 -4.721625205137474e-07 -3.854066314011639e-07 -3.380151963670185e-07 4.245684245012433e-07 0 3.286904763906074e-07 0 3.372418703506834e-07 7.905145193176639e-06 5.786683156687956e-07 2.786657528352429e-07 0 3.32111986070739e-07 0 4.314680471889055e-07 2.718375851497745e-07 3.356090645691183e-07 4.017430638862551e-07 2.712064334050408e-07 5.589102643217237e-07 4.077781907214879e-07 0 0 0 3.758174865703913e-07 6.312424430617558e-07 5.275207017672351e-07 3.646591288918183e-07 0 0 3.142980831079298e-07 2.645723108149659e-07 4.074626749166136e-07 0 2.834668176371354e-07 0 0 0 5.838645800758514e-07 3.99860275118677e-06 4.008631719682054e-07 2.841468012918789e-07 0 1.552584921471157e-07 57:-56 59:-56 60:-56 63:-89 64:-90 
-0 -0 -0 -0 -0 0 0 0 1 0 0 0 0 0 0 0 0 0 0 0 0 0 0 0 1 0 0 0 0 0 0 0 0 0 0 0 0 0 0 0 0 0 0 0 0.0004967096376298693 0 57:-56 59:-56 60:-56 63:-89 64:-90 67:-89 
-0 -0 -2.60966136930438e-05 -0 -2.731196281298641e-06 1.98279557987693e-05 0 0 0 0 0 0 0 0 0 0 0 0 0 0 2.496934369199056e-05 0 0 0 0 0 0 2.010488374088246e-06 0 4.27919043902147e-06 0 0 0 0 0 0 0 0 0 0 0 0 5.030341904469544e-06 1.358187211205518e-05 0 0 57:-60 59:-59 60:-60 104:-95 
-0 -0 -0 -0 -0 0 0 0 0 0 0 0 0 0 0 0 0 0 0 0 0 0 0 0 1 0 0 0 0 0 0 0 0 0 0 0 0 0 0 0 0 0 0 0 0 0 56:-91 57:-62 58:-92 59:-61 60:-62 61:-91 63:-88 64:-90 67:-90 
-0 -0 -0 -0 -0 0 0 0 0.1534728138388602 0 0 0 0 0 0 0 0 0 0 0 0 0 0 0 0.01990816850690202 0 0 0 0 0 0 0 0 0 0 0 0 0 0 0 0 0 0 0 0 0 57:-62 59:-63 60:-63 63:-94 67:-91 
-0 -0 -0 -0 -0 0 0 0 1 0 0 0 0 0 0 0 0 0 0 0 0 0 0 0 0 0 0 0 0 0 0 0 0 0 0 0 0 0 0 0 0 0 0 0 0 0 57:-61 59:-61 60:-62 63:-87 64:-92 
-0 -0 -0 -0 -0 0 0 0 1 0 0 0 0 0 0 0 0 0 0 0 0 0 0 0 0.08171972914561147 0 0 0 0 0 0 0 0 0 0 0 0 0 0 0 0 0 0 0 0 0 57:-61 59:-61 60:-60 63:-93 64:-92 67:-93 
-0 -0.02290445088439133 -0 -0 -0 0 0 0 6.755592894656813e-05 0 0 0 0 0 0 0 0 0 0 0 0 0 0 0 0.8023722681125107 0 0 0 0 0 0 0 0 0 0 0 0 0 0 0 0 0 0 0 0 0 57:-62 58:-91 59:-63 60:-63 63:-89 64:-89 67:-89 
-4.00151174922468e-05 -0 -1.988282499693737e-06 -3.651645861802125e-05 -2.316650676843595e-05 2.389660609855012e-05 6.787597118935406e-05 3.430058085345144e-05 0 3.391982130163522e-05 1.277574596449949e-05 5.431128474826342e-05 2.945078393940291e-05 2.92711712316362e-05 3.26360022685961e-05 8.435829310832016e-05 4.029995189136019e-05 2.849554072355736e-05 3.264709462350126e-05 4.206255600547099e-05 3.568232849549484e-06 5.540461536100917e-05 3.731337705308146e-05 0 0 0 3.710059611545153e-05 5.968357301994827e-05 5.6371481068536e-05 2.886824140967517e-05 0 9.768859117473546e-05 3.529899055481498e-05 2.784917732626929e-05 4.53206720945373e-05 3.509084112748608e-05 2.895820276215721e-05 2.029425782396277e-05 5.650232338576644e-05 6.420008922695407e-05 5.24362360629945e-05 0 3.554554199370376e-05 1.553973965761782e-05 0 1.603291217637211e-05 57:-57 59:-57 60:-57 
-0 -0 -0 -0 -0 0 0 0 0.5485726172069897 0 0 0 0 0 0 0 0 0 0 0 0 0 0 0 0 0 0 0 0 0 0 0 0 0 0 0 0 0 0 0 0 0 0 0 0 0 57:-60 59:-60 60:-61 63:-91 64:-93 
-0 -0 -0 -0 -0 0 0 0 1 0 0 0 0 0 0 0 0 0 0 0 0 0 0 0 0 0 0 0 0 0 0 0 0 0 0 0 0 0 0 0 0 0 0 0 0 0 57:-62 59:-62 60:-62 63:-87 64:-89 
-0 -0 -0 -0 -0 0 0 0 1 0 0 0 0 0 0 0 0 0 0 0 0 0 0 2.777737749961111e-06 0 0 0 0 0 0 0.01861579574827828 0 0 0 0 0 0 0 0 0 0 0 0 0 0 0 57:-67 59:-66 60:-67 63:-92 64:-92 67:-92 
-0 -0 -0 -0 -0 0 0 0 1 0 0 0 0 0 0 0 0 0 0 0 0 0 0 0 0 0 0 0 0 0 0 0 0 0 0 0 0 0 0 0 0 0 0 0 0 0 57:-64 59:-64 60:-64 63:-91 64:-92 67:-92 
-0 -0 -0 -0 -0 0 0 0 1 0 0 0 0 0 0 0 0 0 0 0 0 0 0 0 1 0 0 0 0 0 0 0 0 0 0 0 0 0 0 0 0 0 0 0 0 0 57:-57 59:-57 60:-57 63:-91 64:-92 67:-91 
-0 -0 -0 -0 -0 0 0 0 1 0 0 0 0 0 0 0 0 0 0 0 0 0 0 0 1 0 0 0 0 0 0 0 0 0 0 0 0 0 0 0 0 0 0 0 0 0 57:-57 59:-57 60:-57 63:-87 64:-88 67:-86 
-0 -0 -0 -0 -0 0 0 0 1 0 0 0 0 0 0 0 0 0 0 0 0 0 0 0 0 0 0 0 0 0 0 0 0 0 0 0 0 0 0 0 0 0 0 0 0 0 57:-63 59:-63 60:-63 63:-94 64:-92 67:-91 
-0 -0 -0 -0 -0 0 0 0 1 0 0 0 0 0 0 0 0 0 0 0 0 0 0 0 1 0 0 0 0 0 0 0 0 0 0 0 0 0 0 0 0 0 0 0 0 0 57:-59 59:-60 60:-59 63:-91 64:-92 67:-91 
