svm_type c_svc
kernel_type linear
nr_class 55
total_sv 2471
rho 0.62511 0.39935 0.0602746 -0.315297 0.474921 0.428911 0.0899619 -0.0567779 0.446937 0.385083 0.548059 0.67291 0.713674 0.0834658 0.548295 0.205116 0.529192 0.396616 -0.0193149 1.1551 0.325611 0.442721 0.0108399 0.729064 0.70979 0.798758 0.107195 0.836027 0.137359 0.695502 0.535694 0.241088 0.562408 0.522882 0.502324 0.667706 0.182443 0.0690118 -1.3122 0.354887 0.277586 0.116538 0.810911 0.0180968 -0.0173449 0.782518 0.67969 0.843517 0.674756 -0.0324418 0.573939 0.377205 0.304068 0.648466 -0.410694 -0.588272 -0.793517 -0.179855 -0.282913 -0.560176 -0.44506 -0.262363 -0.212009 -0.186434 0.586144 -0.948771 -0.581987 -0.101513 -0.493939 -0.521836 -0.370932 -0.634316 0.0696278 -0.779448 -0.382544 -0.678828 0.124705 0.400503 -0.242592 -0.551755 0.428096 -0.533698 -0.939513 -0.193208 -0.46461 3.96924 -0.0901907 1.47463 0.250058 -0.493366 -0.575208 -0.596795 -0.790566 -0.414756 -0.451421 0.363345 -0.640663 -0.640664 1.78758 0.0441776 0.44939 0.0700709 -0.649844 -3.11818 -0.315221 -0.486674 0.023685 -0.243693 -0.561195 3.75543 0.454585 -0.214477 -0.544675 0.417092 -0.779552 0.298017 0.456623 0.512336 -0.220626 0.297392 -0.0996729 40.4985 0.197367 -0.316175 0.595006 0.0300629 0.164606 -0.612704 0.551508 0.448399 0.320421 -0.197815 0.900469 -0.168248 0.50078 0.787303 -0.0620735 0.304988 0.228736 0.235253 0.446396 -0.122782 -0.242136 -0.773251 0.0630022 -0.0229113 -0.128412 0.676114 -0.449795 -0.32541 0.564107 0.702068 0.728128 0.470965 -0.327834 0.332774 0.088394 0.00614232 0.434148 -0.368475 0.49185 0.378292 -0.0229865 0.20877 0.397386 0.441062 0.504427 0.638735 0.682701 -0.136175 0.603624 0.14662 0.109939 0.290814 -0.169816 0.640437 0.309536 0.363918 -0.137154 0.683661 0.678485 0.414825 0.157201 0.816393 0.105093 0.66304 0.491343 0.183512 0.519413 0.536002 0.453566 0.737543 0.257635 0.00983529 0.000741284 0.292873 0.22111 0.199812 0.789042 -0.0703254 -0.430351 0.732005 0.625035 0.804791 0.57118 -0.214455 0.532537 0.659898 0.244384 0.612064 0.728519 0.655373 0.394054 0.535017 0.66803 0.696532 1.40496 1.05502 0.843666 0.388529 0.767098 1.05584 0.459914 0.595549 0.297953 0.816464 0.581517 0.664858 0.244649 0.828825 0.837754 0.679462 0.402968 0.91087 0.433848 0.829103 0.728202 1.32126 0.714914 0.755336 0.725849 0.832632 0.470706 0.376243 0.36915 0.602544 0.550041 0.486594 0.982097 0.306305 0.299635 0.88705 0.807581 0.997661 0.816279 0.285829 0.75308 0.618892 0.565521 1.3012 12.5852 -0.469148 -0.306385 0.552232 -0.698678 0.0165173 0.165965 0.286924 -0.474275 0.016804 -0.381409 -0.311 -0.191677 -0.549848 0.360377 -0.255094 -0.123075 -0.603561 0.316306 0.0924704 -0.0635973 -0.45535 -53.0288 -0.430933 0.25377 -93.7004 -0.339328 0.036972 -0.843203 -0.0467365 -0.0712922 -0.392326 -0.484907 -0.425832 -0.223905 -0.304003 -0.274336 0.556107 -0.524741 -0.548811 0.461473 -1.56039 0.560902 0.216933 -0.559039 0.0547258 -0.199654 -0.277209 0.172207 -0.352526 -0.185521 26.9579 -42.563 0.155747 0.326279 0.410343 -0.358274 0.156291 -0.246102 -0.257722 -0.0982702 -0.444201 0.345776 -0.119665 0.0172493 -0.503585 0.437078 0.12616 0.242821 -0.337044 7.01833 -0.309611 0.379997 0.284197 -0.209311 0.175828 0.638687 0.0935196 13.3912 -0.267052 -0.370588 -0.377829 -0.0870315 -0.171452 0.0824305 0.807324 -0.436961 -0.442858 0.48839 0.490891 0.649697 0.346083 -0.454779 0.193068 -0.0615424 -0.142976 0.304708 0.178488 0.371656 0.416674 0.48176 0.620489 0.666533 -0.578575 0.72421 0.11726 0.080425 0.263211 -0.253153 0.622271 0.147755 0.54208 -0.166385 0.651804 0.661883 0.389741 0.0468221 0.806381 -0.165861 0.645679 0.468461 0.1545 0.471192 0.5144 0.395949 0.72345 0.0031238 5.76686 -0.0290836 0.0709656 0.192501 0.170817 0.777859 -0.0997662 -0.0851776 0.717845 0.60643 0.779476 1.10735 -0.263805 0.510698 0.137958 0.0644318 0.593438 0.20689 0.187921 0.331787 0.497207 0.531397 -0.184919 0.329872 -0.0626777 -0.811779 0.473412 -0.282127 0.728293 0.0672318 0.200384 -2.48972 0.577152 0.548204 0.379797 -0.161691 0.733362 -0.131782 0.52845 0.316508 -0.0247416 0.331245 0.323212 0.268337 0.536626 -0.0858742 -0.215098 0.370473 0.100063 0.014376 -0.115997 0.69586 -0.169333 -0.293997 0.626781 0.486435 0.745317 0.499619 -0.294246 0.365433 0.125338 0.0435392 0.46395 -1.63654 0.13382 0.31949 0.391614 -0.377545 0.134314 -0.350642 -0.290849 -0.120438 -0.462017 0.325956 -0.141697 -0.00490808 -0.538334 0.418726 0.24091 0.0965195 -0.356718 0.306006 -0.329732 0.360796 0.21528 -0.230612 0.154036 0.305105 0.0713372 1.22167 -0.28776 -0.389967 -0.396677 -0.109111 -0.193241 -0.116626 0.911099 -0.454787 -0.460512 0.468994 0.21162 0.636534 0.326295 -0.472327 0.171325 -0.0837306 -0.164758 0.284308 0.0813049 0.257091 0.345601 -0.422139 0.0818823 -0.292309 -0.154656 -0.0120338 -0.503017 0.56388 -0.193342 -0.0583303 -0.514436 0.373975 -0.276906 0.119934 -0.402149 0.970571 -0.376192 0.313529 0.306862 -0.280284 0.101693 0.359303 0.0181521 -0.0688365 -0.335757 -0.433908 -0.280428 -0.161368 -0.243837 -0.234212 0.534035 -0.420411 -0.501533 0.433614 0.208343 0.603688 0.277857 -0.51285 0.119348 -0.13619 -0.216293 0.234715 -10.1336 0.958456 -0.486711 -0.0759011 -2.03551 -0.417269 -0.250147 -0.561042 0.200917 -0.268053 -0.138815 -0.626658 0.170925 0.292711 -0.112971 -0.483105 0.531099 -0.44391 0.362056 -0.0171379 -1.72681 0.781413 0.0434867 0.236338 -0.0767231 -0.405843 -0.497594 -0.503683 -0.235362 -0.299719 -0.980785 -4.80355 -0.55469 -0.559777 0.925294 0.176337 -5.52786 0.201524 -0.569928 0.0385741 -0.215219 -0.292412 3.75619 0.691343 -0.624454 -0.199434 -1.37566 -0.568628 -0.427003 -0.683277 0.00288579 -0.573944 -0.327898 -0.760781 0.0880767 -0.0697651 -0.299467 -0.609532 0.372788 -0.590189 0.0566809 -0.159104 -1.08372 0.55559 -0.138008 -0.289044 0.0999082 -0.559055 -0.633313 -0.638175 -0.454937 -0.564253 -1.06987 -0.179578 -0.678304 -0.682195 4.24228 -0.0154696 -77.4842 0.00342626 -0.690376 -0.21453 -0.396429 -0.463428 10.0943 -0.67001 -0.268016 -0.595451 -0.619141 -0.488774 -0.722581 -0.075225 -0.471433 -0.395446 -0.749419 0.218364 -0.238638 -0.373441 -0.656541 0.302827 -0.63877 -1.00921 -0.278493 -0.570385 -62.8407 -0.231099 -13.5742 0.110005 -0.61051 -0.675308 -0.682077 -0.187502 -0.595796 -0.559219 0.231156 -0.718194 -0.710507 -27.5526 -0.100565 0.358786 -0.0746797 -0.72912 1.03009 -0.460257 -0.520793 -0.120532 0.804143 0.123652 0.0868379 0.269289 0.0229065 0.626232 0.215359 0.333419 -0.159834 0.685034 0.665873 0.395266 0.237176 0.80892 0.139372 0.649649 0.47335 0.160899 0.502125 0.519185 0.440036 0.726285 0.133155 0.192154 -0.0226395 0.245332 0.198749 0.17719 0.780186 -0.0933442 -0.0700824 0.720866 0.610673 0.816177 12.4009 -0.205545 0.515536 -9.09244 0.373303 0.597646 -0.380577 -0.417962 -0.250859 -1.62656 0.200284 -1.07572 3.52852 -0.600305 -0.689956 0.264231 -0.113597 -0.783844 0.530653 12.1141 0.237925 -0.017662 -0.318337 0.012016 0.0430448 -0.156705 0.36736 -0.492334 -0.525895 -0.504227 -0.457978 -0.296811 -0.35171 0.497428 -0.555199 -0.639706 0.360243 0.175693 0.92464 0.22482 -0.93566 0.0378399 -0.213653 -0.242622 0.274047 -0.0372128 0.150622 -0.22352 0.544956 0.129357 0.261324 -0.294858 0.538198 0.590604 0.400428 -0.115834 0.747753 -0.069729 0.57202 0.371633 -0.0817688 0.184045 0.422555 0.331302 0.882805 -0.0234229 -0.137872 -0.145926 0.161703 0.0769439 -0.477477 0.999632 -0.214542 -0.221594 0.656967 0.526572 0.998454 0.545186 -0.235923 0.418325 0.18656 0.105832 2.68451 0.224032 -0.187758 0.751178 0.16573 0.295633 -0.542922 0.638887 0.614277 0.423329 -0.0630086 0.77633 -0.0326492 0.596615 0.403309 0.0751077 0.434251 0.361402 0.363844 0.386959 0.0139632 -0.101161 -0.913658 0.197654 0.113903 -0.182539 0.743798 -0.308513 -0.18582 0.653122 0.569485 0.78672 0.571 -0.200395 0.448455 0.222026 0.142505 0.538598 -0.361792 0.74778 -0.0217742 0.115493 -0.503565 0.513418 0.483046 0.224909 -0.246809 0.689882 -0.217864 0.461126 0.234071 -0.113341 0.269532 0.290545 0.190084 0.533356 -0.173334 -0.282536 -2.64607 0.0114294 -0.0744605 -0.183198 0.646797 -0.974448 -0.360135 0.532582 0.420265 0.702912 0.429996 -0.373231 0.285923 0.0370598 -0.0456207 0.391138 0.684883 -0.150213 0.362717 -0.058305 0.612185 0.719375 0.478527 0.0926414 0.841274 1.88719 0.705544 0.549459 0.259239 0.558395 0.590369 0.534886 0.772115 0.216474 1.0332 0.0802308 0.273552 0.295348 0.274931 0.817149 0.00932141 0.0860557 0.766858 0.671235 0.825799 1.16855 -0.0772144 0.587205 0.647598 0.0446584 0.659648 -0.446964 -0.330489 -0.872193 0.107323 0.0674587 -0.821198 -0.61135 0.369443 -0.592012 0.039432 -0.21713 -0.517599 -0.180858 -0.582771 -0.260591 -0.720126 -0.560917 -0.634946 -1.27005 -0.419975 -0.488078 -0.922842 0.301134 -0.859047 -0.683896 0.177424 -0.0226201 0.391915 0.000537569 -0.691869 -0.163616 -0.398973 -0.465794 -0.0458457 18.288 -0.393138 0.570526 0.460806 0.162326 -0.268143 0.70061 0.228321 0.857877 0.25471 -0.091841 0.365118 0.310425 14.294 0.582788 -0.162723 0.00640816 -0.270128 -1.02099 -0.0904702 -0.0750762 0.659088 -0.334439 -0.377209 0.63276 0.426355 0.647281 0.574294 -0.450668 0.863013 -0.0339158 -0.475349 0.409606 -0.502996 0.168952 0.389605 0.0264716 -0.436782 0.623919 -0.0851298 0.457866 0.12229 -0.225634 0.152877 0.181407 -0.0898826 0.485332 -0.40039 -0.926385 -0.392218 0.194337 -0.182871 -0.209642 0.574356 -0.450714 -0.447431 0.475861 0.307735 0.639749 0.498851 -0.747504 0.335058 -0.00163204 -0.528471 0.289101 0.763462 0.746238 0.941325 0.183164 0.848311 0.212537 0.733662 0.588882 0.338015 0.612865 0.601494 0.558034 0.980667 0.256379 0.145874 0.27144 0.420947 0.347629 0.339004 0.984464 -0.0423983 0.0602734 0.782912 0.702005 0.880379 0.714968 0.0452082 0.624113 0.44173 0.372958 0.719968 -0.0401312 -0.401044 -0.647845 0.272984 -0.516185 -0.00571088 -0.316941 -0.452585 -0.368612 -0.261726 -0.722504 0.0780777 -0.582626 -0.661454 -0.699166 -0.481368 -1.01318 -0.5756 0.231569 -0.733579 -0.731726 0.0670024 -0.132389 -9.37167 -0.0905724 -0.690201 -0.103407 -0.392046 -0.536477 0.00907715 -0.366843 -0.652135 0.941819 -0.634278 -0.0279638 -0.340148 -0.565538 0.0872152 0.515761 -0.0573798 0.020883 -0.605482 -0.673664 -0.677873 -0.491462 -0.513457 -0.5537 0.238695 -0.714556 -0.718123 1.00343 0.465607 0.333279 -0.0671238 -0.72543 -0.0974077 -0.454001 -0.516933 -0.113066 -0.374986 0.479693 -0.348414 0.342317 0.0963731 -0.258751 0.133486 -0.141234 0.0503059 12.1064 -0.306893 -0.407448 -0.787737 -0.129882 -0.213247 0.568523 0.849407 -0.779297 -0.477002 0.444295 0.283663 0.623842 0.30723 -0.488681 0.150733 -0.104675 -0.185295 0.264762 0.800222 0.140886 0.6356 0.454848 0.153501 0.484204 0.501388 0.409486 0.714737 -4.43404 -0.00579555 -0.0465674 0.241171 0.175663 0.154145 0.770876 -0.117089 -0.400768 0.709271 0.595231 0.78538 0.520364 -0.289411 0.497646 0.290369 0.191665 0.592602 -0.788744 -0.335047 3.00505 -0.744676 -0.491227 1.03851 -0.574721 -6.44764 -0.770621 -0.81324 -0.816327 -0.683545 -0.726387 -0.64279 0.372433 -0.838607 -0.840577 -0.209872 -1.02804 0.0262595 -0.369145 -0.84528 -0.50273 -0.669515 -0.712402 -0.40844 0.61699 0.430175 0.107404 0.431076 0.478384 0.374721 0.700011 0.0127597 -0.0292137 -0.0769784 0.0725513 0.145844 0.123973 0.75807 -0.147173 -0.135394 0.693759 0.575238 0.773708 0.815793 0.629807 0.474524 0.283677 -0.252581 0.561525 -0.254392 -0.545669 0.883285 -0.196806 -1.42181 0.145694 -0.587332 -0.657774 -0.662741 -0.988207 -0.729281 -0.53386 0.264906 -0.700559 -0.704256 -0.470863 -0.0648488 0.358141 -0.039071 -0.7119 21.5707 -0.431489 -0.558976 -0.0850316 -0.338447 0.0376387 -0.887452 -0.0460695 -0.0534975 -0.391445 -0.484783 -0.490975 -0.221315 -0.303337 -0.323608 0.486578 -0.542771 -0.547985 0.512836 -1.87331 0.561398 0.217428 -0.558417 0.0553715 -0.198902 -0.276754 0.173024 0.204891 0.391114 0.296911 0.362192 -0.0613553 -0.174926 -0.182809 0.124482 0.0391142 -0.457218 0.894694 -0.250499 -0.257428 0.633294 0.49857 1.42222 0.517958 -0.271353 0.386707 0.149689 0.0680724 10.8708 0.0230573 -0.54225 0.352999 -0.422723 -0.475357 -0.518927 -0.0621452 -0.408707 -0.345006 0.476413 -0.568611 -0.569391 -7.58592 0.156413 0.64258 0.186591 -0.581885 0.21461 -0.234567 -0.272105 0.403734 -0.106314 -0.720794 -0.441778 -0.529608 -0.50676 -0.280043 -0.357268 -0.374051 0.439029 -0.55886 -0.588833 0.322507 -98.3313 0.518454 0.159232 -0.598686 -0.0050873 -0.256154 -0.331676 0.113819 0.424273 -0.343147 -0.375239 -0.455151 -0.336427 -1.38831 -0.281759 0.520789 -0.509542 -0.515706 0.898498 0.23673 0.779892 0.320611 -0.571693 0.986208 -0.145532 -0.232352 0.217357 -0.675207 -0.733151 -0.64227 -0.560336 -0.616763 -56.7902 0.421735 -0.687889 -0.769657 -0.0213077 0.445384 0.369785 -0.183299 -0.77652 -0.337123 -0.542562 -0.598372 0.202032 -0.00044372 -0.123049 0.159384 0.100191 0.0780179 0.737784 -0.192052 -0.450985 0.668849 0.543432 0.742296 0.469106 -0.460326 0.437624 -30.7643 0.258287 0.528801 -0.0082727 0.0987583 0.212624 0.191262 0.785801 -0.0788873 -0.083787 0.727772 0.619479 0.788886 0.742022 -0.260015 0.530532 -0.127438 0.00532809 0.606731 0.300481 0.220456 0.150989 0.789178 -0.784947 -0.0781748 0.718518 0.643741 0.824939 0.640309 -0.0931918 0.532031 0.323634 0.247942 0.612049 -0.113914 -0.107868 0.640391 -0.363552 -0.36562 0.517704 0.398867 0.697244 0.476737 -0.386184 0.886845 0.0498137 0.322367 0.381819 -0.0223275 0.688371 -0.286629 -0.293544 0.784327 0.468749 0.763278 0.488733 -0.307332 0.561368 0.111292 0.026589 0.452438 0.955662 -0.164589 -0.272902 0.620277 0.486021 0.993174 0.505601 -0.286789 0.372414 0.133402 0.0514489 1.00355 -0.814234 -0.816598 -0.157007 -0.324199 48.2227 -0.300715 -0.821743 -0.442784 -0.624781 -0.672526 6.69756 -0.00731256 0.764074 0.67519 0.846357 0.680368 -0.0224666 0.581136 0.385547 0.313414 0.654718 0.766022 0.670094 0.836008 0.631159 -0.0604135 0.58593 0.706629 0.321491 0.658478 -0.188127 0.235479 -0.172007 -0.772302 -0.853759 -0.534536 -0.590199 -0.216726 0.413383 0.0259933 -0.678163 -0.13875 -0.377216 -0.445593 -0.0204153 -0.391701 -0.84092 -0.522247 -0.617287 -0.721632 8.74067 -0.757135 -0.163896 0.0989086 -0.202633 -0.0462586 0.59579 0.61933 0.321762 0.667251 -0.251318 -0.46104 0.118677 0.0278062 0.359531 0.42909
label 13 8 10 26 45 40 44 32 3 46 42 43 47 16 11 23 37 7 17 18 53 12 34 51 27 52 25 4 48 21 2 38 39 19 50 14 31 6 33 20 54 49 28 35 22 24 1 36 30 15 29 5 9 55 41
probA -4.56384 -3.61775 -4.34699 -4.51679 -4.42577 -4.58717 -4.51196 -4.46038 -4.64661 -4.49771 -4.46516 -4.57936 -4.53791 -4.3829 -4.75725 -4.35335 -3.79819 -3.24236 -4.58488 -3.97402 -4.67377 -4.51855 -4.11295 -4.20302 -4.3726 -4.47372 -4.52586 -4.50348 -4.38494 -4.76174 -4.47834 -4.39263 -4.47088 -4.15659 -4.35866 -4.47709 -4.42201 -4.53423 -3.34291 -4.40967 -4.45065 -4.30629 -4.24999 -3.98777 -4.40139 -4.87521 -4.60007 -4.47002 -4.4775 -4.54235 -4.40678 -4.22303 -4.38669 -4.37216 -4.49701 -4.40526 -4.79608 -4.33277 -4.37741 -4.5314 -4.40959 -4.51372 -4.58184 -4.38446 -3.73305 -0.68655 -4.46716 -4.49688 -4.33656 -4.53505 -4.29404 -4.72354 -4.13222 -3.92616 -4.19949 -4.67085 -3.74059 -3.66795 -4.34718 -4.62031 -4.03923 -4.37122 -1.4289 -4.42589 -4.41895 -1.66534 -4.22184 -1.99838 -4.47505 -4.39011 -4.61183 -4.43297 -4.38915 -3.74212 -4.37927 -3.8815 -4.51972 -4.4906 -0.975045 -4.29434 -3.9859 -4.07243 -4.71677 -0.800908 -4.04039 -4.26038 -4.2055 -4.37369 -4.58811 -3.03185 -4.18111 -4.53886 -4.34126 -4.3305 -3.65665 -4.46368 -4.39816 -4.57879 -4.429 -4.73316 -4.35898 -0.494107 -3.39981 -4.64756 -4.08715 -4.67717 -4.47864 -4.30195 -4.1087 -4.17341 -4.49662 -4.58537 -4.14748 -4.42935 -4.71777 -4.17013 -4.42722 -4.51019 -4.29273 -4.32182 -4.39832 -4.45486 -4.57104 -3.47314 -4.43824 -4.48687 -4.32004 -4.22475 -3.80935 -4.4401 -4.53641 -4.25069 -4.43308 -4.41267 -4.61797 -4.47051 -4.19714 -4.39922 -4.39836 -4.4763 -4.37731 -4.47638 -4.29728 -4.43915 -4.56464 -4.58337 -4.3293 -4.41067 -4.41414 -3.92624 -4.49448 -4.24664 -4.47619 -4.24326 -4.46108 -4.2519 -4.46822 -4.3829 -4.34813 -4.00416 -4.23525 -4.42878 -3.77168 -4.36962 -4.24212 -4.62602 -4.36878 -4.30151 -4.36532 -4.22035 -4.19864 -4.6024 -3.98869 -4.39569 -4.28371 -4.26034 -4.35073 -4.26988 -4.12151 -4.31291 -3.01758 -4.5821 -4.44567 -4.27544 -4.20809 -3.88499 -4.29732 -3.63393 -4.23872 -4.24479 -4.61192 -4.75756 -4.5661 -4.72508 -4.83415 -4.83817 -4.22265 -3.93806 -4.68651 -4.49353 -4.95584 -4.05608 -4.74495 -4.5049 -4.64442 -4.5588 -4.83008 -4.6812 -4.4428 -4.32768 -4.54615 -4.70996 -4.60726 -4.72556 -4.50075 -4.886 -4.57533 -3.07085 -4.50404 -4.49241 -4.5152 -4.6193 -4.54213 -4.62468 -4.47781 -4.54488 -4.55374 -4.44505 -4.46538 -4.47499 -4.49236 -4.94788 -4.78871 -4.71729 -4.70361 -4.61465 -4.54565 -4.44252 -4.51146 -4.15025 -2.04298 -4.58245 -4.51568 -3.27686 -4.38692 -4.4718 -4.22161 -4.66804 -4.42783 -4.7664 -4.30305 -4.58491 -4.40518 -4.69835 -4.57353 -4.68691 -4.52227 -4.50845 -4.04641 -3.41313 -4.35776 -4.63242 -0.397715 -4.37608 -4.73202 -0.769584 -4.45087 -4.57945 -4.11193 -4.25378 -3.15399 -4.44808 -4.63249 -4.28762 -4.38691 -4.51564 -4.12659 -4.02668 -4.36433 -4.43907 -4.37749 -3.30623 -4.40543 -4.33475 -4.65524 -4.54067 -4.12518 -4.39864 -4.44682 -4.62074 -4.5148 -0.697846 -0.930546 -4.40734 -4.20816 -4.55531 -4.53298 -4.68981 -4.60872 -4.60428 -4.38845 -4.78014 -4.2966 -4.68917 -4.51225 -4.72421 -3.97458 -3.71979 -4.9255 -4.71008 -0.283205 -4.46416 -4.59075 -3.58451 -4.50592 -4.48469 -3.3835 -4.30709 -1.22646 -4.52162 -4.68111 -4.47127 -4.4831 -4.53412 -4.49511 -4.39191 -4.56875 -4.54662 -4.47229 -3.64366 -4.32818 -4.35207 -4.73849 -4.44786 -4.28656 -4.4584 -4.36021 -4.56693 -4.74749 -4.76385 -4.5045 -4.61682 -4.64606 -3.57638 -4.24613 -4.40451 -4.60606 -4.43048 -3.64323 -4.46257 -4.13973 -3.97346 -4.48902 -4.12981 -4.42846 -4.60032 -4.44119 -4.56345 -3.75679 -4.83737 -4.57546 -4.45153 -4.43766 -4.41294 -4.09274 -4.79857 -4.19367 -2.13055 -4.40421 -4.273 -4.50655 -4.41476 -4.32902 -4.41272 -4.40109 -4.79274 -4.68423 -4.40773 -3.4038 -4.40443 -4.52039 -2.85671 -4.3053 -4.44962 -4.62178 -4.67134 -4.36303 -4.47288 -4.54885 -4.45191 -4.69637 -4.42474 -3.19628 -4.25421 -4.69186 -4.31384 -4.67583 -4.45805 -3.05803 -4.09902 -4.25206 -4.25396 -4.62534 -4.35461 -4.41727 -4.60803 -4.44753 -4.44926 -4.52877 -4.21394 -4.34326 -4.51274 -4.4707 -4.66849 -4.38002 -4.41704 -4.46054 -4.39949 -4.13095 -4.07113 -4.5723 -4.56424 -4.47306 -4.29063 -4.35915 -4.68923 -4.40773 -4.27285 -4.37735 -4.34587 -2.95388 -4.55082 -4.34946 -4.66705 -4.59188 -4.87562 -4.69678 -4.6966 -4.498 -4.86488 -4.4604 -4.78937 -4.6368 -4.78408 -4.11906 -4.33962 -5.23281 -4.78803 -1.97082 -4.55034 -4.76186 -4.35072 -4.58503 -4.64204 -4.04399 -4.42551 -4.45225 -4.61096 -4.78577 -4.56681 -4.57571 -4.64991 -4.59657 -4.34943 -4.60384 -4.61778 -4.59465 -4.25878 -4.44402 -4.4834 -4.84099 -4.59869 -4.30018 -4.50678 -4.5007 -4.6178 -4.54578 -4.7626 -4.65287 -4.90206 -4.56713 -4.38841 -4.57987 -4.91468 -4.42205 -4.85706 -4.68511 -4.61155 -4.21425 -4.22617 -4.5321 -4.82944 -4.53559 -4.58265 -4.88611 -4.28554 -4.67206 -4.72579 -3.67427 -4.48129 -4.27736 -4.65111 -4.86385 -4.50162 -4.63909 -4.71759 -4.56296 -4.35199 -4.45676 -4.66043 -4.65054 -4.3929 -4.49471 -4.49742 -4.87654 -4.70127 -4.32177 -4.57557 -4.59076 -1.27719 -4.58841 -4.41574 -4.63124 -3.34558 -4.46868 -4.29363 -4.65522 -4.24261 -4.55018 -4.42404 -4.52362 -3.6966 -4.17807 -4.41142 -4.54847 -4.21148 -4.32584 -4.82235 -4.4875 -3.69175 -3.68855 -4.28907 -4.06485 -3.98355 -4.37998 -4.57594 -4.34754 -4.38834 -4.42866 -4.5198 -2.96946 -4.40848 -4.40024 -4.84379 -4.38572 -2.64663 -4.1826 -4.6201 -4.42445 -4.07311 -4.31112 -0.993659 -4.03775 -4.48718 -4.5922 -2.32452 -4.54417 -4.32485 -4.78165 -4.17782 -4.55227 -4.4449 -4.59197 -3.70466 -3.6082 -4.21701 -4.65851 -3.95067 -4.42008 -4.1789 -4.24978 -3.44608 -3.67593 -4.15024 -3.67408 -3.32076 -4.4586 -4.72367 -4.50114 -4.52099 -4.49009 -4.15331 -0.627975 -4.50858 -4.51945 -1.93596 -4.22583 -0.416018 -4.08611 -4.75094 -4.31252 -4.10307 -4.32819 -1.88521 -4.4953 -4.76017 -4.41068 -4.56503 -4.39154 -4.78761 -4.34501 -4.20522 -4.54734 -4.65882 -3.99019 -3.95102 -4.48927 -4.71692 -4.28046 -4.41754 -2.70231 -4.68143 -4.49346 -0.702854 -4.44041 -1.6211 -4.78891 -4.50473 -4.73539 -4.48902 -4.35938 -4.11514 -4.46772 -4.17419 -4.47676 -4.52692 -0.237215 -4.45504 -4.24598 -4.24589 -4.74648 -2.90308 -4.2812 -4.4245 -4.45983 -3.80314 -4.29937 -4.52846 -4.29785 -4.23253 -4.3215 -4.45393 -4.31308 -4.39302 -4.10299 -4.29686 -4.49933 -3.9373 -4.42845 -3.93341 -4.64302 -4.42667 -4.34177 -4.4234 -4.28187 -4.24835 -4.64998 -3.72211 -4.24577 -4.31717 -4.33476 -4.39314 -4.31621 -4.22328 -4.34548 -4.06648 -4.62212 -4.49967 -4.42311 -0.463572 -4.41291 -4.39624 -0.150195 -4.35063 -4.33453 -4.59865 -4.77098 -4.57607 -4.0253 -4.5192 -4.62814 -0.461047 -4.8571 -3.01211 -4.47194 -4.67425 -4.73789 -4.46104 -0.844918 -4.82857 -4.77446 -4.70375 -4.70473 -4.54014 -4.21514 -4.82372 -4.44223 -4.66834 -4.67778 -4.44221 -4.75117 -4.65385 -4.29154 -4.72338 -4.50437 -4.59884 -4.66932 -3.14955 -2.96952 -4.74349 -4.69293 -3.92159 -3.87174 -4.54198 -4.4597 -4.23325 -4.52024 -4.24129 -4.52209 -4.38275 -4.38842 -3.62375 -4.2088 -4.68614 -4.43409 -4.3497 -4.27242 -4.53662 -4.33903 -2.70769 -4.03652 -4.2352 -4.16863 -3.84575 -4.30221 -4.45328 -4.26253 -4.29371 -4.34175 -3.81513 -2.91418 -4.29345 -4.32148 -4.48418 -4.42061 -3.54624 -4.31709 -4.50117 -4.28792 -4.05665 -4.25629 -2.84861 -3.71422 -4.74497 -3.7392 -4.73741 -4.57259 -4.15192 -4.17194 -4.36203 -4.24244 -4.65174 -4.48079 -4.48692 -4.72279 -4.55307 -4.50109 -4.54094 -4.29834 -4.39218 -4.28936 -4.50231 -4.67761 -3.60494 -4.48614 -4.55355 -4.25768 -4.24783 -4.12245 -4.58031 -4.68929 -4.61161 -4.47749 -4.43802 -4.72092 -4.47373 -4.26736 -4.44547 -4.40535 -4.53788 -4.12167 -4.5263 -4.35996 -4.35121 -3.95038 -4.1614 -4.13535 -4.46298 -4.22106 -4.24956 -4.54319 -4.37391 -4.33517 -4.36577 -4.21181 -4.12806 -4.29289 -4.31165 -4.48242 -1.98045 -4.29451 -4.34141 -4.194 -4.03595 -3.54022 -4.31527 -4.44704 -4.38823 -4.22821 -4.19918 -4.51872 -4.31557 -4.11088 -4.26732 -4.23273 -4.60656 -4.34554 -4.10083 -4.55773 -4.26768 -4.57942 -4.72961 -4.46742 -4.74986 -2.22827 -4.96451 -4.6706 -4.57411 -4.5793 -4.56164 -4.22583 -4.95818 -4.36931 -4.76654 -4.50032 -4.51907 -4.61555 -4.52749 -4.50265 -4.52864 -4.48457 -4.93358 -4.80437 -4.65582 -3.23155 -4.42248 -4.6423 -4.12726 -4.39475 -4.58097 -4.50102 -4.33162 -4.40731 -3.72686 -4.03375 -4.31311 -4.519 -4.01405 -4.28836 -4.41856 -4.51069 -4.35521 -4.3656 -4.09622 -4.03773 -4.18946 -4.33177 -4.52846 -4.21166 -4.31549 -4.37691 -4.30877 -3.88996 -4.33442 -4.33797 -4.18807 -4.23989 -3.99242 -4.06224 -4.59266 -4.32308 -3.99446 -4.22149 -4.18416 -0.678839 -4.72748 -3.96588 -4.37168 -4.71588 -4.71661 -4.53174 -4.17196 -4.65136 -4.69425 -4.64088 -3.91351 -4.51076 -1.63197 -4.83875 -4.64318 -4.56603 -4.59027 -4.22136 -4.2855 -4.57569 -4.32948 -4.64199 -4.55353 -4.25516 -4.64737 -4.28584 -4.32087 -4.60863 -4.06191 -4.42501 -4.36326 -4.51088 -4.57167 -3.80333 -4.28866 -4.46951 -4.49052 -4.31579 -3.55522 -4.5019 -4.52203 -4.44095 -4.48802 -4.34245 -3.57712 -4.66345 -4.27804 -4.22112 -4.43149 -4.15393 -4.48968 -4.41175 -4.12906 -4.49043 -4.41189 -4.48099 -4.47507 -4.30971 -3.87293 -4.59604 -4.12913 -4.22273 -3.61886 -4.35205 -4.2958 -4.47984 -4.27552 -4.53611 -4.65321 -4.36418 -4.82314 -4.54288 -4.41223 -4.53724 -4.39586 -4.42046 -4.67477 -4.43408 -4.53257 -4.28445 -4.46726 -4.47398 -4.23802 -4.41786 -3.99725 -4.39604 -4.82026 -4.70868 -4.62267 -4.56511 -4.53979 -4.50037 -4.27942 -4.39933 -4.45945 -3.64995 -3.98009 -4.22073 -3.5303 -3.87828 -4.10827 -4.05295 -3.86431 -3.99746 -3.82846 -3.88853 -4.05908 -3.96508 -4.19509 -4.06078 -4.00982 -3.57487 -3.97272 -3.41585 -4.14187 -4.11055 -3.72241 -3.83727 -0.682012 -3.65921 -4.27885 -3.91916 -3.47579 -3.98231 -3.59029 -4.24849 -4.48937 -4.27115 -4.25443 -4.7518 -3.56466 -4.30799 -4.03607 -3.75269 -3.59661 -4.47669 -4.29074 -4.49131 -4.27963 -4.19252 -4.30401 -4.21512 -3.79066 -4.3021 -4.32197 -5.17783 -4.15583 -3.88238 -3.94815 -4.55324 -4.0364 -3.91264 -4.19146 -4.10302 -4.63354 -4.37383 -4.43946 -4.61836 -4.50372 -4.43211 -4.49629 -4.09832 -4.2193 -0.844331 -4.45718 -4.67371 -4.4825 -4.45969 -4.51539 -0.298625 -4.14746 -4.47608 -4.49765 -4.49071 -4.42438 -4.27237 -4.32988 -4.70015 -4.44084 -4.28008 -4.40719 -4.32495 -4.63509 -4.34345 -4.8449 -4.61349 -4.53211 -4.62342 -4.47768 -4.41462 -4.8633 -1.61202 -4.55474 -4.45385 -4.4698 -4.56462 -4.45238 -4.39769 -4.45428 -3.94816 -4.81661 -4.70483 -4.51101 -4.36285 -4.30892 -4.57988 -3.31837 -4.45794 -4.50024 -4.38909 -4.30636 -1.26336 -4.37871 -4.31022 -2.15726 -4.04904 -0.582568 -4.39661 -4.63323 -4.39867 -4.33139 -4.44318 -4.06125 -3.21358 -4.47273 -4.46951 -3.92006 -4.22458 -3.68825 -3.9062 -4.70033 -4.28257 -3.99734 -4.34277 -4.13122 -4.56981 -4.37463 -4.313 -4.26948 -4.2229 -3.93144 -4.56716 -4.21118 -4.20683 -4.29712 -4.2057 -4.36842 -4.27538 -4.13966 -4.33875 -4.32053 -4.58797 -4.47057 -4.25033 -3.59132 -2.97952 -4.34014 -3.74124 -3.937 -4.27548 -4.76327 -4.65694 -0.434595 -4.51022 -4.02221 -4.80933 -4.62827 -4.85691 -4.64269 -4.40381 -4.56503 -4.61088 -4.19689 -4.67682 -4.67015 -0.646666 -4.53178 -4.27576 -4.38883 -4.9103 -0.804167 -4.34657 -4.51295 -4.50906 -4.46963 -4.60468 -4.53454 -4.27981 -3.95316 -4.42844 -4.62344 -4.36046 -4.45005 -4.51394 -4.40939 -4.26462 -4.37046 -4.4116 -4.61698 -1.87638 -4.4069 -4.36719 -4.62805 -4.56631 -4.1326 -4.3941 -4.48512 -4.24583 -4.29472 -4.27458 -4.06311 -4.3963 -4.52304 -4.31028 -4.3766 -4.40472 -4.16023 -3.71656 -4.34691 -4.36664 -4.56208 -4.5536 -3.58412 -4.34621 -4.54175 -4.39321 -4.13513 -4.31189 -2.9603 -4.39408 -3.80537 -4.78493 -4.4466 -4.54934 -4.37951 -4.22194 -4.0093 -4.37074 -4.16407 -4.40203 -4.45912 -0.413301 -4.50598 -4.34889 -4.29797 -4.62875 -2.66777 -4.15812 -4.24905 -4.26802 -4.07647 -4.12119 -4.29499 -4.47722 -4.22562 -4.28434 -4.34099 -4.27508 -4.01217 -4.19957 -4.28497 -4.28376 -0.172177 -4.1377 -4.09403 -4.52149 -4.36479 -3.97585 -4.21769 -4.24006 -4.35321 -4.22641 -4.17079 -4.24652 -4.18739 -3.70193 -4.2021 -3.80826 -4.33818 -4.31147 -4.08496 -4.18485 -4.00492 -3.8885 -4.52864 -3.13099 -3.98005 -4.1798 -4.05989 -4.63709 -4.86358 -4.46898 -4.63825 -4.71376 -0.769587 -2.60137 -4.45099 -4.58656 -4.28193 -4.48542 -4.14867 -4.3874 -4.90358 -4.72796 -4.29672 -4.54231 -3.78918 -4.45146 -4.32827 -4.29777 -4.40534 -4.33517 -4.21029 -4.34786 -4.17283 -4.56343 -4.52995 -4.25137 -4.15448 -4.37842 -4.39579 -0.625892 -4.49631 -4.31924 -4.45913 -4.41113 -4.56394 -4.46978 -4.41223 -4.47045 -4.46108 -4.85571 -4.71301 -4.49176 -3.57578 -4.58944 -4.56429 -4.15682 -4.27338 -4.52246 -4.33335 -4.35897 -4.27612 -4.15792 -2.65471 -4.31901 -4.65895 -4.47076 -4.37549 -4.36923 -4.47552 -4.36746 -4.13386 -4.28036 -4.26914 -4.26823 -4.30849 -4.11921 -4.34734 -4.35833 -4.00147 -4.47176 -4.34376 -4.05676 -4.58509 -4.13837 -4.19485 -3.42371 -4.30493 -4.36249 -4.22277 -4.36794 -4.39552 -4.39047 -4.55002 -3.68886 -4.4006 -4.59048 -4.14384 -4.16166 -4.35087 -4.37365 -4.4827 -4.21842 -4.30999 -4.52686 -4.45878 -4.73964 -4.30575 -4.50718 -4.353 -4.15046 -4.25735 -4.47213 -4.18231 -4.2139 -3.72491 -3.97668 -1.2032 -3.7858 -4.46809 -4.15435 -3.75998 -4.06915 -2.72372 -4.33603 -4.71363 -4.55777 -4.4561 -4.40912 -4.49921 -4.34983 -4.16823 -4.30268 -4.28247 -4.65496 -4.56075 -4.39846 -4.39133 -3.61837 -4.3714 -3.78436 -4.32184 -4.30847 -4.25858 -3.80707 -4.05506 -4.91088 -2.59994 -4.16525 -4.45124 -4.24803 -4.0812 -4.15987 -4.82102 -4.45998 -4.13036 -4.40289 -4.29966 -3.9402 -4.64542 -4.28003 -3.84651 -4.22851 -2.15333 -4.42967 -4.24631 -3.81376 -3.50592 -4.10882 -4.60901 -4.36959 -4.47523 -4.54603 -4.09156 -4.17626 -4.38669 -4.24745 -4.01302 -4.23945
probB 0.339025 -0.220566 -0.0658038 -0.0556674 0.147939 0.352665 0.0516672 0.0518366 0.418312 0.234891 0.16668 0.380625 0.359742 0.00246544 0.557312 -0.0153318 0.374647 -0.106262 0.11645 0.398474 0.36219 0.238946 0.131777 -0.0402878 0.119409 0.392026 0.112331 0.355622 0.0132614 0.488163 0.191907 0.0514657 0.207953 0.0468979 0.0845287 0.34957 0.0392986 0.0988474 -0.110341 0.100297 0.131899 -0.0413521 0.0997573 0.349755 -0.0831728 0.582223 0.321482 0.36473 0.291857 0.116246 0.188449 -0.0656391 0.0312657 0.0988812 -0.110553 -0.492917 -0.524433 -0.0746209 -0.167388 -0.307873 -0.259874 0.0246909 0.161747 -0.183851 0.125384 0.189577 -0.472358 0.362989 -0.480745 -0.25862 -0.348684 -0.241953 -0.0760276 -0.358937 -0.427285 -0.438013 -0.209474 -0.336307 -0.0917028 -0.201778 0.0889679 -0.433356 0.514903 0.135209 -0.368757 -0.837142 -0.120075 -0.193417 0.495597 -0.352601 -0.243314 -0.500805 -0.412958 0.0274096 -0.385201 -0.0227918 -0.376049 -0.539495 0.0666381 0.177302 0.0980686 -0.122883 -0.314612 -0.132819 -0.460474 -0.537646 -0.0391062 -0.265321 -0.218784 0.123329 -0.213483 -0.15773 -0.0383138 -0.0358339 0.264547 0.00701039 0.0989901 0.199248 -0.25499 0.312169 -0.200292 0.633814 -0.0920015 -0.0196132 -0.0790491 0.165387 -0.132951 -0.138627 -0.224549 -0.18765 0.575976 -0.0522936 0.164651 -0.25849 0.320592 0.193609 -0.152121 0.061696 -0.119382 -0.105576 0.143676 -0.212709 -0.0499081 0.27103 -0.0913392 -0.0716036 -0.167196 -0.0965688 0.0115321 -0.214982 0.57888 -0.0457539 0.0911293 0.0114254 -0.0747837 0.0365751 -0.306699 -0.155354 -0.0400001 -0.0575111 0.4214 0.433194 0.125176 0.34108 0.537619 0.631684 0.35554 0.591718 0.61106 0.0418229 0.740586 0.0907588 0.328599 0.166549 0.17272 0.388424 0.50259 0.400284 -0.0207352 0.164012 0.348108 0.44443 0.240249 0.621196 0.0187646 0.745241 0.373183 0.183619 0.388963 0.25022 0.228186 0.763279 0.373276 0.208728 0.00718067 0.195619 0.226989 0.0939851 0.32862 0.0486643 0.0611497 0.74988 0.607296 0.515078 0.425118 -0.109221 0.399084 0.341574 0.160174 0.335738 0.314389 0.48881 0.170064 0.388453 0.532354 0.588149 0.334551 0.345313 0.485996 0.100394 0.757628 0.324017 0.393368 0.153493 0.205123 0.295049 0.50678 0.379296 0.0029942 0.0399916 0.3224 0.451929 0.177439 0.525232 0.101476 0.691332 0.280445 0.671824 0.245089 0.162581 0.258122 0.445473 0.152333 0.199687 0.0512126 0.22074 0.228934 0.177149 0.411409 0.0462083 0.0517861 0.81553 0.558951 0.685388 0.436 0.184428 0.270904 0.0902478 0.147871 0.154808 0.131199 -0.22896 -0.140928 0.0725824 0.280895 -0.129901 0.0282106 0.147605 -0.358956 0.252566 -0.221278 -0.0568372 -0.14204 -0.147236 0.0528162 -0.0123738 -0.140345 -0.269707 -0.381098 -0.0657665 0.109013 -0.171449 -0.487055 -0.365108 0.240694 -0.0881385 -0.292755 -0.0196727 -0.0601604 -0.324632 -0.134937 -0.327364 -0.182425 -0.281287 -0.192618 -0.167185 -0.184977 -0.129043 -0.318538 -0.386515 0.370113 0.425674 0.0653301 -0.154111 -0.186667 -0.068383 -0.523241 -0.309723 -0.11004 -0.2747 -0.171075 -0.0246878 0.397072 0.0412518 -0.0348093 0.291995 -0.345633 0.401326 -0.429091 -0.176452 -0.240359 -0.193979 0.0752193 0.0787863 -0.0131162 -0.498812 -0.184505 0.0135375 0.0803281 -0.224397 0.300435 -0.365332 0.498104 0.783268 -0.290091 0.14888 -0.280019 -0.233939 0.466256 -0.331461 -0.222653 -0.402104 -0.137759 -0.129754 -0.479497 -0.00216602 -0.349792 -0.43925 0.40218 0.582684 0.179711 0.0235267 -0.259482 0.100769 -0.246685 -0.291018 0.0762471 0.116005 0.353196 0.456978 0.193596 0.374877 0.401039 0.18997 0.466164 -0.0861174 0.152292 -0.00114991 0.308511 0.170837 0.569596 0.635167 -0.145756 -0.0217464 0.162844 0.255793 0.0163396 0.381161 0.409797 0.508498 0.198908 -0.0125904 0.111011 0.0805977 0.223785 0.609369 -0.0173025 -0.413181 -0.130674 0.0470521 0.0582881 -0.0630698 0.13266 -0.103935 -0.0994675 0.531274 0.339386 0.264434 0.742518 0.0522992 0.192021 0.464097 0.137691 0.154286 0.280108 0.236423 0.13571 0.229231 0.290268 -0.235158 0.343233 -0.26628 -0.259972 0.179788 -0.076638 0.374233 0.228075 0.0405221 -0.0338476 -0.195169 0.0962243 0.461298 -0.0526472 0.305606 -0.228982 0.502757 0.17286 -0.169738 0.0946734 0.0174462 -0.139116 0.474407 -0.16849 -0.141443 0.0886569 -0.0370233 -0.0334451 -0.205514 0.0640949 -0.12266 -0.349306 0.714245 0.308651 0.29945 0.10561 -0.144261 0.13326 -0.196195 -0.145914 0.0254972 1.00462 -0.137578 -0.176006 0.197343 -0.499508 0.17106 -0.646544 -0.279212 -0.38293 -0.304786 -0.126323 -0.0820644 -0.161708 -0.627234 -0.385131 -0.166091 0.0586539 -0.289118 -0.809492 -0.493249 0.29555 0.261159 -0.403832 -0.0211088 0.0151006 -0.235565 -0.126615 -0.416404 -0.322553 -0.503151 -0.316636 -0.25666 -0.677272 -0.140949 -0.44211 -0.549264 0.19603 -0.00553606 0.112307 0.0109414 -0.33812 -0.0673181 -0.5516 -0.433689 -0.0983523 -0.246667 -0.113838 0.0641143 -0.538876 0.107938 -0.534182 -0.131567 -0.28726 -0.374992 0.075998 -0.178383 -0.284651 -0.410629 -0.491646 -0.557615 0.149967 -0.368696 0.138532 -0.58972 0.200913 -0.151735 -0.427838 -0.131424 -0.841922 -0.41416 -0.124563 -0.516352 -0.347555 -0.292175 -0.42011 -0.319572 -0.440496 -0.261174 -0.226703 -0.602021 0.308264 -0.293781 -0.0760894 -0.242062 -0.411146 -0.196208 -0.694451 -0.488585 -0.236606 0.640971 0.603133 -0.266876 0.537134 -0.718063 -0.101611 -0.200759 -0.111357 0.00611777 0.0235486 -0.013627 -0.25112 -0.388237 0.109465 0.06762 -0.132915 0.183706 -0.304523 0.602968 0.128391 0.185054 0.18784 -0.0536276 -0.0359104 -0.173121 -0.248714 -0.124558 -0.30478 -0.100058 -0.106902 -0.3445 -0.155083 -0.14406 -0.342626 0.894432 0.168369 0.459742 -0.0298164 -0.138764 0.0719371 -0.400249 -0.223409 0.292256 0.0787878 -0.495347 0.153552 -0.885385 -0.31133 -0.392012 -0.305692 -0.465302 -0.390487 -0.264771 -0.38575 -0.648066 -0.331464 0.0236286 -0.289999 -0.104287 -0.496116 -0.00721294 0.0763173 -0.549896 -0.333956 -0.172688 -0.751236 0.0124502 -0.464305 -0.257346 -0.476174 -0.441127 -0.476666 -0.365217 -0.184933 -0.395746 -0.5615 0.631696 -0.0530469 -0.274865 -0.318221 -0.329582 -0.259057 -0.621157 -0.448759 -0.272967 -0.513509 0.12065 -0.558713 -0.35894 -0.517007 -0.302936 -0.361469 -0.553524 -0.334451 -0.44708 -0.64027 -0.452308 -0.301868 -0.319917 -0.183728 -0.542386 -0.742047 -0.0500364 -0.476966 0.0560084 -0.351111 0.0916163 0.207116 -0.49392 -0.313071 -0.468286 -0.390084 -0.77526 -0.502006 -0.289766 -0.399072 -0.533681 -0.0572588 -0.144245 -0.10285 -0.37917 -0.34324 -0.653362 -0.340193 -0.490548 -0.285462 0.438071 0.0291981 0.271094 0.105994 0.0183691 0.298782 0.479395 0.23543 -0.0680347 0.0501323 0.284721 0.342499 0.17405 0.49942 -0.0740362 0.690154 0.318603 0.0839021 0.352497 0.198992 0.199475 0.710595 0.241267 0.155112 -0.02515 0.110136 0.137685 0.0233698 0.181178 -0.0541312 0.093806 0.694036 0.516454 0.490399 0.0721914 0.00462691 0.283188 -0.0567124 0.410842 0.225685 -0.798047 -0.473103 -0.596294 -1.02331 -0.377871 -0.510861 -0.0220907 -0.641582 -0.519224 -0.390755 -0.350502 -0.618045 -0.271529 -0.702218 -0.024142 -0.229311 -0.732142 -0.258802 -0.428163 -0.775574 0.0363221 -0.712277 -0.796619 -0.659314 -0.396623 -0.528733 -0.625864 -0.51521 -0.530254 -0.402917 -0.122509 -0.187463 -0.179552 -0.469231 -0.834557 -0.310688 -0.821084 -0.562335 -0.5694 0.200365 0.088593 0.146067 0.30708 0.44139 0.308091 -0.109721 -0.109467 0.276397 0.620697 0.117473 0.409726 0.00565307 0.71939 0.373452 0.81201 0.232556 0.182754 0.135146 0.787391 0.0556882 0.130775 -0.0687484 0.15603 0.136648 0.161132 0.539286 -0.0331007 -0.0734935 0.709137 0.5006 0.877904 0.386521 0.0950565 0.324364 -0.0623685 0.0811864 0.53049 -0.398922 -0.101718 0.185602 0.192143 0.103102 -0.121574 -0.129023 0.0994832 0.458756 -0.0629788 0.31169 -0.241381 0.485419 0.142858 -0.155608 0.150455 -0.0574685 -0.0022941 0.31755 -0.167499 -0.112065 -0.167987 -0.06112 -0.0742001 -0.259439 0.0567765 -0.0284818 -0.358089 0.663237 0.271617 0.285169 0.181791 -0.150234 0.128675 -0.290167 -0.149894 0.0718788 0.0766041 0.4062 0.322548 0.203489 -0.0436262 -0.0727652 0.198036 0.585141 0.0560138 0.410985 -0.103955 0.589268 0.309856 0.0177085 0.291394 0.149953 0.0301815 0.379882 -0.0262966 0.080261 0.0818018 0.0725154 0.0939638 -0.123892 0.185068 0.0854102 -0.152289 0.686573 0.39877 0.389699 0.222495 0.0457814 0.237936 -0.0354632 -0.0287295 0.203716 0.0953671 -0.0399042 0.220073 -0.203865 -0.163112 0.086561 0.181024 -0.270566 0.294241 0.0814983 0.50212 0.122962 -0.0726076 0.0565361 -0.00251112 -0.207196 0.491574 -0.202351 0.0196826 -0.181734 -0.0188559 -0.00864783 -0.130056 0.0225232 -0.152825 -0.109775 0.500087 0.320297 0.181428 0.468285 -0.150011 0.0891625 -0.129796 0.076832 0.0637642 0.0696223 -0.0408187 -0.281069 -0.26236 -0.0154045 0.240554 -0.0953803 0.183431 -0.247686 0.411947 0.0337964 -0.28776 0.145437 -0.475631 -0.18592 -0.0337292 -0.229884 -0.124298 -0.35264 -0.117128 -0.0520834 -0.45318 0.0263156 -0.198166 -0.337925 0.371046 0.19964 0.231238 -0.00272328 -0.123835 0.102786 -0.401242 -0.252457 0.0575537 0.162076 -0.45509 -0.241016 -0.146545 0.031154 -0.252706 0.143121 -0.0303992 0.524975 0.0296121 -0.317586 0.297302 -0.168681 -0.352723 0.426299 -0.398228 -0.182744 -0.462394 -1.02049 -0.164305 -0.377388 -0.0859196 -0.416527 -0.522665 0.5006 0.13428 -0.016898 0.0900027 -0.272657 0.189046 -0.443 -0.485374 -0.0502966 -0.304494 -0.323908 0.00750643 0.0387572 -0.324312 0.258017 -0.227244 0.551326 0.140919 -0.229642 0.131452 -0.057644 0.115707 0.554244 -0.414585 -0.302649 -0.312667 0.262474 -0.127125 -0.239189 0.0398478 -0.218701 -0.351338 0.372662 0.199561 0.112515 0.226818 -0.349592 0.420341 -0.318846 0.130992 0.059653 0.0756083 0.241635 0.195933 0.194168 0.451054 0.0466946 0.634806 0.269254 0.0909079 0.297845 0.121806 0.1755 0.505522 0.123932 0.208988 0.123996 0.182568 0.190414 0.125059 0.328837 0.00598805 0.0541384 0.914995 0.482354 0.435709 0.371597 0.172792 0.265117 0.00735634 0.121001 0.195745 0.267514 0.319677 0.129206 0.423315 -0.032704 0.722543 0.416105 0.224447 0.330492 0.221316 -0.243113 0.807343 -0.0307867 0.125827 -0.10736 0.092571 -0.053677 0.00184521 0.322646 -0.0407101 -0.17248 0.558501 0.439259 0.225452 0.191568 0.0717918 0.226593 -0.188962 0.0325211 0.522795 0.0725171 -0.0928415 0.792123 -0.261191 0.419545 0.747732 -0.178637 0.540434 0.0870855 -0.200624 0.56712 -0.226036 -0.119644 -0.273651 -0.185131 0.108235 -0.237561 0.0775712 -0.208356 -0.32825 0.537759 0.458255 0.258519 -0.00639715 -0.123089 0.348459 -0.399718 -0.209208 0.096185 -0.176648 -0.103796 -0.341751 0.441306 0.10154 -0.273202 0.0488387 -0.1454 -0.229549 -0.515374 -0.309097 -0.152157 -0.429012 -0.149957 -0.16591 -1.39837 -0.118001 -0.153323 -0.417551 0.363525 0.164372 0.14482 0.0955093 -0.236422 0.0623304 -0.157539 -0.28517 0.018687 0.302716 -0.00737946 0.493191 0.14766 -0.0417906 0.161073 0.0160749 -0.0828725 0.524653 -0.0655956 0.0882874 -0.180008 -0.0571157 -0.000120298 -0.120002 0.0387184 -0.17716 -0.133997 0.468897 0.310342 0.246192 0.129842 -0.0246302 0.123094 0.00360386 -0.0853276 0.0917085 -0.454227 0.236025 -0.209935 -0.429326 0.0444875 -0.674146 -0.413759 -0.589939 -0.47768 -0.327444 -0.483742 -0.33814 -0.235561 -0.320469 -0.032818 -0.385624 -0.580951 0.126618 -0.460404 -0.114253 -0.156421 -0.320534 -0.101913 -0.615824 -0.463684 -0.103462 0.691521 0.326479 0.0934957 0.240635 0.224883 -0.00685375 0.770217 0.0127604 -0.191923 -0.0508473 0.232986 0.202949 0.0411606 0.192232 -0.0238829 0.139796 0.60109 0.475558 0.430436 0.365765 -0.0831277 0.28051 0.0493689 0.0930248 0.224411 -0.213554 -0.557593 -1.78738 -0.442963 -0.228078 0.134135 -0.666192 -0.507087 -0.690141 -0.786669 -0.71702 -0.630353 -0.348506 -0.533433 -0.728549 -0.568765 -0.198499 -0.186389 -0.14453 -0.519251 -0.355642 -0.75984 -0.635879 -0.355709 -0.250894 -0.0198875 -0.399017 -0.316275 -0.530735 -0.3077 -0.147417 -0.343165 -0.242904 -0.14158 -0.321709 -0.179341 -0.261898 -0.359239 0.195871 -0.00137001 -0.0397367 -0.18545 -0.168935 -0.0648177 -0.516549 -0.285356 -0.120858 0.0786985 0.140804 0.0230843 0.0966451 0.0158616 0.0873629 -0.108385 0.10769 0.0933633 -0.0651416 0.498372 -0.113027 -0.112188 0.587969 0.344453 0.415506 0.282418 0.0433066 0.236612 -0.131981 0.0125579 -0.565788 -0.183003 0.63552 0.359407 -0.313134 -0.157361 -0.344125 -0.114584 0.00647169 -0.301342 -0.087579 -0.262785 -0.34594 0.478421 0.0498878 0.117593 -0.135158 -0.17414 0.0568886 -0.44974 -0.178711 0.230455 -0.145974 0.190295 -0.175878 -0.0245744 -0.104981 -0.0869549 0.0156411 -0.170939 0.0331586 -0.132819 -0.254202 0.345802 0.429085 0.202475 0.0459774 -0.0372043 0.129229 -0.328231 -0.147323 0.0935053 0.689089 -0.0480001 0.25454 -0.164877 -0.343179 -0.0321791 -0.0861201 0.181554 -0.0450336 -0.211358 0.795184 0.41683 0.537778 -0.0140155 0.0123201 -0.305944 -0.0330791 0.0932881 0.237539 -0.707038 -0.532076 -0.299309 -0.644296 -0.493417 -0.0251044 -0.680241 -0.395174 -0.700116 -0.0096499 0.0796606 0.233258 -0.525357 -0.545864 -0.414771 -0.873466 -0.692951 -0.396622 0.0725636 -0.104942 0.0587223 0.105019 -0.0388992 0.157679 -0.106502 -0.389328 0.660495 0.428904 0.345193 0.286498 -0.0418685 0.270768 -0.32027 0.207178 0.230205 -0.173915 -0.0454266 0.00934415 -0.104463 0.0486912 -0.158249 -0.17602 0.452728 0.341311 0.18969 0.196561 -0.136369 0.147503 -0.256954 0.172073 0.0810546 0.196733 0.215175 -0.0836687 0.23739 0.18882 -0.0211832 0.78577 0.511476 0.50615 0.380727 0.152821 0.264266 -0.0032883 0.107777 0.269772 -0.0559023 -0.108745 0.134122 -0.163317 -0.191196 0.28832 0.315022 0.304132 0.109171 -0.0612049 0.514302 -0.0300137 -0.314578 0.160692 -0.139168 0.0043063 -0.159923 -0.212382 0.585784 0.24253 0.0148617 0.111484 -0.0287574 0.18443 -0.25497 -0.0948762 0.0760166 0.235102 -0.00224263 -0.0913618 0.606168 0.441283 0.592111 0.275148 0.08171 0.292866 0.0198465 0.0322433 0.36116 -0.137875 -0.290535 0.358108 0.184452 0.336545 -0.0217865 -0.0539489 0.0884583 -0.388587 -0.186621 -0.046457 0.00278913 0.561113 0.378121 0.325426 0.289504 0.134189 0.219721 -0.0407916 0.0785288 0.178702 0.775778 0.544938 0.513867 0.345439 -0.156475 0.333196 0.0227863 0.145066 0.327766 -0.0354556 -0.203935 -0.336247 -0.526802 -0.247676 -0.74717 -0.593535 -0.268548 0.086971 -0.210751 -0.324187 -0.068713 -0.597644 -0.432285 -0.141462 -0.198281 -0.298433 -0.0460021 -0.433658 -0.421513 -0.511743 -0.0636389 0.130907 -0.555412 0.0449116 0.0594276 0.133173 0.0938982 -0.0140877 0.101315 -0.423843 -0.432294 -0.0574776 0.292698 0.369546 0.232302
nr_sv 39 97 45 20 19 35 45 20 54 33 52 46 92 69 45 81 18 53 40 42 34 71 56 36 39 38 74 32 58 36 80 43 25 30 25 36 90 38 25 69 27 18 38 55 29 25 72 31 64 43 37 35 46 42 29
SV
8.355816512572397e-09 0 0 0 2.812690876769127e-07 0 0 0 0 1.568109114238317e-06 0 0 0 0 0 0 5.191938123111567e-06 1.69857833171765e-06 0 4.07705126609443e-06 0 0 0 0 0 0 0 0 0 0 0 0 0 0 0 2.189033143945412e-08 0 0 0 0 0 0 0 0 0 0 6.69679589582898e-08 0 0 0 0 0 0 0 1:-87 2:-82 15:-68 19:-67 20:-85 21:-85 23:-78 24:-67 25:-85 59:-79 62:-91 65:-80 73:-91 74:-91 75:-79 76:-70 118:-69 119:-69 152:-84 154:-91 155:-85 
1.959341070529899e-06 0 1.296191632095927e-06 8.371790213611915e-07 1.198684280952602e-06 1.759366708035744e-06 1.334050632538053e-06 1.448033378238462e-06 1.772774870348629e-06 3.160102762161091e-06 1.898582851218659e-06 2.048210797169153e-06 2.097338156162881e-06 1.326630757114602e-06 1.898175807610686e-06 1.476655450557307e-06 0 0 1.198652395709474e-06 4.036571208047983e-06 1.626694546188236e-06 1.775029035415517e-06 0 2.120130171279022e-06 2.09383142209116e-06 3.674651669382379e-06 1.357877177220202e-06 2.258916589358316e-06 1.398214144598218e-06 2.080269733258501e-06 1.883519238926981e-06 1.515090211247109e-06 1.914490404038651e-06 2.418429175193538e-06 1.847055477335919e-06 2.685743927211458e-06 1.457119386599662e-06 1.317265708470912e-06 0 1.658176461567919e-06 1.570078172145319e-06 2.056382305587321e-06 2.221623595290879e-06 6.956051469298393e-06 1.200904155546503e-06 2.967025672742441e-06 1.760324551323921e-06 2.259202715081748e-06 2.055424358800538e-06 1.190866932179447e-06 1.928996065430345e-06 1.685527581831637e-06 1.598856150723574e-06 2.015666521516703e-06 2:-81 9:-78 16:-76 19:-63 20:-85 21:-86 23:-74 24:-64 25:-86 59:-82 63:-88 65:-81 68:-88 72:-88 75:-81 93:-88 118:-67 119:-67 133:-93 152:-84 155:-87 156:-85 176:-94 
0 0 0 0 0 0 0 0 0 0 0 0 0 0 0 0 0 0 0 0 0 0 0 0 0 0 0 0 0 0 0 0 0 0 0 0 0 0 0 0 0 0 0 1.416450412139751e-06 0 0 0 0 0 0 0 0 0 0 2:-80 4:-87 6:-87 7:-87 9:-80 15:-67 16:-75 19:-67 21:-85 23:-77 24:-66 25:-86 26:-86 27:-87 28:-86 29:-75 59:-82 63:-87 65:-82 72:-87 75:-83 76:-67 93:-87 118:-68 119:-68 121:-91 152:-81 154:-91 155:-81 156:-81 157:-93 171:-92 
0 3.084538280445343e-06 0 0 0 0 0 1.519998710587115e-06 0 0 0 0 0 0 0 0 0 0 0 0 0 0 0 0 0 0 0 0 0 0 0 0 0 0 0 0 0 0 2.051510634353386e-06 0 0 0 0 4.348346397160453e-06 0 0 0 0 0 0 0 0 0 0 2:-80 6:-87 7:-87 8:-81 9:-82 10:-87 16:-75 19:-66 20:-86 23:-76 24:-66 25:-86 26:-86 27:-86 29:-75 46:-93 59:-82 63:-89 65:-82 72:-89 76:-68 93:-89 118:-68 119:-68 153:-92 154:-93 156:-81 157:-92 
0 0 0 0 0 0 0 0 0 0 0 0 0 0 0 0 0 1.535735912109218e-05 0 0 0 0 0 0 0 0 0 0 0 0 0 0 0 0 0 0 0 0 0 0 0 0 0 0 0 0 0 0 0 0 0 0 0 0 2:-86 8:-82 9:-82 10:-88 15:-69 16:-74 19:-69 23:-74 24:-69 26:-84 27:-84 29:-74 59:-81 63:-92 65:-81 76:-67 118:-66 119:-66 152:-84 153:-90 154:-89 155:-83 156:-84 171:-92 
0 3.002225508162688e-06 0 0 0 0 0 0 0 0 0 0 0 0 0 0 0 0 0 0 0 0 0 0 0 0 0 0 0 0 0 0 0 0 0 0 0 0 0 0 0 0 0 0 0 0 0 0 0 0 0 0 0 0 2:-87 8:-80 9:-82 10:-88 15:-69 16:-74 19:-68 20:-87 21:-87 23:-74 24:-67 25:-87 26:-84 27:-84 29:-74 58:-93 59:-79 65:-79 76:-67 118:-69 119:-69 152:-83 153:-88 154:-88 155:-83 156:-82 
0 0 0 0 1.391171086420989e-06 0 0 0 0 0 0 0 0 0 0 0 0 0 0 0 0 0 0 0 0 0 0 0 0 0 0 0 0 0 0 0 0 0 0 0 0 0 0 0 0 0 6.613136525969773e-07 0 0 0 0 0 0 0 2:-80 15:-68 19:-65 23:-78 24:-64 59:-80 62:-91 65:-80 73:-91 74:-91 75:-81 76:-70 118:-66 119:-66 152:-91 154:-91 155:-91 156:-91 
0 6.665929040529701e-06 0 0 1.252239413048264e-06 0 0 0 0 1.939191820839574e-06 0 0 0 0 0 0 9.215944400634558e-06 0 0 2.066690430951232e-06 0 0 0 0 0 0 0 0 0 0 0 0 0 0 0 4.780070856247017e-07 0 0 0 0 0 0 0 0 0 0 0 0 0 0 0 0 0 0 2:-89 6:-88 15:-73 16:-73 19:-72 23:-73 24:-73 26:-86 27:-86 59:-78 65:-78 74:-92 75:-78 76:-67 118:-67 119:-68 152:-82 155:-81 156:-81 158:-90 165:-89 166:-90 
1.875184822534978e-06 1.897639524906898e-05 1.242195461640134e-06 8.037190358352296e-07 0 1.682710940898012e-06 1.274944652633417e-06 7.421827172608775e-06 1.690462784830088e-06 7.135783107259719e-06 1.814108147868235e-06 1.961185634271105e-06 2.002799226521952e-06 1.274484848944544e-06 1.812049482747373e-06 1.411925848603851e-06 2.065939111261832e-05 1.24247566012946e-05 1.14642871549947e-06 5.172852457132943e-06 1.546633252684492e-06 1.686039896670446e-06 8.376209291185159e-06 2.030686685389191e-06 2.000950914941522e-06 9.998378112589714e-06 1.297052033115387e-06 2.148312051084997e-06 1.335640894172378e-06 1.981226405171369e-06 1.793014870380194e-06 1.44766809766759e-06 1.828651950756379e-06 2.179086275532729e-06 1.768426736580494e-06 8.603215491914054e-06 1.377562449050848e-06 1.248634433942069e-06 6.245262943475489e-05 1.591824029559206e-06 1.489836818818391e-06 5.420076474623083e-06 2.113244555938088e-06 9.426506673081745e-06 1.148362267963232e-06 6.681254221665717e-06 1.658450723770835e-06 2.164079793986755e-06 1.960063029884516e-06 1.122126715455261e-06 1.843122319568945e-06 1.614313250602101e-06 1.531176901638323e-06 1.933425286807756e-06 2:-86 6:-89 8:-84 9:-82 19:-65 23:-72 24:-65 26:-86 27:-86 28:-87 29:-73 59:-81 63:-91 65:-80 75:-79 118:-68 119:-68 155:-83 156:-83 
0 0 0 0 0 0 0 3.211330454500295e-06 0 0 0 0 0 0 0 0 0 0 0 0 0 0 4.408242069033874e-06 0 0 0 0 0 0 0 0 0 0 0 0 0 0 0 0 0 0 0 0 0 0 0 0 0 0 0 0 0 0 0 2:-84 6:-89 8:-81 9:-81 11:-87 12:-89 15:-69 16:-73 17:-89 19:-70 21:-87 23:-71 24:-70 26:-83 27:-83 29:-76 59:-76 63:-90 65:-76 67:-86 68:-86 69:-86 72:-89 73:-91 74:-90 75:-76 93:-88 118:-68 119:-68 152:-84 153:-90 154:-89 155:-80 156:-83 158:-93 164:-95 165:-90 166:-90 
0 0 0 0 0 0 0 0 0 0 0 0 0 0 0 0 0 0 0 0 0 0 1.538916099565817e-06 0 0 0 0 0 0 0 0 0 0 0 0 0 0 0 0 0 0 0 0 0 0 0 0 0 0 0 0 0 0 0 2:-84 3:-86 6:-89 8:-81 9:-81 11:-87 12:-89 15:-69 16:-73 17:-89 19:-70 20:-83 21:-87 23:-76 24:-70 25:-84 26:-83 27:-82 28:-88 29:-76 59:-76 63:-89 65:-76 67:-86 68:-86 69:-86 70:-93 72:-88 73:-91 74:-90 75:-76 76:-69 93:-88 118:-70 119:-70 152:-80 153:-90 154:-89 155:-80 156:-79 157:-94 158:-90 162:-92 164:-95 165:-90 166:-90 
0 0 0 0 0 0 0 0 0 0 0 0 0 0 0 0 0 0 0 0 0 0 0 0 0 0 0 0 0 0 0 0 0 0 0 0 0 0 0 0 0 0 0 8.561404827017901e-07 0 8.633488977006537e-07 0 0 0 0 0 0 0 0 1:-85 2:-86 3:-84 6:-85 8:-85 10:-86 16:-75 19:-67 20:-84 23:-74 24:-67 25:-85 26:-85 27:-85 28:-86 29:-74 59:-78 62:-89 63:-92 65:-78 73:-88 74:-89 118:-69 119:-69 121:-92 152:-86 153:-88 154:-88 155:-84 157:-92 
0 0 0 0 0 0 0 6.40601764533077e-07 0 0 0 0 0 0 0 0 0 0 0 0 0 0 0 0 0 0 0 0 0 0 0 0 0 0 0 0 0 0 0 0 0 0 0 0 0 0 0 0 0 0 0 0 0 0 1:-87 2:-84 4:-86 6:-86 7:-86 8:-80 9:-79 10:-86 15:-68 16:-76 19:-69 23:-76 24:-69 26:-84 27:-85 28:-88 29:-76 59:-81 63:-88 65:-81 72:-88 75:-81 76:-67 93:-89 118:-66 119:-66 121:-91 152:-82 153:-93 154:-92 155:-81 156:-81 157:-91 
0 0 0 0 0 0 0 0 0 0 0 0 0 0 0 0 0 4.067523462782965e-06 0 0 0 0 0 0 0 0 0 0 0 0 0 0 0 0 0 0 0 0 0 0 0 0 0 0 0 0 0 0 0 0 0 0 0 0 2:-88 8:-81 9:-81 10:-90 15:-68 19:-69 24:-68 26:-83 27:-83 28:-84 29:-74 59:-80 65:-80 75:-80 76:-67 118:-66 119:-66 152:-84 153:-88 154:-89 155:-83 156:-84 158:-91 171:-92 
0 0 0 0 0 0 0 0 0 0 0 0 0 0 0 0 0 0 0 0 0 0 0 0 0 2.989146125825425e-06 0 0 0 0 0 0 0 0 0 0 0 0 0 0 0 0 0 0 0 5.032892270205952e-07 0 0 0 0 0 0 0 0 2:-88 6:-87 8:-81 9:-79 16:-72 17:-88 19:-71 22:-93 23:-71 24:-71 26:-82 27:-82 29:-72 46:-93 59:-77 63:-90 65:-77 67:-87 68:-86 69:-88 75:-77 118:-67 119:-67 152:-82 153:-88 154:-87 155:-81 156:-81 164:-93 167:-95 168:-92 169:-93 
0 0 0 0 0 0 0 1.164635154086176e-06 0 0 0 0 0 0 0 0 0 0 0 0 0 0 0 0 0 0 0 0 0 0 0 0 0 0 0 0 0 0 0 0 0 0 0 0 0 0 0 0 0 0 0 0 0 0 2:-86 6:-88 8:-80 9:-82 16:-75 19:-65 23:-72 24:-65 26:-85 27:-84 28:-87 29:-73 59:-79 60:-96 63:-91 65:-79 75:-79 76:-70 118:-69 119:-69 152:-84 153:-89 154:-90 155:-84 156:-83 
0 0 0 0 0 0 0 0 0 0 0 0 0 0 0 0 6.588009302333502e-06 0 0 0 0 0 0 0 0 0 0 0 0 0 0 0 0 0 0 0 0 0 4.997532676855488e-06 0 0 0 0 7.474216049392882e-06 0 0 0 0 0 0 0 0 0 0 2:-86 8:-81 16:-75 19:-73 24:-73 26:-86 27:-86 29:-77 59:-77 63:-88 65:-77 72:-87 73:-91 74:-90 75:-80 93:-88 118:-68 119:-68 121:-90 152:-83 153:-89 154:-88 155:-83 156:-83 157:-93 
0 0 0 0 0 0 0 0 0 0 0 0 0 0 0 0 0 0 0 0 0 0 0 0 0 0 0 0 0 0 0 0 0 0 0 0 0 0 0 0 0 0 0 9.031118675985186e-07 0 0 0 0 0 0 0 0 0 0 2:-80 8:-85 9:-84 15:-69 19:-68 20:-85 21:-86 23:-79 24:-68 25:-85 29:-78 47:-92 59:-77 62:-91 63:-88 65:-77 67:-86 68:-86 69:-86 70:-92 71:-91 72:-88 73:-90 74:-89 75:-80 76:-68 93:-88 118:-67 119:-67 121:-91 152:-81 153:-90 154:-90 155:-81 156:-81 157:-89 160:-94 161:-92 163:-90 164:-92 
0 2.481791517790362e-06 0 0 0 0 0 0 0 0 0 0 0 0 0 0 0 0 0 0 0 0 0 0 0 0 0 0 0 0 0 0 0 0 0 0 0 0 0 0 0 0 0 0 0 3.536043762658753e-06 0 0 0 0 0 0 0 0 1:-86 2:-86 3:-85 4:-87 6:-87 7:-88 15:-64 16:-75 19:-65 20:-86 21:-86 24:-65 25:-86 29:-75 59:-77 62:-91 65:-77 74:-92 76:-66 118:-65 119:-65 152:-86 153:-88 154:-88 156:-86 
0 0 0 0 0 0 0 0 0 0 0 0 0 0 0 0 0 0 0 0 0 0 0 0 0 8.659034833408131e-07 0 0 0 0 0 0 0 0 0 0 0 0 0 0 0 0 0 0 0 0 0 0 0 0 0 0 0 0 2:-88 6:-87 8:-81 9:-80 16:-72 19:-71 22:-93 24:-71 26:-83 27:-82 29:-70 46:-92 59:-77 63:-90 65:-77 67:-87 68:-86 69:-88 118:-72 119:-72 152:-82 153:-88 154:-88 155:-81 156:-81 
0 1.402199495651142e-06 0 0 0 0 0 0 0 0 0 0 0 0 0 0 8.557407313595573e-07 0 0 0 0 0 0 0 0 0 0 0 0 0 0 0 0 0 0 0 0 0 1.028854919225618e-05 0 0 0 0 0 0 0 0 0 0 0 0 0 0 0 1:-85 2:-85 3:-85 6:-85 8:-85 10:-86 15:-65 16:-75 19:-65 20:-84 23:-75 24:-65 25:-85 26:-85 27:-85 28:-87 29:-75 59:-78 62:-89 63:-92 65:-78 73:-88 74:-88 75:-78 118:-69 119:-69 121:-92 152:-86 153:-88 154:-88 155:-84 157:-92 
0 0 0 0 0 0 0 0 0 2.602366749234328e-07 0 0 0 0 0 0 0 0 0 0 0 0 0 0 0 0 0 0 0 0 0 0 0 0 0 0 0 0 0 0 0 0 0 0 0 0 0 0 0 0 0 0 0 0 2:-88 6:-87 16:-71 19:-72 23:-72 24:-72 26:-84 27:-84 29:-72 59:-78 63:-88 65:-78 73:-92 74:-91 118:-65 119:-65 152:-82 153:-90 154:-90 155:-82 156:-83 
2.417433416263152e-06 0 1.5876580710101e-06 1.031554268778457e-06 2.099752872837234e-06 2.135994839295443e-06 1.62940089394466e-06 0 2.183926757601474e-06 0 2.325433423298011e-06 2.5004874277848e-06 2.576564561704222e-06 1.616731117799177e-06 2.329475364612406e-06 1.813283058241527e-06 0 0 1.485100977050602e-06 5.781421867007955e-06 2.003339849073927e-06 2.180641350684662e-06 0 2.588432569282187e-06 2.56382295414899e-06 3.630237367561244e-08 1.660472562515229e-06 2.755904188633756e-06 1.705076722736121e-06 2.550898983340157e-06 2.306096025739264e-06 1.87662814903112e-06 2.345015974610847e-06 2.831529489554284e-06 2.246572887862727e-06 3.736736259161755e-07 1.786450833567693e-06 1.610886026749657e-06 0 2.041237416432517e-06 1.919881453174049e-06 1.223593511913537e-06 2.72138093159731e-06 0 1.475883985714033e-06 0 1.988004186503756e-06 2.762555568014775e-06 2.516287494909525e-06 1.456677893954423e-06 2.365281162008884e-06 2.070306379004595e-06 1.957554552794537e-06 2.471323994681552e-06 2:-84 8:-81 9:-81 19:-72 24:-72 28:-89 59:-80 63:-89 65:-80 72:-88 75:-78 93:-88 118:-66 119:-66 152:-83 153:-86 154:-87 155:-83 156:-83 158:-93 
0 0 0 0 0 0 0 0 0 0 0 0 0 0 0 0 0 0 0 0 0 0 0 0 0 0 0 0 0 0 0 0 0 0 0 0 0 0 4.646735123384121e-06 0 0 0 0 0 0 0 0 0 0 0 0 0 0 0 2:-86 8:-81 9:-79 16:-73 17:-88 19:-71 23:-71 24:-71 26:-83 27:-83 29:-71 46:-93 59:-76 63:-90 65:-76 75:-77 76:-67 118:-69 119:-69 152:-81 155:-81 156:-81 158:-90 164:-93 165:-90 166:-89 167:-95 168:-92 169:-93 
0 0 0 0 0 0 0 2.64030677137662e-06 0 0 0 0 0 0 0 0 0 0 0 0 0 0 0 0 0 0 0 0 0 0 0 0 0 0 0 0 0 0 0 0 0 0 0 1.791055663238174e-06 0 0 0 0 0 0 0 0 0 0 2:-88 3:-89 6:-89 8:-82 15:-69 16:-73 19:-67 21:-89 23:-73 24:-67 26:-85 27:-86 28:-87 29:-74 59:-78 60:-94 62:-94 63:-89 65:-78 68:-89 72:-88 76:-66 93:-88 118:-66 119:-66 152:-82 154:-91 155:-81 156:-82 165:-89 166:-88 
0 0 0 0 0 0 0 0 0 0 0 0 0 0 0 0 3.988051790025392e-06 0 0 0 0 0 0 0 0 0 0 0 0 0 0 0 0 0 0 0 0 0 0 0 0 0 0 0 0 0 0 0 0 0 0 0 0 0 2:-87 6:-87 8:-83 15:-69 19:-67 23:-73 24:-67 26:-84 27:-84 29:-75 59:-79 62:-90 63:-88 65:-79 72:-89 73:-91 74:-91 75:-81 76:-73 93:-89 118:-67 119:-67 152:-82 155:-81 156:-81 164:-93 
0 0 0 0 0 0 0 4.644464140357738e-06 0 0 0 0 0 0 0 0 0 0 0 0 0 0 0 0 0 0 0 0 0 0 0 0 0 0 0 0 0 0 1.642005371366109e-05 0 0 0 0 0 0 0 0 0 0 0 0 0 0 0 2:-86 8:-80 9:-79 16:-76 19:-69 24:-69 26:-83 27:-83 28:-88 29:-76 59:-79 63:-88 65:-79 72:-88 75:-79 76:-67 93:-89 118:-66 119:-66 152:-82 155:-81 156:-81 158:-91 
0 0 0 0 0 0 0 3.242076211563476e-06 0 0 0 0 0 0 0 0 0 0 0 0 0 0 0 0 0 0 0 0 0 0 0 0 0 0 0 0 0 0 0 0 0 0 0 0 0 0 0 0 0 0 0 0 0 0 2:-87 8:-79 9:-79 12:-89 15:-67 16:-76 17:-88 19:-70 20:-86 21:-86 23:-76 24:-71 25:-86 26:-83 27:-83 29:-76 59:-81 62:-92 63:-92 65:-81 75:-80 118:-68 119:-68 152:-83 153:-90 154:-90 155:-83 156:-83 
0 0 0 0 0 0 0 0 0 0 0 0 0 0 0 0 0 0 0 0 0 0 0 0 0 0 0 0 0 0 0 0 0 0 0 0 0 0 4.427934837935068e-07 0 0 0 0 0 0 0 0 0 0 0 0 0 0 0 1:-86 2:-84 3:-86 4:-87 6:-86 8:-82 9:-82 10:-87 15:-64 16:-77 19:-64 20:-86 21:-87 24:-65 25:-86 28:-89 29:-76 59:-76 62:-90 63:-88 65:-76 68:-89 72:-88 73:-90 74:-90 75:-76 93:-87 118:-66 119:-66 153:-88 154:-88 155:-87 163:-94 
0 0 0 0 0 0 0 0 0 2.094108903130689e-07 0 0 0 0 0 0 8.817155779249918e-06 0 0 0 0 0 0 0 0 9.96987607861482e-07 0 0 0 0 0 0 0 0 0 1.41996742632803e-06 0 0 3.958399487915037e-06 0 0 0 0 0 0 0 0 0 0 0 0 0 0 0 2:-83 8:-84 9:-84 16:-73 19:-66 21:-88 23:-72 24:-66 26:-86 27:-86 29:-74 59:-78 62:-92 65:-78 73:-91 74:-91 75:-78 118:-66 119:-66 152:-82 153:-84 154:-85 155:-82 156:-81 159:-93 
4.558046626748534e-07 0 2.443522518178641e-07 1.505286691221462e-07 2.585745401861456e-06 3.187232763618142e-07 2.614107890232191e-07 0 3.214612310594575e-07 0 3.49014855428595e-07 3.899312283045935e-07 3.843585355731243e-07 2.472963893795377e-07 3.457502371405735e-07 2.693354942628284e-07 0 0 2.138882271923662e-07 2.61333215808422e-06 2.87175373087049e-07 3.118588106765715e-07 0 3.87259041735495e-07 3.941940982783618e-07 0 2.537410817689374e-07 4.071240443104708e-07 2.551239998290916e-07 3.747206250078024e-07 3.518176461283589e-07 2.760797770124802e-07 3.580819815310495e-07 2.602879082129753e-07 3.403024089524948e-07 0 2.500032531805539e-07 2.313953849269623e-07 0 3.032072971315814e-07 2.858809279474544e-07 0 4.061304934861962e-07 0 2.219985800044294e-07 0 1.286168736134085e-06 4.227665696565041e-07 3.747884661653583e-07 2.23852969147204e-07 3.535692051766499e-07 3.109027326271508e-07 2.9471907009718e-07 3.769767581446722e-07 2:-82 6:-87 15:-65 19:-66 20:-85 24:-66 25:-84 59:-79 63:-87 65:-79 72:-87 75:-80 93:-87 118:-67 119:-67 152:-82 153:-86 154:-87 155:-83 156:-82 160:-91 
0 1.250838498142472e-05 0 0 0 0 0 0 0 1.299944850146994e-06 0 0 0 0 0 0 0 0 0 0 0 0 0 0 0 0 0 0 0 0 0 0 0 0 0 0 0 0 1.436524518420289e-05 0 0 0 0 0 0 0 0 0 0 0 0 0 0 0 2:-86 8:-79 9:-79 15:-67 16:-74 19:-67 20:-86 23:-74 24:-67 25:-87 26:-84 27:-85 29:-74 59:-82 63:-92 65:-81 75:-80 118:-66 119:-66 152:-83 155:-83 156:-83 
0 0 0 0 0 0 0 1.958023175386206e-07 0 0 0 0 0 0 0 0 0 1.324892641158096e-05 0 0 0 0 0 0 0 0 0 0 0 0 0 0 0 0 0 0 0 0 0 0 0 0 0 0 0 1.104194553957514e-06 0 0 0 0 0 0 0 0 2:-80 3:-87 4:-87 6:-86 7:-87 8:-82 9:-82 15:-67 16:-75 19:-67 20:-84 21:-85 23:-77 24:-66 25:-85 26:-86 28:-88 59:-82 63:-87 65:-82 72:-87 75:-83 93:-87 118:-72 119:-72 152:-82 155:-81 156:-81 157:-92 171:-91 
1.908615854988335e-05 6.969645297669393e-05 1.23173785814551e-05 7.953683780754664e-06 2.663024629772461e-05 1.660519463923176e-05 1.266351485255044e-05 2.975793733561653e-05 1.681204073334731e-05 1.876404584691215e-05 1.798217304498142e-05 1.942707648692058e-05 1.991886738011124e-05 1.25822902647281e-05 1.798878602902425e-05 1.400404486488189e-05 5.952433046840024e-05 0.0001533122906643584 1.139643213590506e-05 5.296391937663014e-05 1.540872654115354e-05 1.676693209659468e-05 1.457515326185567e-05 2.009317119007343e-05 1.986007332660924e-05 2.481504490822372e-05 1.286295720674021e-05 2.133744809518638e-05 1.320667421300763e-05 1.970659631346464e-05 1.783852284024762e-05 1.442145415295166e-05 1.814803948709638e-05 2.20622686619452e-05 1.74436806770134e-05 2.435777643693917e-05 1.374506992536305e-05 1.242585253041754e-05 0.0001778902185014792 1.57367855863416e-05 1.484693485485272e-05 1.609793152812774e-05 2.105725624108788e-05 1.951163737985499e-05 1.141627837209356e-05 1.983800086389717e-05 2.076120574500851e-05 2.141517253203878e-05 1.946654133695012e-05 1.124657116480418e-05 1.829524670019633e-05 1.59997289010301e-05 1.514977069779105e-05 1.915113970845638e-05 15:-81 19:-80 24:-80 29:-93 59:-89 65:-89 76:-87 118:-86 119:-86 
0 6.413892218245071e-06 0 0 0 0 0 2.214642255334098e-07 0 0 0 0 0 0 0 0 3.503350348837832e-06 2.255492634300709e-05 0 0 0 0 0 0 0 0 0 0 0 0 0 0 0 0 0 0 0 0 0 0 0 0 0 6.290347293678186e-06 0 0 0 0 0 0 0 0 0 0 2:-86 6:-88 8:-81 9:-81 15:-70 16:-75 19:-72 23:-75 24:-72 26:-87 27:-86 28:-89 59:-76 65:-76 73:-91 75:-78 76:-68 118:-68 119:-68 121:-92 152:-83 155:-83 156:-83 158:-93 
0 4.980864472241488e-06 0 0 0 0 0 0 0 1.215423572040645e-06 0 0 0 0 0 0 0 0 0 0 0 0 0 0 0 4.479337958195211e-07 0 0 0 0 0 0 0 0 0 0 0 0 0 0 0 5.738593218253189e-07 0 0 0 2.381489656679291e-06 0 0 0 0 0 0 0 0 1:-85 2:-87 3:-85 6:-85 7:-87 10:-87 15:-65 19:-65 20:-84 21:-84 23:-75 24:-65 25:-85 28:-87 29:-75 59:-79 65:-79 68:-90 73:-89 74:-89 75:-78 118:-69 119:-68 153:-87 154:-87 155:-86 
2.677923822042494e-06 0 1.775192431104706e-06 1.145459778998363e-06 0 2.385589692097573e-06 1.815742854928665e-06 0 2.418055414886696e-06 1.806013800770371e-07 2.58876784207811e-06 2.801735539086696e-06 2.868328245587638e-06 1.816919790681452e-06 2.587263732198118e-06 2.014110719583494e-06 5.732988426395099e-07 0 1.639429976676677e-06 9.026835918440298e-08 2.213840716589792e-06 2.403986928998077e-06 0 2.89329634724138e-06 2.860143445357693e-06 2.111611473459704e-06 1.846266413691447e-06 3.070400906758565e-06 1.902923339755909e-06 2.83548981152547e-06 2.565934917503423e-06 2.075575870603921e-06 2.614547612675169e-06 3.257552057230223e-06 2.51070842351652e-06 2.190145623105717e-06 1.97753919674699e-06 1.7832176803687e-06 2.207127356284892e-06 2.259282405218535e-06 2.135530561941099e-06 2.410117863076677e-06 3.022673903599266e-06 0 1.650324429970857e-06 0 1.933868776901549e-06 3.078759887463048e-06 2.794498055014859e-06 1.608027674423533e-06 2.624960427802237e-06 2.3034540977913e-06 2.175609178899551e-06 2.756882162651815e-06 2:-81 10:-90 16:-76 19:-65 24:-65 59:-82 62:-91 63:-93 65:-82 73:-91 74:-91 75:-81 76:-70 118:-65 119:-65 152:-91 155:-91 156:-91 
0 0 0 0 0 0 0 0 0 0 0 0 0 0 0 0 0 0 0 0 0 0 2.404607421178474e-06 0 0 0 0 0 0 0 0 0 0 0 0 0 0 0 0 0 0 0 0 3.661819990549972e-07 0 0 0 0 0 0 0 0 0 0 2:-85 8:-81 9:-79 16:-72 17:-88 19:-71 22:-93 23:-71 24:-71 26:-82 27:-82 29:-71 46:-93 59:-76 63:-90 65:-76 67:-87 68:-86 69:-88 75:-77 76:-67 118:-71 119:-71 152:-81 153:-88 154:-87 155:-81 156:-81 158:-90 164:-93 165:-90 166:-89 167:-95 168:-92 169:-93 
0 0 0 0 0 0 0 3.387439581054763e-08 0 0 0 0 0 0 0 0 0 0 0 0 0 0 0 0 0 0 0 0 0 0 0 0 0 0 0 0 0 0 0 0 0 0 0 0 0 0 0 0 0 0 0 0 0 0 1:-85 2:-84 3:-85 6:-85 7:-87 8:-85 10:-87 15:-65 16:-75 19:-65 20:-86 23:-75 24:-65 25:-86 26:-85 27:-85 28:-87 29:-75 59:-78 62:-89 63:-92 65:-78 73:-89 74:-89 75:-78 118:-69 119:-68 121:-92 152:-86 153:-88 154:-88 155:-86 157:-92 
-0 0 0 0 0 0 0 0 0 0 0 0 0 0 0 0 0 0 0 0 0 0 0 0 0 0 0 0 0 0.03624414142476117 0 0 7.768739775839495e-06 0 0 0 0 0 0 0 6.457621501603756e-07 0 0 0 0 0 0 0 0 0 0 0 0 0 33:-78 39:-76 40:-76 43:-76 54:-82 
-0 0 0 0 0 0 0 0 0 0 0 0 1 0 0 0 0 0 0 0 0 0 0 0 0 0 0 0 0 1 0 0 0 0 0 0 0 0 0 0 0 0 0 0 0 0.01683335720172183 0 0 0 0 0 0 0 0 33:-77 35:-77 36:-78 39:-83 40:-84 43:-84 
-0 0 0 0 0 0 0 0 0 0 0 0 0 0 0 0 0 0 0 0 0 0 0 0 0 0 0 0 0 0 0 0 0 0 0 0 0 0 0 0 5.858913008132188e-06 0 0 0 0 1 0 0 0 0 0 0 0 0 33:-75 34:-90 35:-74 39:-76 40:-76 43:-77 
-0 0 0 0 0 0 0 0 0 0 0 0 0 0 0 0 0 0 0 0 0 0 0 0 0 0 0 0 0 1 0 0 0 0 0 0 0 0 0 0 0 0 0 0 0 0 0 0 0 0 1 0 0 0 39:-81 40:-82 43:-81 45:-79 
-0 0 0 0 0 0 0 0 0 0 0 0 0 0 0 0 0 0 0 0 0 0 0 0 0 0 0 0 0 0 0 0 0 0 0 0 0 0 0 0 0 0 0 0 0 0 0 0 0 0 0.05464537309513394 0 0 0 33:-85 39:-84 40:-78 43:-84 53:-80 105:-92 
-0 0 0 0 0 0 0 0 0 0 0 0 0.000343924080114662 0 0 0 0 0 0 0 0 0 0 0 0 0 0 0 0 1 0 0 0 0 0 0 0 0 0 0 0 0 0 0 0 0 0 0 0 0 0 0 0 0 33:-81 35:-81 36:-81 39:-77 40:-77 43:-79 45:-90 
-0 0 0 0 0 0 0 0 0 0 0 0 0 0 0 0 0 0 0 0 0 0 0 0 0 0 0 0 0 0 0 0 0 0 0 0 0 0 0 0 0 0 0 0 0 1 0 0 0 0 0 0 0 0 32:-74 33:-72 34:-73 35:-73 36:-71 37:-74 39:-74 40:-82 43:-75 342:-81 343:-80 344:-79 
-0 0 0 0 0 0 0 0 0 0 0 4.99267401731201e-05 0.0007772830034454978 0 0 0 0 0 0 0 0 0 0 0 0 0 0 0 0 0 0 0 0 0 0 0 0 0 0 0 0 0 0 0 0 1 0 0 0 0 0 0 0 0 32:-74 33:-74 35:-70 36:-71 39:-82 40:-82 342:-72 343:-77 344:-75 
-0 0 0 0 0 0 0 0 0 0 0 2.00055007767507e-06 0 0 0 0 0 0 0 0 0 0 0 0 3.528133090066731e-05 0 0 0 0 0 0 0 6.905396447829484e-05 0 0 0 0 0 0 0 0 0 0 0 0 0.6591424080261902 0 0 0 0 0 0 0 0 32:-74 33:-72 34:-69 35:-76 36:-75 37:-69 39:-85 45:-79 342:-77 343:-78 344:-76 
-0 0 0 0 0 0 0 0 0 0 0 0 0 0 0 0 0 0 0 0 0 0 0 0 0 0 0 0 0 1 0 0 0 0 0 0 0 0 0 0 0 0 0 0 0 0 0 0 0 0 0 0 0 0 33:-81 35:-80 39:-77 40:-77 43:-77 53:-77 54:-77 
-0 0 0 0 4.405527301767433e-08 0 0 0 0 0 0 0 0 0 0 0 0 0 0 0 0 0 0 0 0 0 0 0 0 0 0 0 0 0 0 0 0 0 0 0 0 0 0 0 0 0 0 0 0 0 0 0 0 0 32:-74 33:-70 34:-69 35:-70 36:-70 37:-69 45:-78 53:-78 54:-78 343:-75 344:-73 
-0 0 0 0 0 0 0 0 0 0 0 0 0 0 0 0 0 0 0 0 0 0 0 0 0 0 0 0 0 0.2166237999057015 0 0 0 0 0 0 0 0 0 0 0 0 0 0 0 0 0 0 0 0 1 0 0 0 33:-81 35:-80 39:-80 40:-78 43:-79 53:-77 54:-77 
-0 0 0 0 0 0 0 0 0 0 0 0 0.0006553719169818666 0 0 0 0 0 0 0 0 0 0 0 0 0 0 0 0 0 0 0 0 0 0 0 0 0 0 0 0 0 0 0 0 0 0 0 0 0 0 0 0 0 32:-88 33:-78 34:-87 35:-77 36:-77 37:-87 39:-86 40:-85 43:-85 127:-98 
-0 0 0 0 0 0 0 0 0 0 0 0 0 0 0 0 0 0 0 0 0 0 0 0 0 0 0 0 0 0 0 0 0 0 0.0002122591703773881 0 0 0 0 0 0 0 0 0 0 0 0 0 0 0 0 0 0 0 33:-74 34:-90 35:-73 36:-73 39:-70 40:-70 43:-70 126:-95 127:-94 
-0 0 0 0 0 0 0 0 0 0 0 0 1 0 0 0 0 0 0 0 0 0 0 0 0 0 0 0 0 1 0 0 0 0 0 0 0 0 0 0 0 0 0 0 0 0 0 0 0 0 1 0 0 0 39:-78 40:-78 43:-78 
-0 0 0 0 0 0 0 0 0 0 0 0 6.124837150197757e-05 0 0 0 0 0 0 0 0 0 0 0 0 0 0 0 0 1 0 0 0 0 0 0 0 0 0 0 0 0 0 0 0 0 0 0 0 0 1 0 0 0 39:-80 40:-80 43:-81 
-0 0 0 0 0 0 0 0 0 0 0 0 0.0001577633776230351 0 0 0 0 0 0 0 0 0 0 6.240123135334578e-06 0 0 0 0 0 0 0 0 0 0 0.0004966975443998093 0 0 0 0 0 5.536714387169895e-05 0 0 0 0 0 0 0 0 0 0 0 0 0 32:-71 33:-64 35:-65 36:-78 37:-71 39:-65 40:-67 43:-66 105:-85 127:-76 173:-84 174:-83 175:-83 342:-68 343:-83 344:-60 351:-76 352:-74 353:-76 
-0 0 0 0 0 0 0 0 0 0 0 0 0 0 0 0 0 0 0 0 0 0 0 0 1.254905189779662e-06 0 0 0 0 0.0003700031682662348 0 0 5.444650425249121e-06 0 0 0 0 0 0 1.371253275988936e-05 0 0 0 0 0 1 0 0 0 0 0 0 0 0 32:-75 33:-78 35:-67 39:-78 40:-81 342:-74 343:-75 344:-73 
-0 0 0 0 0 0 0 0 0 0 0 0 0 0 0 0 0 0 0 0 0 0 0 0 0 0 0 0 0 0 0 0 0 0 0 0 0 0 0 0 0 0 0 0 0 0.4661034847261733 0 0 0 0 0 0 0 0 33:-75 34:-90 35:-74 36:-78 39:-75 40:-74 43:-76 45:-90 
-0 0 0 0 0 0 0 0 0 0 0 0 1 0 0 0 0 0 0 0 0 0 0 0 0 0 0 0 0 0 0 0 0 0 0 0 0 0 0 0 0 0 0 0 0 1 0 0 0 0 0 0 0 0 32:-87 33:-77 34:-85 35:-77 36:-77 39:-84 40:-82 43:-83 
-0 0 0 0 0 0 0 0 0 0 0 0 0.001340745152957358 0 0 0 0 0 0 0 0 0 0 0 0 0 0 0 0 0 0 0 0 0 0 0 0 0 0 0 0 0 0 0 0 0 0 0 0 0 0 0 0 0 32:-76 33:-68 34:-76 35:-69 36:-69 37:-75 39:-79 53:-80 342:-66 343:-68 344:-67 355:-87 356:-87 357:-88 
-0 0 0 0 0 0 0 0 0 0 0 0 1 0 0 0 0 0 0 0 0 0 0 0 0 0 0 0 0 1 0 0 0 0 0 0 0 0 0 0 0 0 0 0 0 0 0 0 0 0 1 0 0 0 39:-80 40:-80 43:-80 
-0 0 0 0 0 0 0 0 0 0 0 0 0 0 0 0 0 0 0 0 0 0 0 3.98628174714695e-06 0 0 0 0 0 0 0 0 0 0 6.231068910914958e-06 0 0 0 0 0 0 0 0 0 0 0 0 0 0 0 0 0 0 0 34:-87 35:-81 39:-73 40:-72 43:-74 105:-101 126:-92 127:-95 
-4.891495853298968e-06 7.940979457048431e-06 6.186534074035082e-06 2.940442779019771e-06 1.354325161438366e-05 9.709201688102347e-06 7.016689985310905e-06 7.531676745904613e-06 1.002425988019216e-05 1.069195821927958e-05 1.071078002492103e-05 4.423570758924654e-05 0 5.657751405359161e-06 1.389058928347969e-05 6.864134367685579e-06 6.489539981090435e-06 8.544523307730597e-06 5.68158261720451e-06 1.452971943168846e-05 1.066611803944592e-06 8.373061098096688e-06 4.357525776523315e-06 1.283663761544409e-05 0.0001459507430331109 1.027891508764964e-05 6.956912611333422e-06 1.93850276994613e-05 7.024364790340251e-06 0 1.642984875759568e-05 7.275674385122784e-06 0 1.236007103219092e-05 0 1.695977071548172e-05 7.966600094023668e-06 6.754466692035231e-06 5.476778455577831e-06 0 0 7.429600547378869e-06 1.850097024435108e-05 4.896073338443341e-06 5.147287697906925e-06 0.0001032821241530376 1.420630417920333e-05 1.966765764244259e-05 1.452080113720546e-05 4.995847025566357e-06 0 1.065546254471734e-05 6.911135649503903e-06 1.390151415784917e-05 32:-74 33:-68 34:-68 37:-69 45:-78 53:-79 342:-79 343:-80 344:-78 
-0 0 0 0 0 0 0 0 0 0 0 0 0.8108904519304156 0 0 0 0 0 0 0 0 0 0 0 0 0 0 0 0 1 0 0 0 0 0 0 0 0 0 0 0 0 0 0 0 0 0 0 0 0 1 0 0 0 39:-82 40:-82 43:-82 
-0 0 0 0 0 0 0 0 0 0 0 0 0 0 0 0 0 0 0 0 0 0 0 0 0 0 0 0 0 0 0 0 0 0 0.0003045281961345086 0 0 0 0 0 0 0 0 0 0 0 0 0 0 0 0 0 0 0 33:-81 35:-79 36:-79 39:-73 40:-74 43:-74 105:-93 126:-92 
-0 0 0 0 0 0 0 0 0 0 0 0 0 0 0 0 0 0 0 0 0 0 0 0 5.797292282864015e-07 0 0 0 0 0 0 0 0 0 0 0 0 0 0 0 0 0 0 0 0 0 0 0 0 0 0 0 0 0 35:-81 39:-81 40:-81 43:-81 105:-94 
-0 0 0 0 0 0 0 0 0 0 0 0 0 0 0 0 0 0 0 0 0 0 0 0 0 0 0 0 0 0 0 0 0 0 0 0 0 0 0 0 3.677392649115084e-06 0 0 0 0 0 0 0 0 0 1 0 0 0 39:-68 40:-70 43:-67 53:-72 54:-72 105:-79 
-0 0 0 0 0 0 0 0 0 0 0 0 0 0 0 0 0 0 0 0 0 0 0 0 0 0 0 0 0 0 0 0 0 0 0 0 0 0 0 0 0 0 0 0 0 0 0 0 0 0 0.1001759483118664 0 0 0 39:-82 40:-81 43:-83 105:-91 
-0 0 0 0 0 0 0 0 0 0 0 0 0 0 0 0 0 0 0 0 0 0 0 0 0 0 0 0 0 0 0 0 0 0 0 0 0 0 0 0 0 0 0 0 0 1 0 0 0 0 0 0 0 0 32:-74 33:-72 34:-73 35:-73 36:-71 37:-74 39:-74 40:-80 43:-75 342:-81 343:-80 344:-79 
-1.885845981614492e-06 2.669009020104701e-06 1.330453216039302e-06 8.083765619204281e-07 7.212420630355675e-07 3.100908847331031e-06 1.069758934093829e-06 2.412756641819546e-06 3.184699977630319e-06 3.422279013307973e-06 1.830982352503586e-06 0 0 1.801468521447725e-06 2.557954638382512e-06 2.192715698442574e-06 2.035083881919036e-06 2.730568028620792e-06 1.02152950743852e-06 4.633243176479684e-06 0 2.404157520244742e-06 1.384618291480607e-06 0 0 3.26532598949167e-06 1.264959129367428e-06 6.160968630492022e-06 1.469348802300376e-06 0.0002623328832924023 0 2.315084216316305e-06 7.236652524642036e-05 3.932153471271497e-06 0 5.392767797120703e-06 1.354074220183094e-06 1.076817467312291e-06 1.744676838305416e-06 6.668639132074665e-06 0 2.368168751824597e-06 5.896425684027569e-06 1.574283926502267e-06 1.326434379412053e-06 0 4.536070965594642e-06 6.253357352207586e-06 4.626499305813524e-06 1.327827259073508e-06 0 1.885021685972784e-06 1.2907716141592e-06 4.428030447175237e-06 36:-83 39:-65 40:-72 45:-70 53:-70 54:-69 105:-80 
-8.54492245286233e-07 1.417663607572871e-06 6.722698007212651e-07 5.202048174647727e-07 2.497137796380176e-06 1.746258467434431e-06 4.604964593980134e-07 1.354583361427573e-06 1.791144840278517e-06 1.913274135640742e-06 2.287425206766003e-06 2.352791790228136e-06 0 1.015802061217445e-06 1.232710566211819e-06 1.226493566276605e-06 1.163615448599896e-06 1.531061741337356e-06 4.809904795163974e-07 2.603654708188382e-06 9.904705011305427e-06 1.594432653134201e-06 7.834169835642748e-07 0 4.279033695706321e-06 1.834064537379672e-06 5.940046482924725e-07 3.474290257151333e-06 7.321098245210406e-07 4.259161599549144e-05 9.113126086802872e-07 1.308636201183568e-06 0 2.206914074708684e-06 0 3.034394888882177e-06 6.077283275075079e-07 4.599393699249561e-07 9.803446890965094e-07 0 1.104061083667559e-06 1.34314071020025e-06 3.309174173675482e-06 8.688362150851265e-07 7.179572898255269e-07 0 2.531838420187869e-06 3.517527781118425e-06 2.596271026087629e-06 7.066928846319465e-07 0 8.883710505635536e-07 1.443555061469619e-06 2.480782786549132e-06 39:-60 40:-79 43:-60 49:-92 105:-94 114:-95 116:-96 120:-92 
-0 0 0 0 0 0 0 0 0 0 0 0 1 0 0 0 0 0 0 0 0 0 0 0 0 0 0 0 0 1 0 0 0 0 0 0 0 0 0 0 0 0 0 0 0 1 0 0 0 0 0 0 0 0 33:-78 35:-79 36:-79 39:-79 40:-79 43:-77 
-0 0 0 0 0 0 0 0 0 0 0 0 0 0 0 0 0 0 0 0 0 0 0 0 0 0 0 0 0 0 0 0 0 0 0 0 0 0 0 0 0 0 0 0 0 1 0 0 0 0 0 0 0 0 32:-72 33:-72 34:-74 35:-64 36:-65 37:-73 39:-81 40:-83 343:-77 344:-73 
-0 0 0 0 0 0 0 0 0 0 0 0 0.02877511169476091 0 0 0 0 0 0 0 0 0 0 0 0 0 0 0 0 0 0 0 0 0 0 0 0 0 0 0 0 0 0 0 0 0.1411562980045273 0 0 0 0 0 0 0 0 32:-86 33:-73 34:-87 39:-74 40:-74 43:-74 
-0 0 0 0 0 0 0 0 0 0 0 0 0 0 0 0 0 0 0 0 0 0 0 0 0 0 0 0 0 0 0 0 0 0 0 0 0 0 0 0 0 0 0 0 0 1 0 0 0 0 0 0 0 0 32:-70 33:-72 34:-72 35:-72 36:-74 37:-71 39:-73 40:-77 43:-74 342:-73 343:-77 344:-74 
-0 0 0 0 0 0 0 0 0 0 0 0 0 0 0 0 0 0 0 0 0 0 0 0 0 0 0 0 0 0 0 0 0 0 0 0 0 0 0 0 0 0 0 0 0 0 0 0 0 0 1 0 0 0 39:-65 40:-69 43:-65 45:-70 53:-69 54:-68 105:-76 
-0 0 0 0 0 0 0 0 0 0 0 0 1 0 0 0 0 0 0 0 0 0 0 0 0 0 0 0 0 0 0 0 0 0 0 0 0 0 0 0 0 0 0 0 0 0 0 0 0 0 0 0 0 0 32:-87 33:-78 34:-87 35:-78 36:-78 37:-86 39:-77 40:-77 43:-77 
-0 0 0 0 0 0 0 0 0 0 0 0 0 0 0 0 0 0 0 0 0 0 0 0 0 0 0 0 0 0 0 0 0 0 0.0007243346373354089 0 0 0 0 0 5.68240383704343e-06 0 0 0 0 0 0 0 0 0 0 0 0 0 33:-81 35:-82 39:-72 40:-73 43:-73 105:-91 126:-94 
-0 0 0 0 0 0 0 0 0 0 0 0 0 0 0 0 0 0 0 0 0 0 0 0 0 0 0 0 0 0 0 0 0 0 0 0 0 0 0 0 0 0 0 0 0 0 0 0 0 0 4.452230167723332e-05 0 0 0 33:-82 35:-82 39:-85 40:-82 43:-84 45:-81 54:-81 127:-92 
-0 0 0 0 0 0 0 0 0 0 0 0 0 0 0 0 0 0 0 0 0 0 0 0 0 0 0 0 0 0 1.062786494266338e-05 0 0 0 0 0 0 0 0 0 0 0 0 0 0 0 0 0 0 0 0 0 0 0 34:-86 39:-72 40:-72 43:-73 126:-91 
-0 0 0 0 0 0 0 0 0 0 0 0 0 0 0 0 0 0 0 0 0 0 0 0 0 0 0 0 0 0 0 0 0 0 0 0 0 0 0 0 0 0 0 0 0 1 0 0 0 0 0 0 0 0 32:-74 33:-72 34:-72 35:-68 36:-67 37:-73 39:-78 40:-79 342:-78 343:-80 344:-80 
-0 0 0 0 0 0 0 0 0 0 0 0 0 0 0 0 0 0 0 0 0 0 0 0 0 0 0 0 0 0 0 0 0 0 0 0 0 0 0 0 0 0 0 0 0 0 0 0 0 0 1 0 0 0 39:-67 40:-71 43:-68 45:-71 53:-71 54:-71 105:-77 
-0 0 0 0 0 0 0 0 0 0 1.076239215424762e-05 2.443704113720296e-05 1 0 0 0 0 0 0 0 0 0 0 0 0 0 0 0 0 1 0 0 0.002519445702173486 0 0 0 0 0 0 0 0 0 0 0 0 1 0 0 0 0 0 0 0 0 33:-77 35:-78 36:-77 39:-77 40:-78 43:-76 
-0 0 0 0 0 0 0 0 0 0 0 0 0 0 0 0 0 0 0 0 0 0 0 0 0 0 0 0 0 0.0002541962163497464 0 0 0 0 0 0 0 0 0 0 0 0 0 0 0 0 0 0 0 0 0 0 0 0 33:-78 35:-78 36:-78 39:-77 40:-77 43:-77 126:-89 
-0 0 0 0 0 0 0 0 0 0 0 0 0 0 0 0 0 0 0 0 0 0 0 0 0 0 0 0 0 1 0 0 0 0 0 0 0 0 0 0 0 0 0 0 0 0 0 0 0 0 1 0 0 0 39:-83 40:-82 43:-83 45:-77 
-0 0 0 0 0 0 0 0 0 0 0 0 0 0 0 0 0 0 0 0 0 0 0 0 0 0 0 0 0 0 0 0 0 0 0 0 0 0 0 0 0 0 0 0 0 0 0 0 0 0 0.1033882509552422 0 0 0 33:-78 39:-78 40:-77 43:-79 54:-82 
-0 0 0 0 0 0 0 0 0 0 0 0 0 0 0 0 0 0 0 0 0 0 0 0 0 0 0 0 0 0 0 0 0 0 4.499877874956091e-07 0 0 0 0 0 0 0 0 0 0 0 0 0 0 0 0 0 0 0 33:-79 35:-80 36:-77 39:-81 40:-80 43:-80 53:-84 105:-94 
-0 0 0 0 0 0 0 0 0 0 0 0 0 0 0 0 0 0 0 0 0 0 0 0 1.872778637905762e-05 0 0 0 0 0 0 0 0 0 0 0 0 0 0 0 0 0 0 0 0 0 0 0 0 0 0 0 0 0 34:-87 35:-82 39:-74 40:-76 43:-75 126:-92 
-0 0 0 0 0 0 0 0 0 0 0 0 0 0 0 0 0 0 0 0 0 0 0 0 0 0 0 0 0 0 0 0 0 0 0 0 0 0 0 0 0 0 0 0 0 0 0 0 0 0 0.8494633086109016 0 0 0 33:-78 35:-78 36:-78 39:-78 40:-78 43:-77 45:-84 53:-85 54:-84 
-0 0 0 0 0 0 0 0 0 0 0 0 1 0 0 0 0 0 0 0 0 0 0 0 0 0 0 0 0 0 0 0 0 0 0 0 0 0 0 0 0 0 0 0 0 0 0 0 0 0 0 0 0 0 32:-90 33:-75 34:-91 35:-74 36:-76 37:-91 39:-78 40:-78 43:-78 
-0 0 0 0 0 0 0 0 0 0 0 0 0 0 0 0 0 0 0 0 0 0 0 0 0 0 0 0 0 0 0 0 0 0 0 0 0 0 0 0 0 0 0 0 0 0 0 0 0 0 0.1690044355342561 0 0 0 35:-81 36:-80 39:-79 40:-80 43:-81 54:-82 105:-94 
-0 0 0 0 0 0 0 0 0 0 0 5.90212883219443e-06 0 0 0 0 0 0 0 0 0 0 0 0 0 0 0 0 0 0 0 0 0 0 0.0009129874001636507 0 0 0 0 0 0 0 0 0 0 0 0 0 0 0 0 0 0 0 33:-69 35:-70 36:-70 39:-73 40:-73 43:-74 54:-87 342:-72 343:-70 344:-76 
-1.637318229331348e-05 2.681237425425118e-05 1.967508091160148e-05 9.575938368571189e-06 3.922309838072374e-05 3.315572029192995e-05 2.007688963261979e-05 2.566353504665093e-05 3.413099524242973e-05 3.639103245039077e-05 2.420179901694881e-05 0 1 1.932713348805485e-05 4.211120305868077e-05 2.341158154017086e-05 2.220440471185156e-05 2.908187147601556e-05 1.698708133582642e-05 4.948904501682025e-05 0.000100816637938061 4.188487554584885e-05 1.481536101612883e-05 8.685928295539589e-05 6.756370330181301e-06 3.507260017858112e-05 2.08889759304391e-05 6.608041697804696e-05 2.223168504900382e-05 1 2.471282307744732e-05 2.470808198464746e-05 0 4.211399352636869e-05 0 5.788830047153482e-05 2.343254215857325e-05 1.943880697424167e-05 1.861529318809898e-05 0.0001071020495550777 2.94757782931842e-05 2.53705217670182e-05 6.307542271279982e-05 1.655866668934742e-05 1.689093974422423e-05 0 4.82807059652485e-05 6.708131325206109e-05 4.9531739886531e-05 1.640161173563296e-05 0.2691001849427995 3.188546937843657e-05 3.376021939043731e-05 4.737617642105185e-05 39:-77 40:-78 43:-77 
-0 0 0 0 0 0 0 0 0 0 0 0 1 0 0 0 0 0 0 0 0 0 0 0 0 0 0 0 0 0.0003254711735461173 0 0 0 0 0 0 0 0 0 0 0 0 0 0 0 1 0 0 0 0 0 0 0 0 33:-77 34:-87 35:-78 36:-78 39:-77 40:-78 43:-79 
-0 0 0 0 0 0 0 0 0 0 0 0 0 0 0 0 0 0 0 0 0 0 0 0 0 0 0 0 0 0.5520227437756837 0 0 0 0 0 0 0 0 0 0 0 0 0 0 0 0 0 0 0 0 0 0 0 0 33:-77 35:-77 36:-78 39:-74 40:-73 43:-75 45:-90 
-0 0 0 0 0 0 0 0 0 0 0 0 0 0 0 0 0 0 0 0 0 0 0 0 0 0 0 0 0 0 0 0 0 0 0.0001023484780380728 0 0 0 0 0 0 0 0 0 0 0 0 0 0 0 0 0 0 0 33:-78 34:-87 35:-77 36:-77 39:-85 40:-84 43:-85 105:-96 127:-98 
-0 0 0 0 0 0 0 0 0 0 0 0 0 0 0 0 0 0 0 0 0 0 0 0 0 0 0 0 0 0 0 0 0 0 0.0002261160021551471 0 0 0 0 0 2.692063747060633e-05 0 0 0 0 0 0 0 0 0 0 0 0 0 33:-85 35:-84 39:-79 40:-79 43:-80 105:-98 
-0 0 0 0 0 0 0 0 0 0 0 0 0 0 0 0 0 0 0 0 0 0 0 0 0 0 0 0 0 0 8.432724968982516e-06 0 0 0 0 0 0 0 0 1.234503789409589e-06 0 0 0 0 0 0 0 0 0 0 0 0 0 0 32:-88 37:-88 39:-74 40:-76 43:-75 105:-94 
-1.858644406228635e-06 2.980745076935584e-06 4.424355087980899e-08 1.030619564625654e-06 4.096821203814257e-06 3.60941594690667e-06 0 2.789976822886729e-06 3.716315139920479e-06 4.011510432897537e-06 0 0 0 2.109776572061088e-06 0 2.546477993183581e-06 2.366823568478611e-06 3.172168537386199e-06 0 5.364969755844908e-06 0 3.100026158855437e-06 1.661213834674715e-06 2.07881080943788e-06 0 3.78796975376867e-06 0 7.196146671778225e-06 0 0 0 2.734299009590823e-06 0 4.56734056778744e-06 0 6.241734657728497e-06 0 0 2.05236537735576e-06 9.544721523196073e-07 0 2.757643337464338e-06 6.854161050860877e-06 1.860985039037185e-06 8.606448051641246e-07 0 5.257747825057568e-06 7.293103754541312e-06 5.348482510547411e-06 9.439994184858225e-07 0 0 2.461505125305881e-06 5.139902834428371e-06 39:-74 40:-74 43:-74 126:-93 
-0 0 0 0 0 0 0 0 0 0 0 0 0 0 0 0 0 0 0 0 0 0 0 0 0 0 0 0 0 0 0 0 0 0 9.852572228536013e-05 0 0 0 0 0 0 0 0 0 0 0 0 0 0 0 0 0 0 0 33:-77 39:-63 40:-74 45:-76 53:-75 54:-76 105:-83 342:-88 343:-87 344:-87 
-0 0 0 0 0 0 0 0 0 0 0 0 0.0007726159449427844 0 0 0 0 0 0 0 0 0 0 0 0 0 0 0 0 0 0 0 0 0 0 0 0 0 0 0 0 0 0 0 0 0 0 0 0 0 0 0 0 0 32:-90 34:-91 36:-80 37:-91 39:-75 40:-77 43:-74 105:-98 126:-91 
-0 0 0 0 0 0 0 0 0 0 8.085713660462345e-06 1.705436434397247e-05 0 0 0 0 0 0 0 0 0 0 0 0 0 0 0 0 0 0 0 0 4.796814654248537e-05 0 0.0001637525893818316 0 0 0 0 0 0 0 0 0 0 0 0 0 0 0 0 0 0 0 33:-77 35:-77 36:-79 39:-70 40:-71 43:-70 126:-93 
-0 0 0 0 0 0 0 0 0 0 0 0 0.0001528187958970318 0 0 0 0 0 0 0 0 0 0 0 0 0 0 0 0 0 0 0 0 0 0 0 0 0 0 0 0 0 0 0 0 0 0 0 0 0 0 0 0 0 33:-81 35:-82 36:-82 39:-72 40:-72 43:-72 126:-91 
-0 0 0 0 0 0 0 0 0 0 0 0 1 0 0 0 0 0 0 0 0 0 0 0 0 0 0 0 0 1 0 0 0 0 0 0 0 0 0 0 0 0 0 0 0 1 0 0 0 0 0 0 0 0 33:-77 35:-78 36:-77 39:-78 40:-78 43:-78 
-0 0 0 0 0 0 0 0 0 0 0 0 0 0 0 0 0 0 0 0 0 0 0 0 0 0 0 0 0 0 0 0 0 0 0 0 0 0 0 0 0 0 0 0 0 0.0008289427366374958 0 0 0 0 0 0 0 0 32:-80 33:-77 34:-74 35:-77 36:-77 37:-79 39:-67 40:-72 41:-83 42:-84 43:-78 105:-81 342:-88 343:-87 344:-87 354:-92 
-0 0 0 0 0 0 0 0 0 0 0 0 1 0 0 0 0 0 0 0 0 0 0 0 0 0 0 0 0 0 0 0 0 0 0 0 0 0 0 0 0 0 0 0 0 0.6400208530236206 0 0 0 0 0 0 0 0 33:-77 34:-87 35:-77 36:-77 37:-89 39:-77 40:-78 43:-77 
-0 0 0 0 0 0 0 0 0 0 0 0 0 0 0 0 0 0 0 0 0 0 0 0 0 0 0 0 0 0 0 0 3.990224636874444e-05 0 0 0 0 0 0 0 0 0 0 0 0 0 0 0 0 0 0 0 0 0 32:-75 33:-68 34:-76 35:-69 36:-69 37:-75 39:-79 53:-80 342:-65 343:-67 344:-67 355:-87 
-0 0 0 0 0 0 0 0 0 0 0 0 0 0 0 0 0 0 0 0 0 0 0 0 0 0 0 0 0 1 0 0 0 0 0 0 0 0 0 0 0 0 0 0 0 0 0 0 0 0 1 0 0 0 39:-81 40:-81 43:-82 45:-82 53:-85 
-0 0 0 0 0 0 0 0 0 0 0 0 0 0 0 0 0 0 0 0 0 0 0 0 0 0 0 0 0 1 0 0 0 0 0 0 0 0 0 0 0 0 0 0 0 0 0 0 0 0 0 0 0 0 33:-77 35:-77 36:-78 39:-81 40:-81 43:-81 45:-90 
-0 0 0 0 0 0 0 0 0 0 0 0 0 0 0 0 0 0 0 0 0 0 0 0 0 0 0 0 0 0 0 0 0 0 0 0 0 0 0 0 0 0 0 0 0 0 0 0 0 0 1 0 0 0 39:-68 40:-72 43:-68 45:-71 53:-71 54:-71 105:-77 
-0 0 0 0 0 0 0 0 0 0 0 0 0 0 0 0 0 0 0 0 0 0 0 0 0 0 0 0 0 0 0 0 0 0 0 0 0 0 0 0 0 0 0 0 0 0 0 0 0 0 1 0 0 0 39:-83 40:-81 43:-84 105:-99 
-0 0 0 0 0 0 0 0 0 0 0 0 0 0 0 0 0 0 0 0 0 0 0 0 0 0 0 0 0 1 0 0 0 0 0 0 0 0 0 0 1.779032126575882e-06 0 0 0 0 0 0 0 0 0 0 0 0 0 33:-85 35:-84 39:-83 40:-83 43:-83 
-0 0 0 0 0 0 0 0 0 0 0 0 0 0 0 0 0 0 0 0 0 0 0 0 0 0 0 0 0 0 0 0 0 0 0 0 0 0 0 0 0 0 0 0 0 0.0004456877898803334 0 0 0 0 0 0 0 0 32:-74 33:-67 34:-74 35:-68 36:-68 37:-74 53:-81 54:-80 342:-65 343:-67 344:-68 
-0 0 0 0 0 0 0 0 0 0 0 0 1 0 0 0 0 0 0 0 0 0 0 0 0 0 0 0 0 0 0 0 0 0 0 0 0 0 0 0 0 0 0 0 0 0.7434305541799282 0 0 0 0 0 0 0 0 33:-77 34:-87 35:-77 36:-77 37:-89 39:-77 40:-78 43:-77 
-0 0 0 0 0 0 0 0 0 0 0 0 0 0 0 0 0 0 0 0 0 0 0 0 0 0 0 0 0 0 0 0 0 0 0 0 0 0 0 0 0 0 0 0 0 0 0 0 0 0 0.0007655946632797382 0 0 0 32:-75 33:-74 34:-68 35:-72 36:-70 37:-69 39:-81 43:-78 45:-78 53:-78 54:-78 342:-75 343:-80 344:-78 
-0 0 0 0 0 0 0 0 0 0 0 0 0 0 0 0 0 0 0 0 0 0 0 0 0 0 0 0 0 0 0 0 0 0 0 0 0 0 0 0 0 0 0 0 0 0 0 0 0 0 1 0 0 0 39:-81 40:-80 43:-81 54:-79 
-0 0 0 0 0 0 0 0 0 0 0 0 0 0 0 0 0 0 0 0 0 0 0 0 0 0 0 0 0 0 0 0 0 0 0 0 0 0 0 3.086100811206748e-06 0 0 0 0 0 0 0 0 0 0 0 0 0 0 32:-78 34:-74 37:-76 39:-74 40:-75 43:-78 45:-78 343:-78 344:-76 
-1.711361022332511e-06 3.423490061351687e-06 1.462245878692807e-06 1.365426126750762e-06 8.495879431622888e-06 4.54869193245725e-06 7.352037412002995e-07 3.493760864300623e-06 4.64372084183133e-06 4.97112091002416e-06 1.449347457168881e-05 4.534548973264166e-05 0 2.652079252440824e-06 2.409551136624436e-06 3.196998151994371e-06 3.031362717263183e-06 3.956861373904168e-06 8.919732537208416e-07 6.735206367585172e-06 0 3.987546069896562e-06 2.026026979205493e-06 2.118375940357788e-06 3.738555137817407e-05 4.795482965947227e-06 1.12949069842625e-06 9.012505387823665e-06 1.599642350989452e-06 0 1.111964354240451e-05 3.370897149616917e-06 9.890545475104035e-06 5.736379238531136e-06 0 7.906853130580421e-06 1.08696256705642e-06 7.517165080082947e-07 2.547015844956617e-06 0 0 3.4751330813483e-06 8.618134139717754e-06 2.24683770421628e-06 1.737456217565984e-06 0 6.555586158883204e-06 9.162599408917583e-06 6.762954712454206e-06 1.734936627424737e-06 0 1.687665428464233e-06 3.507475691502502e-06 6.453425803525844e-06 32:-74 33:-67 34:-74 35:-68 36:-68 37:-74 53:-80 54:-80 342:-65 343:-67 344:-67 
-0 0 0 0 0 0 0 0 0 0 0 1.126429761747496e-05 0 0 0 0 0 0 0 0 0 0 0 0 5.012146449811126e-06 0 0 0 0 0 0 0 0 0 0 0 0 0 0 0 0 0 0 0 0 0 0 0 0 0 0 0 0 0 32:-73 33:-76 35:-77 36:-76 37:-72 40:-82 43:-78 342:-83 343:-80 344:-80 354:-87 
-0 0 0 0 0 0 0 0 0 0 0 0 0 0 0 0 0 0 0 0 0 0 0 0 0 0 0 0 0 1 0 0 0 0 0 0 0 0 0 0 0 0 0 0 0 0 0 0 0 0 1 0 0 0 39:-83 40:-82 43:-83 45:-82 53:-85 
-0 0 0 0 0 0 0 0 0 0 0 0 1 0 0 0 0 0 0 0 0 0 0 0 0 0 0 0 0 0 0 0 0 0 0 0 0 0 0 0 0 0 0 0 0 0 0 0 0 0 0 0 0 0 32:-88 33:-78 34:-87 35:-77 36:-77 37:-89 39:-78 40:-78 43:-77 
-0 0 0 0 0 0 0 0 0 0 0 0 0 0 0 0 0 0 0 0 0 0 0 0 0 0 0 0 0 0 0 0 0 0 0 0 0 0 0 0 0 0 0 0 0 0 0 0 0 0 1 0 0 0 39:-78 40:-78 43:-79 54:-79 
-0 0 0 0 0 0 0 0 0 0 0 0 0.001253289494738746 0 0 0 0 0 0 0 0 0 0 0 0 0 0 0 0 0 0 0 0 0 0 0 0 0 0 0 0 0 0 0 0 0 0 0 0 0 0 0 0 0 32:-74 33:-66 34:-75 35:-66 36:-69 37:-75 39:-75 40:-78 54:-83 342:-66 343:-69 344:-68 355:-83 356:-86 357:-88 
-0 0 0 0 0 0 0 0 0 0 0 0 0 0 0 0 0 0 0 0 0 0 0 0 9.100226950455795e-06 0 0 0 0 0 0 0 0 0 0 0 0 0 0 0 0 0 0 0 0 0 0 0 0 0 0 0 0 0 32:-73 33:-76 34:-73 35:-75 36:-76 37:-73 40:-82 43:-78 342:-83 343:-80 344:-79 354:-87 
-0 0 0 0 0 0 0 0 0 0 0 0 0 0 0 0 0 0 0 0 0 0 0 0 0 0 0 0 0 0 0 0 0 0 0 0 0 0 0 0 0 0 0 0 0 0.6825079338591289 0 0 0 0 0 0 0 0 32:-73 33:-72 34:-72 35:-73 36:-71 37:-74 39:-74 40:-79 43:-75 342:-81 343:-76 344:-75 
-0 0 0 0 0 0 0 0 0 0 0 0 0 0 0 0 0 0 0 0 0 0 0 0 2.810257512867782e-05 0 0 0 0 0.0001189678373879153 0 0 0 0 0 0 0 0 0 9.58671015850537e-06 0 0 0 0 0 0 0 0 0 0 0 0 0 0 32:-70 33:-75 35:-68 37:-70 39:-81 40:-83 343:-79 344:-77 
-0 0 0 0 0 0 0 0 0 0 0 0 0 0 0 0 0 0 0 0 0 0 0 0 0 0 0 0 0 1 0 0 0 0 0 0 0 0 0 0 0 0 0 0 0 0 0 0 0 0 0 0 0 0 33:-81 39:-78 40:-79 43:-80 54:-79 
-0 0 0 0 0 0 0 0 0 0 0 0 0 0 0 0 0 0 0 0 0 0 0 0 0 0 0 0 0 0 0 0 0 0 0 0 0 0 0 0 0 0 0 0 0 1 0 0 0 0 0 0 0 0 32:-70 33:-76 34:-72 35:-70 36:-71 37:-73 39:-78 40:-79 342:-72 343:-79 344:-77 
-0 0 0 0 0 0 0 0 0 0 0 0 0 0 0 0 0 0 0 0 0 0 0 0 5.5179599035596e-06 0 0 0 0 0 1.345873353635801e-06 0 0 0 0 0 0 0 0 3.225632552808312e-07 0 0 0 0 0 0 0 0 0 0 0 0 0 0 32:-88 34:-89 35:-78 39:-76 40:-78 43:-76 
-0 0 0 0 0 0 0 0 0 0 0 0 1 0 0 0 0 0 0 0 0 0 0 0 0 0 0 0 0 0 0 0 0 0 0 0 0 0 0 0 0 0 0 0 0 0 0 0 0 0 0 0 0 0 32:-90 33:-76 34:-91 35:-74 36:-76 37:-91 39:-78 40:-77 43:-77 
-9.051803583669761e-07 3.762105556586579e-07 0 0 0 0 0 0 0 0 0 0 0 0 0 0 0 0 0 0 0 0 0 0 0 0 0 0 0 0 0 0 0 0 0 0 0 0 0 0 0 0 0 0 0 0 0 0 0 0 0 0 0 0 15:-88 19:-88 32:-70 33:-70 34:-73 35:-64 36:-69 37:-72 39:-76 40:-76 43:-78 342:-78 343:-78 344:-76 
-0 0 0 0 0 0 0 0 0 0 0 0 1 0 0 0 0 0 0 0 0 0 0 0 0 0 0 0 0 1 0 0 0 0 0 0 0 0 0 0 0 0 0 0 0 1 0 0 0 0 0 0 0 0 33:-77 35:-78 36:-77 39:-77 40:-78 43:-78 
-0 0 0 0 0 0 0 0 0 0 0 2.187403815137057e-06 0 0 0 0 0 0 0 0 0 0 0 6.294685381502896e-06 0 0 0 0 0 0 0 0 0 0 0.0004666017055451591 0 0 0 0 0 2.234368793418668e-05 0 0 0 0 0 0 0 0 0 0 0 0 0 33:-75 35:-76 36:-78 39:-65 40:-67 43:-66 45:-86 105:-85 127:-76 173:-84 174:-83 175:-83 182:-86 183:-87 342:-68 343:-69 344:-51 351:-76 352:-74 353:-76 
-0 0 0 0 0 0 0 0 0 0 0 0 0 0 0 0 0 0 0 0 0 0 0 0 0 0 0 0 0 0 0 0 0 0 0 0 0 0 0 0 0 0 0 0 0 0 0 0 0 0 0.0002786599888080678 0 0 0 39:-87 40:-81 43:-86 126:-94 
-0 0 2.08701775242344e-06 0 0 0 3.819172803582891e-06 0 0 0 0 0 0 0 6.028682741243733e-06 0 0 0 2.631270566323343e-06 0 2.68936842895728e-05 0 0 0 0 0 3.153902859223017e-06 0 2.498992866478694e-06 0 0 0 0 0 0 0 3.896131281531205e-06 3.586374627766202e-06 0 0 0 0 0 0 9.999263215671578e-07 0 0 0 0 8.83607439295725e-07 0 4.91148806212953e-06 1.362391403602428e-07 0 33:-77 34:-86 35:-77 36:-79 39:-69 40:-69 43:-69 85:-99 105:-93 126:-90 
-0 0 0 0 0 0 0 0 0 0 0 0 0 0 0 0 0 0 0 0 0 0 0 0 0 0 0 0 0 0 0 0 0 0 0 0 0 0 0 0 0 0 0 0 0 0.0004419012712639977 0 0 0 0 0 0 0 0 33:-80 34:-86 35:-79 36:-80 39:-68 40:-68 43:-70 126:-88 
-2.254909701754311e-05 -4.725731343368432e-06 2.582306537083154e-06 1.456617452673985e-06 9.409044416267247e-07 0 2.64421491946791e-06 8.801490957315276e-06 3.339538776745218e-06 0 4.344191976417964e-06 5.09690669455038e-06 6.102332778787339e-06 2.613247574105318e-06 4.603266535508958e-06 3.009395378616083e-06 0 0 2.303915632167264e-06 3.895391441494847e-06 3.508098790730781e-06 4.244556331447892e-06 7.931592677497562e-06 5.703538876870128e-06 4.532097357218508e-06 5.407478136509885e-06 2.667522792024811e-06 4.179254383362376e-06 2.823589478586749e-06 5.015268003720457e-06 4.609575024371464e-06 3.196763958084052e-06 5.747671841957876e-06 3.882247941245403e-06 4.354082136423919e-06 5.059096893297957e-06 2.948913946015266e-06 2.981959037972618e-06 9.081848554005116e-07 3.550834711928169e-06 3.304617233467843e-06 1.372776944275475e-06 5.604547361350064e-06 2.553778826512511e-06 3.053308693298296e-06 2.016371173440143e-06 2.809782635530523e-06 5.803953383610544e-06 4.944058828611792e-06 2.223936101930715e-06 4.477967769509326e-06 3.64934560197148e-06 3.379029564670136e-06 4.813075843513472e-06 2:-87 19:-69 20:-85 24:-69 26:-77 27:-77 29:-88 59:-64 64:-89 65:-64 75:-65 76:-75 118:-75 119:-75 
-0 -2.239617603708133e-06 1.271995018965099e-06 6.981546324417997e-07 9.594434036523332e-09 0 1.286101566498143e-06 0 1.426108405986226e-06 2.768191594992551e-05 2.108777142154639e-06 2.143872540901091e-06 3.101198583707904e-06 1.266869739243898e-06 2.268071662264582e-06 1.443688826599371e-06 0 0 1.123963046478046e-06 1.480989783035572e-05 1.689148284865406e-06 2.107362657259983e-06 0 2.861332331185386e-06 2.206606410312374e-06 0 1.288827360917905e-06 1.747364085345813e-06 1.348337499700448e-06 2.428929460769372e-06 3.384675798562809e-06 1.546084810583522e-06 1.395523802664837e-07 1.749339548601054e-06 2.137747377458219e-06 1.156611353087877e-06 1.450038655133374e-06 1.52407528088685e-06 0 1.742535709597274e-06 1.590924491321617e-06 0 2.714131259657608e-06 0 0 0 9.313629459582223e-07 2.783625771987335e-06 2.369849370240693e-06 1.058034143914646e-06 2.174407967624616e-06 1.762462963313584e-06 1.6331013027998e-06 2.308017953775624e-06 2:-88 5:-92 19:-72 24:-72 25:-85 26:-76 27:-76 28:-76 59:-65 64:-84 65:-65 76:-70 118:-70 119:-70 
-9.504899279627102e-06 -0 0 0 0 0 0 3.160095275830837e-06 0 0 0 0 0 0 0 0 0 9.335259566128219e-05 0 0 0 0 0 0 0 0 0 0 0 0 0 0 0 0 0 0 0 0 9.527954429620993e-05 0 0 0 0 0 0 0 0 0 0 0 0 0 0 0 2:-90 8:-92 15:-67 16:-89 19:-67 24:-67 26:-81 27:-82 28:-82 29:-89 59:-65 64:-91 65:-65 75:-66 76:-75 118:-75 119:-74 
-0 -0 0 0 0 0 0 0 0 0 0 0 0 0 0 0 0 0 0 0 0 0 3.740575236708459e-07 0 0 0 0 0 0 0 0 0 0 0 0 0 0 0 0 0 0 0 0 0 0 3.296599112293118e-06 0 0 0 0 0 0 0 0 2:-89 5:-92 8:-91 9:-91 19:-69 20:-85 21:-85 24:-69 25:-85 26:-77 27:-77 28:-78 29:-91 59:-65 64:-82 65:-64 75:-64 76:-76 118:-69 119:-69 
-0 -0 0 0 0 0 0 0 0 0 0 0 0 0 0 0 0 0 0 0 0 0 0 0 0 0 0 0 0 0 0 0 0 0 0 0 0 0 0 0 0 0 0 0 0 9.815536987625352e-06 0 0 0 0 0 0 0 0 1:-88 2:-90 3:-87 5:-91 6:-87 8:-92 19:-72 20:-84 21:-84 24:-72 25:-83 26:-78 27:-78 28:-79 59:-65 64:-83 65:-65 75:-66 76:-67 118:-67 119:-67 133:-94 
-0 -0 0 0 0 0 0 0 0 0 0 0 0 0 0 0 5.146356883805831e-05 0 0 0 0 0 0 0 0 0 0 0 0 0 0 0 0 0 0 0 0 0 0 0 0 0 0 0 0 0 0 0 0 0 0 0 0 0 2:-88 5:-91 6:-87 15:-71 16:-89 19:-67 20:-84 23:-89 24:-67 25:-85 26:-78 27:-78 59:-64 64:-83 65:-64 118:-70 119:-70 133:-91 136:-93 
-0 -0 0 0 0 0 0 2.019017495371151e-06 0 0 0 0 0 0 0 0 0 0 0 2.344914310051136e-05 0 0 0 0 0 7.376527111140454e-06 0 0 0 0 0 0 0 0 0 9.441361440835918e-07 0 0 0 0 0 3.275473093740196e-06 0 0 0 8.238083203113748e-07 0 0 0 0 0 0 0 0 2:-90 6:-88 15:-67 16:-90 19:-67 20:-84 24:-67 25:-84 26:-82 27:-82 28:-82 59:-64 65:-63 75:-64 118:-70 119:-70 
-2.437376317200842e-06 -0 0 0 0 0 0 0 0 0 0 0 0 0 0 0 0 5.754851131416719e-06 0 0 0 0 0 0 0 0 0 0 0 0 0 0 0 0 0 0 0 0 0 0 0 0 0 0 0 0 0 0 0 0 0 0 0 0 2:-89 6:-91 15:-66 19:-67 20:-82 21:-82 24:-67 25:-82 26:-79 27:-80 29:-89 59:-64 65:-64 75:-65 76:-79 118:-79 119:-79 133:-90 136:-91 
-0 -0 0 0 0 0 0 0 2.555200314766713e-07 0 0 0 0 0 0 0 0 0 0 0 0 0 0 0 0 0 0 0 0 0 0 0 0 0 0 1.139314320603742e-06 0 0 0 0 0 0 0 0 0 1.381144076165144e-07 0 0 0 0 0 0 0 0 2:-89 19:-69 20:-84 21:-85 24:-69 25:-83 26:-76 27:-76 29:-91 59:-65 64:-86 65:-65 75:-66 76:-67 118:-69 119:-69 
-0 -0 0 0 0 0 0 0 0 0 0 0 0 0 0 0 9.921545040111142e-05 0 0 0 0 0 0 0 0 0 0 0 0 0 0 0 0 0 0 0 0 0 0 0 0 0 0 0 0 0 0 0 0 0 0 0 0 0 2:-89 5:-91 6:-87 15:-71 16:-88 19:-69 20:-84 23:-89 24:-69 25:-84 26:-78 27:-78 59:-65 64:-84 65:-65 118:-74 119:-74 133:-91 
-0 -0 0 0 0 0 0 0 0 0 0 0 0 0 0 0 0 0 0 0 0 0 0 0 0 0 0 0 0 0 0 0 2.900774202623992e-06 0 0 0 0 0 0 0 0 0 0 0 1.622400482447278e-06 0 0 0 0 0 0 0 0 0 2:-88 5:-92 19:-72 24:-72 25:-85 26:-76 27:-76 28:-76 59:-65 64:-85 65:-65 76:-70 118:-70 119:-70 
-2.70995728411123e-05 -2.716055918479773e-05 1.451466793575496e-05 8.420075462030366e-06 0.001347729887831001 7.201639051814036e-05 1.507275198510253e-05 1.515814290091653e-05 5.783645209167554e-05 6.875272716667974e-05 2.490485842596738e-05 2.943882048023097e-05 2.907881001771163e-05 1.494399493958179e-05 2.490742677381405e-05 1.726797922291182e-05 0.001360004373089651 4.388957808507093e-05 1.312447560501995e-05 5.346711350993136e-05 1.975616243313481e-05 2.236874736515016e-05 5.111963711339499e-06 2.979640407783326e-05 3.723752298222395e-05 1.045472165935342e-05 1.539203271733455e-05 8.323641875069478e-05 1.595200178033531e-05 2.878809219150852e-05 7.204435334614786e-05 1.800115178370306e-05 2.512077817724781e-05 3.933642828923592e-05 2.371237458881374e-05 2.951820820279748e-05 1.682901832894443e-05 1.456245861077275e-05 0 2.039821469537564e-05 1.874099185726978e-05 1.290026608506053e-05 3.216786984909861e-05 5.931294587738495e-06 1.300744036157618e-05 2.971454631595827e-05 8.307988506671333e-05 3.314214850616392e-05 2.822667686223258e-05 1.289025553619865e-05 2.556554621296812e-05 2.088190491378301e-05 1.929509335779846e-05 2.750160841594343e-05 15:-78 19:-73 24:-73 31:-81 137:-81 291:-82 309:-85 
-0 -0 0 0 0 0 0 0 0 6.945764255302426e-07 0 0 0 0 0 0 0 0 0 0 0 0 0 0 0 0 0 0 0 0 0 0 0 0 0 0 0 0 0 0 0 0 0 0 0 0 0 0 0 0 0 0 0 0 2:-89 5:-93 6:-89 19:-68 20:-84 24:-68 25:-85 26:-77 27:-78 28:-79 29:-88 59:-65 64:-81 65:-64 75:-65 76:-68 118:-68 119:-68 133:-93 
-1.761030639411056e-06 -0 0 0 0 0 0 0 0 0 0 0 0 0 0 0 0 0 0 0 0 0 0 0 0 0 0 0 0 0 0 0 0 0 0 0 0 0 0 0 0 0 0 0 0 0 0 0 0 0 0 0 0 0 2:-89 5:-92 6:-87 15:-71 16:-88 19:-71 23:-89 24:-71 25:-85 26:-76 27:-76 29:-90 59:-66 64:-87 65:-65 75:-65 76:-70 118:-75 119:-75 
-0 -0 0 0 0 0 0 8.178368014228084e-06 0 0 0 0 0 0 0 0 0 0 0 1.115435553361206e-05 0 0 0 0 0 0 0 0 0 0 0 0 0 0 0 0 0 0 0 0 0 0 0 0 0 0 0 0 0 0 0 0 0 0 2:-89 5:-91 15:-72 19:-72 23:-88 24:-72 26:-81 27:-81 28:-78 29:-90 59:-65 64:-89 65:-65 75:-66 118:-72 119:-72 
-8.854324489648725e-06 -0 0 0 0 0 0 0 0 0 0 0 0 0 0 0 0 0 0 2.214631505596866e-06 0 0 9.607612482463303e-07 0 0 0 0 0 0 0 0 0 0 0 0 0 0 0 8.26274529823047e-06 0 0 0 0 0 0 0 0 0 0 0 0 0 0 0 2:-88 6:-89 15:-68 19:-66 20:-83 21:-83 24:-66 25:-83 26:-80 27:-80 28:-78 29:-91 59:-64 65:-64 75:-63 76:-78 118:-77 119:-76 140:-91 
-0 -0 0 0 0 0 0 1.39860934742287e-05 0 0 0 0 0 0 0 0 0 0 0 0 0 0 0 0 0 0 0 0 0 0 0 0 0 0 0 0 0 0 0 0 0 0 0 9.556118288171883e-06 0 0 0 0 0 0 0 0 0 0 2:-85 5:-91 15:-75 16:-91 19:-74 23:-89 24:-74 26:-80 27:-79 28:-82 59:-68 64:-82 65:-68 75:-68 76:-73 118:-70 119:-70 
-0 -0 0 0 0 0 0 0 0 7.604991190140977e-05 0 0 0 0 0 0 0 0 0 0 0 0 5.945039655085979e-06 0 0 1.360311257118116e-07 0 0 0 0 0 0 0 0 0 0 0 0 0 0 0 0 0 0 0 0 0 0 0 0 0 0 0 0 2:-92 5:-90 15:-65 16:-87 19:-65 23:-86 24:-64 26:-72 27:-71 28:-72 29:-87 137:-90 
-0 -0 0 0 0 0 0 0 0 0 0 0 0 0 0 0 0 0 0 0 0 0 0 0 0 0 0 0 0 0 0 0 0 0 0 0 0 0 0 0 0 0 0 0 0 1.449004401322652e-06 0 0 0 0 0 0 0 0 2:-89 5:-92 6:-88 8:-91 9:-92 15:-68 19:-68 20:-83 24:-68 25:-83 26:-77 27:-77 28:-77 59:-64 64:-87 65:-64 75:-64 118:-73 119:-73 
-0 -0 0 0 0 0 0 0 0 0 0 0 0 0 0 0 0 0 0 0 0 0 0 0 0 1.181085222410326e-05 0 0 0 0 0 0 0 0 0 0 0 0 0 0 0 6.727302169688593e-06 0 0 0 0 0 0 0 0 0 0 0 0 2:-85 5:-91 16:-91 19:-73 24:-73 26:-81 27:-82 28:-81 59:-72 64:-81 65:-72 75:-73 76:-71 118:-70 119:-70 
-1.15168475231856e-05 -0 0 0 0 0 0 0 0 0 0 0 0 0 0 0 0 1.859226019227394e-05 0 0 0 0 0 0 0 0 0 0 0 0 0 0 0 0 0 0 0 0 0 0 0 0 0 0 0 0 0 0 0 0 0 0 0 0 2:-88 6:-91 15:-66 19:-66 20:-82 24:-66 25:-82 26:-79 27:-79 29:-89 59:-64 65:-64 76:-79 118:-79 119:-79 133:-91 136:-91 140:-91 
-0 -0 0 0 0 0 0 0 0 0 0 0 0 0 0 0 0 5.789155662706097e-06 0 0 0 0 0 0 0 0 0 0 0 0 0 0 0 0 0 0 0 0 1.352444464438721e-05 0 0 0 0 0 0 0 0 0 0 0 0 0 0 0 2:-88 6:-90 15:-70 16:-90 19:-68 20:-84 23:-90 24:-68 25:-84 26:-82 27:-82 28:-79 59:-64 65:-63 75:-63 76:-76 118:-77 119:-77 133:-93 
-0 -0 0 0 0 0 0 0 0 3.549697877539028e-06 0 0 0 0 0 0 0 0 0 0 0 0 0 0 0 0 0 0 0 0 0 0 0 0 0 0 0 0 0 0 0 0 0 0 0 0 0 0 0 0 0 0 0 0 2:-91 5:-91 16:-91 19:-70 20:-83 21:-82 24:-71 25:-83 26:-76 27:-76 28:-78 59:-65 64:-81 65:-65 118:-70 119:-70 133:-93 
-0 -2.4643545601705e-06 1.258069569759454e-06 7.684416242240573e-07 0 5.870037142860274e-06 1.33113100421251e-06 0 2.297259339957476e-06 0 2.235876798357021e-06 1.939803586959488e-06 2.353728369115869e-06 1.339093749407712e-06 2.173169177844373e-06 1.570153887863123e-06 0 0 1.157071181241543e-06 1.717552697872585e-06 1.699080707808184e-06 1.90408413405689e-06 2.803396862317513e-06 2.516512080317655e-06 2.405266111055709e-06 5.989559195413009e-07 1.406934010358046e-06 2.36302965374734e-06 1.396785956052741e-06 2.597393694603966e-06 5.619885275196635e-07 1.54863775333848e-06 1.802214293952509e-06 2.206131321559704e-06 2.075434778935049e-06 6.071352488567747e-06 1.478952605885301e-06 1.206397017925105e-06 2.565070758917724e-05 1.81006527440813e-06 1.66014576564048e-06 0 2.891580882599767e-06 0 9.191701797244213e-07 0 1.614702877728973e-06 2.967618182377245e-06 2.520973834344492e-06 1.194711320125819e-06 2.283780198150711e-06 1.875879463923661e-06 1.71745461038412e-06 2.475693126395589e-06 2:-88 5:-92 19:-69 24:-69 26:-77 27:-77 29:-88 59:-64 64:-85 65:-64 75:-65 76:-75 118:-74 119:-74 
-0 -5.757782296817065e-06 3.116852970696321e-06 1.802273741785365e-06 0 3.150071432003486e-06 3.195953087539088e-06 9.451844091660868e-06 5.020293755923802e-06 0 5.281168879665194e-06 5.305521006531533e-06 7.416571756330071e-06 3.168845168621336e-06 5.591662690507706e-06 3.663165031345251e-06 0 0 2.782417153198205e-06 1.609469440771375e-05 4.200238193985723e-06 5.139298065013508e-06 6.705295673227624e-06 6.904770861383307e-06 5.785947191970943e-06 1.222463884718561e-05 3.268419789377814e-06 4.532373493704694e-06 3.385387481719894e-06 6.113779038729558e-06 2.066281935505271e-06 3.807721384347431e-06 6.841013904078995e-06 5.108950701521784e-06 5.285598192605048e-06 9.49553152036336e-06 3.56523085038638e-06 3.638559141923974e-06 1.252767257443887e-05 4.342968896714275e-06 3.965188644173059e-06 6.28191328852314e-06 6.826371036153766e-06 1.156553955238109e-05 3.658120827167228e-06 0 1.606572391867919e-06 7.041186351270162e-06 5.99602025444564e-06 2.760694688475525e-06 5.416256084687745e-06 4.429723257763399e-06 4.103588577762726e-06 5.845681511568635e-06 2:-88 16:-91 19:-70 24:-71 26:-78 27:-79 28:-78 59:-66 64:-88 65:-66 118:-70 119:-70 133:-93 
-0 -0 0 0 0 0 0 0 0 0 0 0 0 0 0 0 2.353326305364915e-05 0 0 0 0 0 0 0 0 0 0 0 0 0 0 0 0 0 0 0 0 0 0 0 0 0 0 0 0 0 0 0 0 0 0 0 0 0 2:-88 5:-90 6:-90 16:-88 19:-72 24:-72 26:-75 27:-76 28:-76 59:-65 64:-83 65:-64 118:-75 119:-75 133:-93 
-0 -0 0 0 6.706092118940525e-05 0 0 0 0 5.197979522158473e-05 0 0 0 0 0 0 0 0 0 0 0 0 0 0 0 8.553588228265352e-06 0 4.699921569579672e-06 0 0 9.534631373001648e-06 0 0 0 0 1.481522939648018e-05 0 0 2.911418979174679e-05 0 0 1.013113314254341e-06 0 1.598585687245519e-06 0 0 8.960560971397861e-06 0 0 0 0 0 0 0 15:-72 16:-87 19:-73 23:-90 24:-71 26:-68 27:-68 28:-69 29:-90 31:-81 137:-81 291:-82 
-0 -0 0 0 1.854200009416368e-05 0 0 0 0 0 0 0 0 0 0 0 0 0 0 0 0 0 0 0 0 0 0 0 0 0 0 0 0 0 0 0 0 0 0 0 0 0 0 0 0 0 0 0 0 0 0 0 0 0 2:-89 5:-92 15:-76 19:-73 20:-83 21:-84 24:-74 25:-83 26:-76 27:-75 59:-63 64:-82 65:-63 75:-66 118:-69 119:-69 133:-94 
-1.802279503137878e-05 -0 0 0 0 0 0 0 0 0 0 0 0 0 0 0 0 2.210845066444027e-05 0 0 0 0 0 0 0 0 0 0 0 0 0 0 0 0 0 0 0 0 0 0 0 0 0 4.399668978068109e-06 0 0 0 0 0 0 0 0 0 0 2:-88 5:-92 8:-91 9:-91 15:-67 16:-90 19:-69 24:-69 26:-78 27:-78 28:-79 29:-90 59:-64 64:-80 65:-64 75:-65 76:-68 118:-73 119:-73 
-0 -0 0 0 0 0 0 0 0 0 0 0 0 0 0 0 0 0 0 0 0 0 0 0 0 0 0 0 0 0 0 0 0 0 0 0 0 0 0 0 0 0 0 1.848184034374116e-06 0 0 0 0 0 0 0 0 0 0 2:-90 5:-92 8:-92 9:-90 15:-68 19:-70 23:-90 24:-70 26:-78 27:-78 28:-78 29:-87 59:-65 64:-89 65:-64 75:-64 76:-68 118:-66 119:-66 133:-93 
-0 -0 0 0 4.275659602259772e-06 0 0 0 0 0 0 0 0 0 0 0 0 0 0 0 0 0 0 0 0 0 0 0 0 0 0 0 0 0 0 0 0 0 0 0 0 0 0 0 0 0 0 0 0 0 0 0 0 0 2:-88 5:-91 15:-67 19:-67 20:-85 21:-86 24:-69 25:-85 26:-78 27:-78 59:-64 64:-86 65:-64 75:-65 76:-84 118:-82 119:-82 133:-94 135:-93 
-2.902995947004308e-06 -0 0 0 0 0 0 0 0 0 0 0 0 0 0 0 0.2971407537796183 0 0 0 0 0 0 0 0 0 0 0 0 0 0 0 0 0 0 0 0 0 0 0 0 0 0 0 0 0 0 0 0 0 0 0 0 0 2:-80 5:-89 15:-78 16:-88 19:-78 24:-79 26:-75 27:-74 28:-74 29:-88 59:-66 62:-87 64:-90 65:-66 73:-88 74:-88 75:-67 76:-82 118:-82 119:-81 
-0 -0 0 0 0 2.209228486070993e-06 0 0 0 0 0 0 0 0 0 0 0 0 0 0 0 0 0 0 0 0 0 8.084416960172495e-07 0 0 3.810256276699512e-07 0 0 0 0 0 0 0 0 0 0 0 0 0 0 0 1.641301332415712e-06 0 0 0 0 0 0 0 2:-90 5:-91 19:-69 20:-83 21:-82 24:-69 25:-83 26:-76 27:-76 28:-76 59:-65 64:-86 65:-65 76:-70 118:-70 119:-70 
-0 -0 0 0 0 0 0 0 0 0 0 9.282018350350559e-07 0 0 0 0 0 1.105362635267212e-05 0 0 0 0 0 0 0 0 0 0 0 0 0 0 0 0 0 0 0 0 0 0 0 0 0 3.634405996584055e-06 0 1.139127224122896e-05 0 0 0 0 0 0 0 0 2:-88 5:-90 15:-67 16:-87 19:-66 23:-90 24:-66 26:-67 27:-68 28:-68 29:-87 137:-90 
-7.071959232548069e-07 -0 0 0 0 0 0 0 0 0 0 0 0 0 0 0 0 0 0 0 0 0 0 0 0 0 0 0 0 0 0 0 0 0 0 0 0 0 0 0 0 0 0 9.488293991065604e-06 0 0 0 0 0 0 0 0 0 0 2:-88 6:-88 15:-67 16:-90 19:-67 20:-84 24:-67 25:-84 26:-82 27:-82 28:-82 59:-64 65:-63 75:-64 118:-73 119:-72 
-1.541512375608182e-05 -0 0 0 0 0 0 0 0 0 0 0 0 0 0 0 0 4.159959764984777e-06 0 0 0 0 0 0 0 0 0 0 0 0 0 0 0 0 0 0 0 0 0 0 0 0 0 0 0 0 0 0 0 0 0 0 0 0 2:-88 6:-90 15:-70 16:-91 19:-69 20:-83 21:-83 23:-90 24:-69 25:-83 26:-79 27:-79 28:-79 29:-91 59:-65 65:-65 76:-76 118:-75 119:-75 133:-93 
-0 -0 0 0 0 0 0 0 0 0 0 0 0 0 0 0 0.001715977669744024 0 0 0 0 0 0 0 0 0 0 0 0 0 0 0 0 0 0 0 0 0 4.384760006023438e-06 0 0 0 0 0 0 0 0 0 0 0 0 0 0 0 2:-86 5:-90 15:-72 16:-90 19:-72 23:-88 24:-71 26:-69 27:-69 28:-69 29:-88 137:-90 
-0 -0 0 0 0 0 0 0 0 0 0 0 0 0 0 0 0 0 0 0 0 0 0 0 0 0 0 0 0 0 4.673419989150556e-07 0 0 0 0 0 0 0 0 0 0 0 0 0 0 0 1.003297105246144e-07 0 0 0 0 0 0 0 2:-88 5:-92 6:-90 16:-88 19:-72 24:-72 26:-75 27:-76 59:-65 64:-87 65:-65 75:-66 118:-75 119:-75 133:-93 135:-94 
-0 -0 0 0 0 0 0 0 0 0 0 0 0 0 0 0 0 0 0 0 0 0 0 0 0 0 0 0 0 0 0 0 0 0 0 0 0 0 0 0 0 0 0 0 0 9.03538197187302e-07 0 0 0 0 0 0 0 0 2:-87 6:-91 15:-66 19:-66 20:-82 21:-82 24:-66 25:-82 26:-79 27:-79 29:-89 59:-64 65:-64 76:-78 118:-78 119:-78 133:-91 136:-91 140:-91 
